<?xml version="1.0" encoding="UTF-8" standalone="yes"?>
<PMML xmlns="http://www.dmg.org/PMML-4_3" xmlns:data="http://jpmml.org/jpmml-model/InlineTable" version="4.3">
	<Header>
		<Application name="JPMML-SkLearn" version="1.5.24"/>
		<Timestamp>2019-12-10T05:33:51Z</Timestamp>
	</Header>
	<MiningBuildTask>
		<Extension>PMMLPipeline(steps=[('classifier', SVC(C=1.0, cache_size=200, class_weight=None, coef0=0.0,
    decision_function_shape='ovr', degree=3, gamma='auto_deprecated',
    kernel='linear', max_iter=-1, probability=True, random_state=None,
    shrinking=True, tol=0.001, verbose=False))])</Extension>
	</MiningBuildTask>
	<DataDictionary>
		<DataField name="y" optype="categorical" dataType="integer">
			<Value value="0"/>
			<Value value="1"/>
			<Value value="2"/>
			<Value value="3"/>
			<Value value="4"/>
			<Value value="5"/>
			<Value value="6"/>
			<Value value="7"/>
		</DataField>
		<DataField name="x1" optype="continuous" dataType="double"/>
		<DataField name="x2" optype="continuous" dataType="double"/>
		<DataField name="x3" optype="continuous" dataType="double"/>
		<DataField name="x4" optype="continuous" dataType="double"/>
		<DataField name="x5" optype="continuous" dataType="double"/>
		<DataField name="x6" optype="continuous" dataType="double"/>
		<DataField name="x7" optype="continuous" dataType="double"/>
		<DataField name="x8" optype="continuous" dataType="double"/>
		<DataField name="x9" optype="continuous" dataType="double"/>
		<DataField name="x10" optype="continuous" dataType="double"/>
		<DataField name="x11" optype="continuous" dataType="double"/>
		<DataField name="x12" optype="continuous" dataType="double"/>
		<DataField name="x13" optype="continuous" dataType="double"/>
		<DataField name="x14" optype="continuous" dataType="double"/>
		<DataField name="x15" optype="continuous" dataType="double"/>
		<DataField name="x16" optype="continuous" dataType="double"/>
		<DataField name="x17" optype="continuous" dataType="double"/>
		<DataField name="x18" optype="continuous" dataType="double"/>
		<DataField name="x19" optype="continuous" dataType="double"/>
		<DataField name="x20" optype="continuous" dataType="double"/>
		<DataField name="x21" optype="continuous" dataType="double"/>
		<DataField name="x22" optype="continuous" dataType="double"/>
		<DataField name="x23" optype="continuous" dataType="double"/>
		<DataField name="x24" optype="continuous" dataType="double"/>
		<DataField name="x25" optype="continuous" dataType="double"/>
		<DataField name="x26" optype="continuous" dataType="double"/>
		<DataField name="x27" optype="continuous" dataType="double"/>
		<DataField name="x28" optype="continuous" dataType="double"/>
		<DataField name="x29" optype="continuous" dataType="double"/>
		<DataField name="x30" optype="continuous" dataType="double"/>
		<DataField name="x31" optype="continuous" dataType="double"/>
		<DataField name="x32" optype="continuous" dataType="double"/>
		<DataField name="x33" optype="continuous" dataType="double"/>
		<DataField name="x34" optype="continuous" dataType="double"/>
		<DataField name="x35" optype="continuous" dataType="double"/>
		<DataField name="x36" optype="continuous" dataType="double"/>
		<DataField name="x37" optype="continuous" dataType="double"/>
		<DataField name="x38" optype="continuous" dataType="double"/>
		<DataField name="x39" optype="continuous" dataType="double"/>
		<DataField name="x40" optype="continuous" dataType="double"/>
		<DataField name="x41" optype="continuous" dataType="double"/>
		<DataField name="x42" optype="continuous" dataType="double"/>
		<DataField name="x43" optype="continuous" dataType="double"/>
		<DataField name="x44" optype="continuous" dataType="double"/>
		<DataField name="x45" optype="continuous" dataType="double"/>
		<DataField name="x46" optype="continuous" dataType="double"/>
		<DataField name="x47" optype="continuous" dataType="double"/>
		<DataField name="x48" optype="continuous" dataType="double"/>
		<DataField name="x49" optype="continuous" dataType="double"/>
		<DataField name="x50" optype="continuous" dataType="double"/>
		<DataField name="x51" optype="continuous" dataType="double"/>
		<DataField name="x52" optype="continuous" dataType="double"/>
		<DataField name="x53" optype="continuous" dataType="double"/>
		<DataField name="x54" optype="continuous" dataType="double"/>
		<DataField name="x55" optype="continuous" dataType="double"/>
		<DataField name="x56" optype="continuous" dataType="double"/>
		<DataField name="x57" optype="continuous" dataType="double"/>
		<DataField name="x58" optype="continuous" dataType="double"/>
		<DataField name="x59" optype="continuous" dataType="double"/>
		<DataField name="x60" optype="continuous" dataType="double"/>
		<DataField name="x61" optype="continuous" dataType="double"/>
		<DataField name="x62" optype="continuous" dataType="double"/>
		<DataField name="x63" optype="continuous" dataType="double"/>
		<DataField name="x64" optype="continuous" dataType="double"/>
		<DataField name="x65" optype="continuous" dataType="double"/>
		<DataField name="x66" optype="continuous" dataType="double"/>
		<DataField name="x67" optype="continuous" dataType="double"/>
		<DataField name="x68" optype="continuous" dataType="double"/>
		<DataField name="x69" optype="continuous" dataType="double"/>
		<DataField name="x70" optype="continuous" dataType="double"/>
		<DataField name="x71" optype="continuous" dataType="double"/>
		<DataField name="x72" optype="continuous" dataType="double"/>
		<DataField name="x73" optype="continuous" dataType="double"/>
		<DataField name="x74" optype="continuous" dataType="double"/>
		<DataField name="x75" optype="continuous" dataType="double"/>
		<DataField name="x76" optype="continuous" dataType="double"/>
		<DataField name="x77" optype="continuous" dataType="double"/>
		<DataField name="x78" optype="continuous" dataType="double"/>
		<DataField name="x79" optype="continuous" dataType="double"/>
		<DataField name="x80" optype="continuous" dataType="double"/>
		<DataField name="x81" optype="continuous" dataType="double"/>
		<DataField name="x82" optype="continuous" dataType="double"/>
		<DataField name="x83" optype="continuous" dataType="double"/>
		<DataField name="x84" optype="continuous" dataType="double"/>
		<DataField name="x85" optype="continuous" dataType="double"/>
		<DataField name="x86" optype="continuous" dataType="double"/>
		<DataField name="x87" optype="continuous" dataType="double"/>
		<DataField name="x88" optype="continuous" dataType="double"/>
		<DataField name="x89" optype="continuous" dataType="double"/>
		<DataField name="x90" optype="continuous" dataType="double"/>
		<DataField name="x91" optype="continuous" dataType="double"/>
		<DataField name="x92" optype="continuous" dataType="double"/>
		<DataField name="x93" optype="continuous" dataType="double"/>
		<DataField name="x94" optype="continuous" dataType="double"/>
		<DataField name="x95" optype="continuous" dataType="double"/>
		<DataField name="x96" optype="continuous" dataType="double"/>
		<DataField name="x97" optype="continuous" dataType="double"/>
		<DataField name="x98" optype="continuous" dataType="double"/>
		<DataField name="x99" optype="continuous" dataType="double"/>
		<DataField name="x100" optype="continuous" dataType="double"/>
		<DataField name="x101" optype="continuous" dataType="double"/>
		<DataField name="x102" optype="continuous" dataType="double"/>
		<DataField name="x103" optype="continuous" dataType="double"/>
		<DataField name="x104" optype="continuous" dataType="double"/>
		<DataField name="x105" optype="continuous" dataType="double"/>
		<DataField name="x106" optype="continuous" dataType="double"/>
		<DataField name="x107" optype="continuous" dataType="double"/>
		<DataField name="x108" optype="continuous" dataType="double"/>
		<DataField name="x109" optype="continuous" dataType="double"/>
		<DataField name="x110" optype="continuous" dataType="double"/>
		<DataField name="x111" optype="continuous" dataType="double"/>
		<DataField name="x112" optype="continuous" dataType="double"/>
		<DataField name="x113" optype="continuous" dataType="double"/>
		<DataField name="x114" optype="continuous" dataType="double"/>
		<DataField name="x115" optype="continuous" dataType="double"/>
		<DataField name="x116" optype="continuous" dataType="double"/>
		<DataField name="x117" optype="continuous" dataType="double"/>
		<DataField name="x118" optype="continuous" dataType="double"/>
		<DataField name="x119" optype="continuous" dataType="double"/>
		<DataField name="x120" optype="continuous" dataType="double"/>
		<DataField name="x121" optype="continuous" dataType="double"/>
		<DataField name="x122" optype="continuous" dataType="double"/>
		<DataField name="x123" optype="continuous" dataType="double"/>
		<DataField name="x124" optype="continuous" dataType="double"/>
		<DataField name="x125" optype="continuous" dataType="double"/>
		<DataField name="x126" optype="continuous" dataType="double"/>
		<DataField name="x127" optype="continuous" dataType="double"/>
		<DataField name="x128" optype="continuous" dataType="double"/>
		<DataField name="x129" optype="continuous" dataType="double"/>
		<DataField name="x130" optype="continuous" dataType="double"/>
		<DataField name="x131" optype="continuous" dataType="double"/>
		<DataField name="x132" optype="continuous" dataType="double"/>
		<DataField name="x133" optype="continuous" dataType="double"/>
		<DataField name="x134" optype="continuous" dataType="double"/>
		<DataField name="x135" optype="continuous" dataType="double"/>
		<DataField name="x136" optype="continuous" dataType="double"/>
		<DataField name="x137" optype="continuous" dataType="double"/>
		<DataField name="x138" optype="continuous" dataType="double"/>
		<DataField name="x139" optype="continuous" dataType="double"/>
		<DataField name="x140" optype="continuous" dataType="double"/>
		<DataField name="x141" optype="continuous" dataType="double"/>
		<DataField name="x142" optype="continuous" dataType="double"/>
		<DataField name="x143" optype="continuous" dataType="double"/>
		<DataField name="x144" optype="continuous" dataType="double"/>
		<DataField name="x145" optype="continuous" dataType="double"/>
		<DataField name="x146" optype="continuous" dataType="double"/>
		<DataField name="x147" optype="continuous" dataType="double"/>
		<DataField name="x148" optype="continuous" dataType="double"/>
		<DataField name="x149" optype="continuous" dataType="double"/>
		<DataField name="x150" optype="continuous" dataType="double"/>
		<DataField name="x151" optype="continuous" dataType="double"/>
		<DataField name="x152" optype="continuous" dataType="double"/>
		<DataField name="x153" optype="continuous" dataType="double"/>
		<DataField name="x154" optype="continuous" dataType="double"/>
		<DataField name="x155" optype="continuous" dataType="double"/>
		<DataField name="x156" optype="continuous" dataType="double"/>
		<DataField name="x157" optype="continuous" dataType="double"/>
		<DataField name="x158" optype="continuous" dataType="double"/>
		<DataField name="x159" optype="continuous" dataType="double"/>
		<DataField name="x160" optype="continuous" dataType="double"/>
		<DataField name="x161" optype="continuous" dataType="double"/>
		<DataField name="x162" optype="continuous" dataType="double"/>
		<DataField name="x163" optype="continuous" dataType="double"/>
		<DataField name="x164" optype="continuous" dataType="double"/>
		<DataField name="x165" optype="continuous" dataType="double"/>
		<DataField name="x166" optype="continuous" dataType="double"/>
		<DataField name="x167" optype="continuous" dataType="double"/>
		<DataField name="x168" optype="continuous" dataType="double"/>
		<DataField name="x169" optype="continuous" dataType="double"/>
		<DataField name="x170" optype="continuous" dataType="double"/>
		<DataField name="x171" optype="continuous" dataType="double"/>
		<DataField name="x172" optype="continuous" dataType="double"/>
		<DataField name="x173" optype="continuous" dataType="double"/>
		<DataField name="x174" optype="continuous" dataType="double"/>
		<DataField name="x175" optype="continuous" dataType="double"/>
		<DataField name="x176" optype="continuous" dataType="double"/>
		<DataField name="x177" optype="continuous" dataType="double"/>
		<DataField name="x178" optype="continuous" dataType="double"/>
		<DataField name="x179" optype="continuous" dataType="double"/>
		<DataField name="x180" optype="continuous" dataType="double"/>
		<DataField name="x181" optype="continuous" dataType="double"/>
		<DataField name="x182" optype="continuous" dataType="double"/>
		<DataField name="x183" optype="continuous" dataType="double"/>
		<DataField name="x184" optype="continuous" dataType="double"/>
		<DataField name="x185" optype="continuous" dataType="double"/>
		<DataField name="x186" optype="continuous" dataType="double"/>
		<DataField name="x187" optype="continuous" dataType="double"/>
		<DataField name="x188" optype="continuous" dataType="double"/>
		<DataField name="x189" optype="continuous" dataType="double"/>
		<DataField name="x190" optype="continuous" dataType="double"/>
		<DataField name="x191" optype="continuous" dataType="double"/>
		<DataField name="x192" optype="continuous" dataType="double"/>
		<DataField name="x193" optype="continuous" dataType="double"/>
		<DataField name="x194" optype="continuous" dataType="double"/>
		<DataField name="x195" optype="continuous" dataType="double"/>
		<DataField name="x196" optype="continuous" dataType="double"/>
		<DataField name="x197" optype="continuous" dataType="double"/>
		<DataField name="x198" optype="continuous" dataType="double"/>
		<DataField name="x199" optype="continuous" dataType="double"/>
		<DataField name="x200" optype="continuous" dataType="double"/>
		<DataField name="x201" optype="continuous" dataType="double"/>
		<DataField name="x202" optype="continuous" dataType="double"/>
		<DataField name="x203" optype="continuous" dataType="double"/>
		<DataField name="x204" optype="continuous" dataType="double"/>
		<DataField name="x205" optype="continuous" dataType="double"/>
		<DataField name="x206" optype="continuous" dataType="double"/>
		<DataField name="x207" optype="continuous" dataType="double"/>
		<DataField name="x208" optype="continuous" dataType="double"/>
		<DataField name="x209" optype="continuous" dataType="double"/>
		<DataField name="x210" optype="continuous" dataType="double"/>
		<DataField name="x211" optype="continuous" dataType="double"/>
		<DataField name="x212" optype="continuous" dataType="double"/>
		<DataField name="x213" optype="continuous" dataType="double"/>
		<DataField name="x214" optype="continuous" dataType="double"/>
		<DataField name="x215" optype="continuous" dataType="double"/>
		<DataField name="x216" optype="continuous" dataType="double"/>
		<DataField name="x217" optype="continuous" dataType="double"/>
		<DataField name="x218" optype="continuous" dataType="double"/>
		<DataField name="x219" optype="continuous" dataType="double"/>
		<DataField name="x220" optype="continuous" dataType="double"/>
		<DataField name="x221" optype="continuous" dataType="double"/>
		<DataField name="x222" optype="continuous" dataType="double"/>
		<DataField name="x223" optype="continuous" dataType="double"/>
		<DataField name="x224" optype="continuous" dataType="double"/>
		<DataField name="x225" optype="continuous" dataType="double"/>
		<DataField name="x226" optype="continuous" dataType="double"/>
		<DataField name="x227" optype="continuous" dataType="double"/>
		<DataField name="x228" optype="continuous" dataType="double"/>
		<DataField name="x229" optype="continuous" dataType="double"/>
		<DataField name="x230" optype="continuous" dataType="double"/>
		<DataField name="x231" optype="continuous" dataType="double"/>
		<DataField name="x232" optype="continuous" dataType="double"/>
		<DataField name="x233" optype="continuous" dataType="double"/>
		<DataField name="x234" optype="continuous" dataType="double"/>
		<DataField name="x235" optype="continuous" dataType="double"/>
		<DataField name="x236" optype="continuous" dataType="double"/>
		<DataField name="x237" optype="continuous" dataType="double"/>
		<DataField name="x238" optype="continuous" dataType="double"/>
		<DataField name="x239" optype="continuous" dataType="double"/>
		<DataField name="x240" optype="continuous" dataType="double"/>
		<DataField name="x241" optype="continuous" dataType="double"/>
		<DataField name="x242" optype="continuous" dataType="double"/>
		<DataField name="x243" optype="continuous" dataType="double"/>
		<DataField name="x244" optype="continuous" dataType="double"/>
		<DataField name="x245" optype="continuous" dataType="double"/>
		<DataField name="x246" optype="continuous" dataType="double"/>
		<DataField name="x247" optype="continuous" dataType="double"/>
		<DataField name="x248" optype="continuous" dataType="double"/>
		<DataField name="x249" optype="continuous" dataType="double"/>
		<DataField name="x250" optype="continuous" dataType="double"/>
		<DataField name="x251" optype="continuous" dataType="double"/>
		<DataField name="x252" optype="continuous" dataType="double"/>
		<DataField name="x253" optype="continuous" dataType="double"/>
		<DataField name="x254" optype="continuous" dataType="double"/>
		<DataField name="x255" optype="continuous" dataType="double"/>
		<DataField name="x256" optype="continuous" dataType="double"/>
		<DataField name="x257" optype="continuous" dataType="double"/>
		<DataField name="x258" optype="continuous" dataType="double"/>
		<DataField name="x259" optype="continuous" dataType="double"/>
		<DataField name="x260" optype="continuous" dataType="double"/>
		<DataField name="x261" optype="continuous" dataType="double"/>
		<DataField name="x262" optype="continuous" dataType="double"/>
		<DataField name="x263" optype="continuous" dataType="double"/>
		<DataField name="x264" optype="continuous" dataType="double"/>
		<DataField name="x265" optype="continuous" dataType="double"/>
		<DataField name="x266" optype="continuous" dataType="double"/>
		<DataField name="x267" optype="continuous" dataType="double"/>
		<DataField name="x268" optype="continuous" dataType="double"/>
		<DataField name="x269" optype="continuous" dataType="double"/>
		<DataField name="x270" optype="continuous" dataType="double"/>
		<DataField name="x271" optype="continuous" dataType="double"/>
		<DataField name="x272" optype="continuous" dataType="double"/>
		<DataField name="x273" optype="continuous" dataType="double"/>
		<DataField name="x274" optype="continuous" dataType="double"/>
		<DataField name="x275" optype="continuous" dataType="double"/>
		<DataField name="x276" optype="continuous" dataType="double"/>
		<DataField name="x277" optype="continuous" dataType="double"/>
		<DataField name="x278" optype="continuous" dataType="double"/>
		<DataField name="x279" optype="continuous" dataType="double"/>
		<DataField name="x280" optype="continuous" dataType="double"/>
		<DataField name="x281" optype="continuous" dataType="double"/>
		<DataField name="x282" optype="continuous" dataType="double"/>
		<DataField name="x283" optype="continuous" dataType="double"/>
		<DataField name="x284" optype="continuous" dataType="double"/>
		<DataField name="x285" optype="continuous" dataType="double"/>
		<DataField name="x286" optype="continuous" dataType="double"/>
		<DataField name="x287" optype="continuous" dataType="double"/>
		<DataField name="x288" optype="continuous" dataType="double"/>
		<DataField name="x289" optype="continuous" dataType="double"/>
		<DataField name="x290" optype="continuous" dataType="double"/>
		<DataField name="x291" optype="continuous" dataType="double"/>
		<DataField name="x292" optype="continuous" dataType="double"/>
		<DataField name="x293" optype="continuous" dataType="double"/>
		<DataField name="x294" optype="continuous" dataType="double"/>
		<DataField name="x295" optype="continuous" dataType="double"/>
		<DataField name="x296" optype="continuous" dataType="double"/>
		<DataField name="x297" optype="continuous" dataType="double"/>
		<DataField name="x298" optype="continuous" dataType="double"/>
		<DataField name="x299" optype="continuous" dataType="double"/>
		<DataField name="x300" optype="continuous" dataType="double"/>
		<DataField name="x301" optype="continuous" dataType="double"/>
		<DataField name="x302" optype="continuous" dataType="double"/>
		<DataField name="x303" optype="continuous" dataType="double"/>
		<DataField name="x304" optype="continuous" dataType="double"/>
		<DataField name="x305" optype="continuous" dataType="double"/>
		<DataField name="x306" optype="continuous" dataType="double"/>
		<DataField name="x307" optype="continuous" dataType="double"/>
		<DataField name="x308" optype="continuous" dataType="double"/>
		<DataField name="x309" optype="continuous" dataType="double"/>
		<DataField name="x310" optype="continuous" dataType="double"/>
		<DataField name="x311" optype="continuous" dataType="double"/>
		<DataField name="x312" optype="continuous" dataType="double"/>
		<DataField name="x313" optype="continuous" dataType="double"/>
		<DataField name="x314" optype="continuous" dataType="double"/>
		<DataField name="x315" optype="continuous" dataType="double"/>
		<DataField name="x316" optype="continuous" dataType="double"/>
		<DataField name="x317" optype="continuous" dataType="double"/>
		<DataField name="x318" optype="continuous" dataType="double"/>
		<DataField name="x319" optype="continuous" dataType="double"/>
		<DataField name="x320" optype="continuous" dataType="double"/>
		<DataField name="x321" optype="continuous" dataType="double"/>
		<DataField name="x322" optype="continuous" dataType="double"/>
		<DataField name="x323" optype="continuous" dataType="double"/>
		<DataField name="x324" optype="continuous" dataType="double"/>
		<DataField name="x325" optype="continuous" dataType="double"/>
		<DataField name="x326" optype="continuous" dataType="double"/>
		<DataField name="x327" optype="continuous" dataType="double"/>
		<DataField name="x328" optype="continuous" dataType="double"/>
		<DataField name="x329" optype="continuous" dataType="double"/>
		<DataField name="x330" optype="continuous" dataType="double"/>
		<DataField name="x331" optype="continuous" dataType="double"/>
		<DataField name="x332" optype="continuous" dataType="double"/>
		<DataField name="x333" optype="continuous" dataType="double"/>
		<DataField name="x334" optype="continuous" dataType="double"/>
		<DataField name="x335" optype="continuous" dataType="double"/>
		<DataField name="x336" optype="continuous" dataType="double"/>
		<DataField name="x337" optype="continuous" dataType="double"/>
		<DataField name="x338" optype="continuous" dataType="double"/>
		<DataField name="x339" optype="continuous" dataType="double"/>
		<DataField name="x340" optype="continuous" dataType="double"/>
		<DataField name="x341" optype="continuous" dataType="double"/>
		<DataField name="x342" optype="continuous" dataType="double"/>
		<DataField name="x343" optype="continuous" dataType="double"/>
		<DataField name="x344" optype="continuous" dataType="double"/>
		<DataField name="x345" optype="continuous" dataType="double"/>
		<DataField name="x346" optype="continuous" dataType="double"/>
		<DataField name="x347" optype="continuous" dataType="double"/>
		<DataField name="x348" optype="continuous" dataType="double"/>
		<DataField name="x349" optype="continuous" dataType="double"/>
		<DataField name="x350" optype="continuous" dataType="double"/>
		<DataField name="x351" optype="continuous" dataType="double"/>
		<DataField name="x352" optype="continuous" dataType="double"/>
		<DataField name="x353" optype="continuous" dataType="double"/>
		<DataField name="x354" optype="continuous" dataType="double"/>
		<DataField name="x355" optype="continuous" dataType="double"/>
		<DataField name="x356" optype="continuous" dataType="double"/>
		<DataField name="x357" optype="continuous" dataType="double"/>
		<DataField name="x358" optype="continuous" dataType="double"/>
		<DataField name="x359" optype="continuous" dataType="double"/>
		<DataField name="x360" optype="continuous" dataType="double"/>
		<DataField name="x361" optype="continuous" dataType="double"/>
		<DataField name="x362" optype="continuous" dataType="double"/>
		<DataField name="x363" optype="continuous" dataType="double"/>
		<DataField name="x364" optype="continuous" dataType="double"/>
		<DataField name="x365" optype="continuous" dataType="double"/>
		<DataField name="x366" optype="continuous" dataType="double"/>
		<DataField name="x367" optype="continuous" dataType="double"/>
		<DataField name="x368" optype="continuous" dataType="double"/>
		<DataField name="x369" optype="continuous" dataType="double"/>
		<DataField name="x370" optype="continuous" dataType="double"/>
		<DataField name="x371" optype="continuous" dataType="double"/>
		<DataField name="x372" optype="continuous" dataType="double"/>
		<DataField name="x373" optype="continuous" dataType="double"/>
		<DataField name="x374" optype="continuous" dataType="double"/>
		<DataField name="x375" optype="continuous" dataType="double"/>
		<DataField name="x376" optype="continuous" dataType="double"/>
		<DataField name="x377" optype="continuous" dataType="double"/>
		<DataField name="x378" optype="continuous" dataType="double"/>
		<DataField name="x379" optype="continuous" dataType="double"/>
		<DataField name="x380" optype="continuous" dataType="double"/>
		<DataField name="x381" optype="continuous" dataType="double"/>
		<DataField name="x382" optype="continuous" dataType="double"/>
		<DataField name="x383" optype="continuous" dataType="double"/>
		<DataField name="x384" optype="continuous" dataType="double"/>
		<DataField name="x385" optype="continuous" dataType="double"/>
		<DataField name="x386" optype="continuous" dataType="double"/>
		<DataField name="x387" optype="continuous" dataType="double"/>
		<DataField name="x388" optype="continuous" dataType="double"/>
		<DataField name="x389" optype="continuous" dataType="double"/>
		<DataField name="x390" optype="continuous" dataType="double"/>
		<DataField name="x391" optype="continuous" dataType="double"/>
		<DataField name="x392" optype="continuous" dataType="double"/>
		<DataField name="x393" optype="continuous" dataType="double"/>
		<DataField name="x394" optype="continuous" dataType="double"/>
		<DataField name="x395" optype="continuous" dataType="double"/>
		<DataField name="x396" optype="continuous" dataType="double"/>
		<DataField name="x397" optype="continuous" dataType="double"/>
		<DataField name="x398" optype="continuous" dataType="double"/>
		<DataField name="x399" optype="continuous" dataType="double"/>
		<DataField name="x400" optype="continuous" dataType="double"/>
		<DataField name="x401" optype="continuous" dataType="double"/>
		<DataField name="x402" optype="continuous" dataType="double"/>
		<DataField name="x403" optype="continuous" dataType="double"/>
		<DataField name="x404" optype="continuous" dataType="double"/>
		<DataField name="x405" optype="continuous" dataType="double"/>
		<DataField name="x406" optype="continuous" dataType="double"/>
		<DataField name="x407" optype="continuous" dataType="double"/>
		<DataField name="x408" optype="continuous" dataType="double"/>
		<DataField name="x409" optype="continuous" dataType="double"/>
		<DataField name="x410" optype="continuous" dataType="double"/>
		<DataField name="x411" optype="continuous" dataType="double"/>
		<DataField name="x412" optype="continuous" dataType="double"/>
		<DataField name="x413" optype="continuous" dataType="double"/>
		<DataField name="x414" optype="continuous" dataType="double"/>
		<DataField name="x415" optype="continuous" dataType="double"/>
		<DataField name="x416" optype="continuous" dataType="double"/>
		<DataField name="x417" optype="continuous" dataType="double"/>
		<DataField name="x418" optype="continuous" dataType="double"/>
		<DataField name="x419" optype="continuous" dataType="double"/>
		<DataField name="x420" optype="continuous" dataType="double"/>
		<DataField name="x421" optype="continuous" dataType="double"/>
		<DataField name="x422" optype="continuous" dataType="double"/>
		<DataField name="x423" optype="continuous" dataType="double"/>
		<DataField name="x424" optype="continuous" dataType="double"/>
		<DataField name="x425" optype="continuous" dataType="double"/>
		<DataField name="x426" optype="continuous" dataType="double"/>
		<DataField name="x427" optype="continuous" dataType="double"/>
		<DataField name="x428" optype="continuous" dataType="double"/>
		<DataField name="x429" optype="continuous" dataType="double"/>
		<DataField name="x430" optype="continuous" dataType="double"/>
		<DataField name="x431" optype="continuous" dataType="double"/>
		<DataField name="x432" optype="continuous" dataType="double"/>
		<DataField name="x433" optype="continuous" dataType="double"/>
		<DataField name="x434" optype="continuous" dataType="double"/>
		<DataField name="x435" optype="continuous" dataType="double"/>
		<DataField name="x436" optype="continuous" dataType="double"/>
		<DataField name="x437" optype="continuous" dataType="double"/>
		<DataField name="x438" optype="continuous" dataType="double"/>
		<DataField name="x439" optype="continuous" dataType="double"/>
		<DataField name="x440" optype="continuous" dataType="double"/>
		<DataField name="x441" optype="continuous" dataType="double"/>
		<DataField name="x442" optype="continuous" dataType="double"/>
		<DataField name="x443" optype="continuous" dataType="double"/>
		<DataField name="x444" optype="continuous" dataType="double"/>
		<DataField name="x445" optype="continuous" dataType="double"/>
		<DataField name="x446" optype="continuous" dataType="double"/>
		<DataField name="x447" optype="continuous" dataType="double"/>
		<DataField name="x448" optype="continuous" dataType="double"/>
		<DataField name="x449" optype="continuous" dataType="double"/>
		<DataField name="x450" optype="continuous" dataType="double"/>
		<DataField name="x451" optype="continuous" dataType="double"/>
		<DataField name="x452" optype="continuous" dataType="double"/>
		<DataField name="x453" optype="continuous" dataType="double"/>
		<DataField name="x454" optype="continuous" dataType="double"/>
		<DataField name="x455" optype="continuous" dataType="double"/>
		<DataField name="x456" optype="continuous" dataType="double"/>
		<DataField name="x457" optype="continuous" dataType="double"/>
		<DataField name="x458" optype="continuous" dataType="double"/>
		<DataField name="x459" optype="continuous" dataType="double"/>
		<DataField name="x460" optype="continuous" dataType="double"/>
		<DataField name="x461" optype="continuous" dataType="double"/>
		<DataField name="x462" optype="continuous" dataType="double"/>
		<DataField name="x463" optype="continuous" dataType="double"/>
		<DataField name="x464" optype="continuous" dataType="double"/>
		<DataField name="x465" optype="continuous" dataType="double"/>
		<DataField name="x466" optype="continuous" dataType="double"/>
		<DataField name="x467" optype="continuous" dataType="double"/>
		<DataField name="x468" optype="continuous" dataType="double"/>
		<DataField name="x469" optype="continuous" dataType="double"/>
		<DataField name="x470" optype="continuous" dataType="double"/>
		<DataField name="x471" optype="continuous" dataType="double"/>
		<DataField name="x472" optype="continuous" dataType="double"/>
		<DataField name="x473" optype="continuous" dataType="double"/>
		<DataField name="x474" optype="continuous" dataType="double"/>
		<DataField name="x475" optype="continuous" dataType="double"/>
		<DataField name="x476" optype="continuous" dataType="double"/>
		<DataField name="x477" optype="continuous" dataType="double"/>
		<DataField name="x478" optype="continuous" dataType="double"/>
		<DataField name="x479" optype="continuous" dataType="double"/>
		<DataField name="x480" optype="continuous" dataType="double"/>
		<DataField name="x481" optype="continuous" dataType="double"/>
		<DataField name="x482" optype="continuous" dataType="double"/>
		<DataField name="x483" optype="continuous" dataType="double"/>
		<DataField name="x484" optype="continuous" dataType="double"/>
		<DataField name="x485" optype="continuous" dataType="double"/>
		<DataField name="x486" optype="continuous" dataType="double"/>
		<DataField name="x487" optype="continuous" dataType="double"/>
		<DataField name="x488" optype="continuous" dataType="double"/>
		<DataField name="x489" optype="continuous" dataType="double"/>
		<DataField name="x490" optype="continuous" dataType="double"/>
		<DataField name="x491" optype="continuous" dataType="double"/>
		<DataField name="x492" optype="continuous" dataType="double"/>
		<DataField name="x493" optype="continuous" dataType="double"/>
		<DataField name="x494" optype="continuous" dataType="double"/>
		<DataField name="x495" optype="continuous" dataType="double"/>
		<DataField name="x496" optype="continuous" dataType="double"/>
		<DataField name="x497" optype="continuous" dataType="double"/>
		<DataField name="x498" optype="continuous" dataType="double"/>
		<DataField name="x499" optype="continuous" dataType="double"/>
		<DataField name="x500" optype="continuous" dataType="double"/>
		<DataField name="x501" optype="continuous" dataType="double"/>
		<DataField name="x502" optype="continuous" dataType="double"/>
		<DataField name="x503" optype="continuous" dataType="double"/>
		<DataField name="x504" optype="continuous" dataType="double"/>
		<DataField name="x505" optype="continuous" dataType="double"/>
		<DataField name="x506" optype="continuous" dataType="double"/>
		<DataField name="x507" optype="continuous" dataType="double"/>
		<DataField name="x508" optype="continuous" dataType="double"/>
		<DataField name="x509" optype="continuous" dataType="double"/>
		<DataField name="x510" optype="continuous" dataType="double"/>
		<DataField name="x511" optype="continuous" dataType="double"/>
		<DataField name="x512" optype="continuous" dataType="double"/>
	</DataDictionary>
	<SupportVectorMachineModel functionName="classification" classificationMethod="OneAgainstOne">
		<MiningSchema>
			<MiningField name="y" usageType="target"/>
			<MiningField name="x1"/>
			<MiningField name="x2"/>
			<MiningField name="x3"/>
			<MiningField name="x4"/>
			<MiningField name="x5"/>
			<MiningField name="x6"/>
			<MiningField name="x7"/>
			<MiningField name="x8"/>
			<MiningField name="x9"/>
			<MiningField name="x10"/>
			<MiningField name="x11"/>
			<MiningField name="x12"/>
			<MiningField name="x13"/>
			<MiningField name="x14"/>
			<MiningField name="x15"/>
			<MiningField name="x16"/>
			<MiningField name="x17"/>
			<MiningField name="x18"/>
			<MiningField name="x19"/>
			<MiningField name="x20"/>
			<MiningField name="x21"/>
			<MiningField name="x22"/>
			<MiningField name="x23"/>
			<MiningField name="x24"/>
			<MiningField name="x25"/>
			<MiningField name="x26"/>
			<MiningField name="x27"/>
			<MiningField name="x28"/>
			<MiningField name="x29"/>
			<MiningField name="x30"/>
			<MiningField name="x31"/>
			<MiningField name="x32"/>
			<MiningField name="x33"/>
			<MiningField name="x34"/>
			<MiningField name="x35"/>
			<MiningField name="x36"/>
			<MiningField name="x37"/>
			<MiningField name="x38"/>
			<MiningField name="x39"/>
			<MiningField name="x40"/>
			<MiningField name="x41"/>
			<MiningField name="x42"/>
			<MiningField name="x43"/>
			<MiningField name="x44"/>
			<MiningField name="x45"/>
			<MiningField name="x46"/>
			<MiningField name="x47"/>
			<MiningField name="x48"/>
			<MiningField name="x49"/>
			<MiningField name="x50"/>
			<MiningField name="x51"/>
			<MiningField name="x52"/>
			<MiningField name="x53"/>
			<MiningField name="x54"/>
			<MiningField name="x55"/>
			<MiningField name="x56"/>
			<MiningField name="x57"/>
			<MiningField name="x58"/>
			<MiningField name="x59"/>
			<MiningField name="x60"/>
			<MiningField name="x61"/>
			<MiningField name="x62"/>
			<MiningField name="x63"/>
			<MiningField name="x64"/>
			<MiningField name="x65"/>
			<MiningField name="x66"/>
			<MiningField name="x67"/>
			<MiningField name="x68"/>
			<MiningField name="x69"/>
			<MiningField name="x70"/>
			<MiningField name="x71"/>
			<MiningField name="x72"/>
			<MiningField name="x73"/>
			<MiningField name="x74"/>
			<MiningField name="x75"/>
			<MiningField name="x76"/>
			<MiningField name="x77"/>
			<MiningField name="x78"/>
			<MiningField name="x79"/>
			<MiningField name="x80"/>
			<MiningField name="x81"/>
			<MiningField name="x82"/>
			<MiningField name="x83"/>
			<MiningField name="x84"/>
			<MiningField name="x85"/>
			<MiningField name="x86"/>
			<MiningField name="x87"/>
			<MiningField name="x88"/>
			<MiningField name="x89"/>
			<MiningField name="x90"/>
			<MiningField name="x91"/>
			<MiningField name="x92"/>
			<MiningField name="x93"/>
			<MiningField name="x94"/>
			<MiningField name="x95"/>
			<MiningField name="x96"/>
			<MiningField name="x97"/>
			<MiningField name="x98"/>
			<MiningField name="x99"/>
			<MiningField name="x100"/>
			<MiningField name="x101"/>
			<MiningField name="x102"/>
			<MiningField name="x103"/>
			<MiningField name="x104"/>
			<MiningField name="x105"/>
			<MiningField name="x106"/>
			<MiningField name="x107"/>
			<MiningField name="x108"/>
			<MiningField name="x109"/>
			<MiningField name="x110"/>
			<MiningField name="x111"/>
			<MiningField name="x112"/>
			<MiningField name="x113"/>
			<MiningField name="x114"/>
			<MiningField name="x115"/>
			<MiningField name="x116"/>
			<MiningField name="x117"/>
			<MiningField name="x118"/>
			<MiningField name="x119"/>
			<MiningField name="x120"/>
			<MiningField name="x121"/>
			<MiningField name="x122"/>
			<MiningField name="x123"/>
			<MiningField name="x124"/>
			<MiningField name="x125"/>
			<MiningField name="x126"/>
			<MiningField name="x127"/>
			<MiningField name="x128"/>
			<MiningField name="x129"/>
			<MiningField name="x130"/>
			<MiningField name="x131"/>
			<MiningField name="x132"/>
			<MiningField name="x133"/>
			<MiningField name="x134"/>
			<MiningField name="x135"/>
			<MiningField name="x136"/>
			<MiningField name="x137"/>
			<MiningField name="x138"/>
			<MiningField name="x139"/>
			<MiningField name="x140"/>
			<MiningField name="x141"/>
			<MiningField name="x142"/>
			<MiningField name="x143"/>
			<MiningField name="x144"/>
			<MiningField name="x145"/>
			<MiningField name="x146"/>
			<MiningField name="x147"/>
			<MiningField name="x148"/>
			<MiningField name="x149"/>
			<MiningField name="x150"/>
			<MiningField name="x151"/>
			<MiningField name="x152"/>
			<MiningField name="x153"/>
			<MiningField name="x154"/>
			<MiningField name="x155"/>
			<MiningField name="x156"/>
			<MiningField name="x157"/>
			<MiningField name="x158"/>
			<MiningField name="x159"/>
			<MiningField name="x160"/>
			<MiningField name="x161"/>
			<MiningField name="x162"/>
			<MiningField name="x163"/>
			<MiningField name="x164"/>
			<MiningField name="x165"/>
			<MiningField name="x166"/>
			<MiningField name="x167"/>
			<MiningField name="x168"/>
			<MiningField name="x169"/>
			<MiningField name="x170"/>
			<MiningField name="x171"/>
			<MiningField name="x172"/>
			<MiningField name="x173"/>
			<MiningField name="x174"/>
			<MiningField name="x175"/>
			<MiningField name="x176"/>
			<MiningField name="x177"/>
			<MiningField name="x178"/>
			<MiningField name="x179"/>
			<MiningField name="x180"/>
			<MiningField name="x181"/>
			<MiningField name="x182"/>
			<MiningField name="x183"/>
			<MiningField name="x184"/>
			<MiningField name="x185"/>
			<MiningField name="x186"/>
			<MiningField name="x187"/>
			<MiningField name="x188"/>
			<MiningField name="x189"/>
			<MiningField name="x190"/>
			<MiningField name="x191"/>
			<MiningField name="x192"/>
			<MiningField name="x193"/>
			<MiningField name="x194"/>
			<MiningField name="x195"/>
			<MiningField name="x196"/>
			<MiningField name="x197"/>
			<MiningField name="x198"/>
			<MiningField name="x199"/>
			<MiningField name="x200"/>
			<MiningField name="x201"/>
			<MiningField name="x202"/>
			<MiningField name="x203"/>
			<MiningField name="x204"/>
			<MiningField name="x205"/>
			<MiningField name="x206"/>
			<MiningField name="x207"/>
			<MiningField name="x208"/>
			<MiningField name="x209"/>
			<MiningField name="x210"/>
			<MiningField name="x211"/>
			<MiningField name="x212"/>
			<MiningField name="x213"/>
			<MiningField name="x214"/>
			<MiningField name="x215"/>
			<MiningField name="x216"/>
			<MiningField name="x217"/>
			<MiningField name="x218"/>
			<MiningField name="x219"/>
			<MiningField name="x220"/>
			<MiningField name="x221"/>
			<MiningField name="x222"/>
			<MiningField name="x223"/>
			<MiningField name="x224"/>
			<MiningField name="x225"/>
			<MiningField name="x226"/>
			<MiningField name="x227"/>
			<MiningField name="x228"/>
			<MiningField name="x229"/>
			<MiningField name="x230"/>
			<MiningField name="x231"/>
			<MiningField name="x232"/>
			<MiningField name="x233"/>
			<MiningField name="x234"/>
			<MiningField name="x235"/>
			<MiningField name="x236"/>
			<MiningField name="x237"/>
			<MiningField name="x238"/>
			<MiningField name="x239"/>
			<MiningField name="x240"/>
			<MiningField name="x241"/>
			<MiningField name="x242"/>
			<MiningField name="x243"/>
			<MiningField name="x244"/>
			<MiningField name="x245"/>
			<MiningField name="x246"/>
			<MiningField name="x247"/>
			<MiningField name="x248"/>
			<MiningField name="x249"/>
			<MiningField name="x250"/>
			<MiningField name="x251"/>
			<MiningField name="x252"/>
			<MiningField name="x253"/>
			<MiningField name="x254"/>
			<MiningField name="x255"/>
			<MiningField name="x256"/>
			<MiningField name="x257"/>
			<MiningField name="x258"/>
			<MiningField name="x259"/>
			<MiningField name="x260"/>
			<MiningField name="x261"/>
			<MiningField name="x262"/>
			<MiningField name="x263"/>
			<MiningField name="x264"/>
			<MiningField name="x265"/>
			<MiningField name="x266"/>
			<MiningField name="x267"/>
			<MiningField name="x268"/>
			<MiningField name="x269"/>
			<MiningField name="x270"/>
			<MiningField name="x271"/>
			<MiningField name="x272"/>
			<MiningField name="x273"/>
			<MiningField name="x274"/>
			<MiningField name="x275"/>
			<MiningField name="x276"/>
			<MiningField name="x277"/>
			<MiningField name="x278"/>
			<MiningField name="x279"/>
			<MiningField name="x280"/>
			<MiningField name="x281"/>
			<MiningField name="x282"/>
			<MiningField name="x283"/>
			<MiningField name="x284"/>
			<MiningField name="x285"/>
			<MiningField name="x286"/>
			<MiningField name="x287"/>
			<MiningField name="x288"/>
			<MiningField name="x289"/>
			<MiningField name="x290"/>
			<MiningField name="x291"/>
			<MiningField name="x292"/>
			<MiningField name="x293"/>
			<MiningField name="x294"/>
			<MiningField name="x295"/>
			<MiningField name="x296"/>
			<MiningField name="x297"/>
			<MiningField name="x298"/>
			<MiningField name="x299"/>
			<MiningField name="x300"/>
			<MiningField name="x301"/>
			<MiningField name="x302"/>
			<MiningField name="x303"/>
			<MiningField name="x304"/>
			<MiningField name="x305"/>
			<MiningField name="x306"/>
			<MiningField name="x307"/>
			<MiningField name="x308"/>
			<MiningField name="x309"/>
			<MiningField name="x310"/>
			<MiningField name="x311"/>
			<MiningField name="x312"/>
			<MiningField name="x313"/>
			<MiningField name="x314"/>
			<MiningField name="x315"/>
			<MiningField name="x316"/>
			<MiningField name="x317"/>
			<MiningField name="x318"/>
			<MiningField name="x319"/>
			<MiningField name="x320"/>
			<MiningField name="x321"/>
			<MiningField name="x322"/>
			<MiningField name="x323"/>
			<MiningField name="x324"/>
			<MiningField name="x325"/>
			<MiningField name="x326"/>
			<MiningField name="x327"/>
			<MiningField name="x328"/>
			<MiningField name="x329"/>
			<MiningField name="x330"/>
			<MiningField name="x331"/>
			<MiningField name="x332"/>
			<MiningField name="x333"/>
			<MiningField name="x334"/>
			<MiningField name="x335"/>
			<MiningField name="x336"/>
			<MiningField name="x337"/>
			<MiningField name="x338"/>
			<MiningField name="x339"/>
			<MiningField name="x340"/>
			<MiningField name="x341"/>
			<MiningField name="x342"/>
			<MiningField name="x343"/>
			<MiningField name="x344"/>
			<MiningField name="x345"/>
			<MiningField name="x346"/>
			<MiningField name="x347"/>
			<MiningField name="x348"/>
			<MiningField name="x349"/>
			<MiningField name="x350"/>
			<MiningField name="x351"/>
			<MiningField name="x352"/>
			<MiningField name="x353"/>
			<MiningField name="x354"/>
			<MiningField name="x355"/>
			<MiningField name="x356"/>
			<MiningField name="x357"/>
			<MiningField name="x358"/>
			<MiningField name="x359"/>
			<MiningField name="x360"/>
			<MiningField name="x361"/>
			<MiningField name="x362"/>
			<MiningField name="x363"/>
			<MiningField name="x364"/>
			<MiningField name="x365"/>
			<MiningField name="x366"/>
			<MiningField name="x367"/>
			<MiningField name="x368"/>
			<MiningField name="x369"/>
			<MiningField name="x370"/>
			<MiningField name="x371"/>
			<MiningField name="x372"/>
			<MiningField name="x373"/>
			<MiningField name="x374"/>
			<MiningField name="x375"/>
			<MiningField name="x376"/>
			<MiningField name="x377"/>
			<MiningField name="x378"/>
			<MiningField name="x379"/>
			<MiningField name="x380"/>
			<MiningField name="x381"/>
			<MiningField name="x382"/>
			<MiningField name="x383"/>
			<MiningField name="x384"/>
			<MiningField name="x385"/>
			<MiningField name="x386"/>
			<MiningField name="x387"/>
			<MiningField name="x388"/>
			<MiningField name="x389"/>
			<MiningField name="x390"/>
			<MiningField name="x391"/>
			<MiningField name="x392"/>
			<MiningField name="x393"/>
			<MiningField name="x394"/>
			<MiningField name="x395"/>
			<MiningField name="x396"/>
			<MiningField name="x397"/>
			<MiningField name="x398"/>
			<MiningField name="x399"/>
			<MiningField name="x400"/>
			<MiningField name="x401"/>
			<MiningField name="x402"/>
			<MiningField name="x403"/>
			<MiningField name="x404"/>
			<MiningField name="x405"/>
			<MiningField name="x406"/>
			<MiningField name="x407"/>
			<MiningField name="x408"/>
			<MiningField name="x409"/>
			<MiningField name="x410"/>
			<MiningField name="x411"/>
			<MiningField name="x412"/>
			<MiningField name="x413"/>
			<MiningField name="x414"/>
			<MiningField name="x415"/>
			<MiningField name="x416"/>
			<MiningField name="x417"/>
			<MiningField name="x418"/>
			<MiningField name="x419"/>
			<MiningField name="x420"/>
			<MiningField name="x421"/>
			<MiningField name="x422"/>
			<MiningField name="x423"/>
			<MiningField name="x424"/>
			<MiningField name="x425"/>
			<MiningField name="x426"/>
			<MiningField name="x427"/>
			<MiningField name="x428"/>
			<MiningField name="x429"/>
			<MiningField name="x430"/>
			<MiningField name="x431"/>
			<MiningField name="x432"/>
			<MiningField name="x433"/>
			<MiningField name="x434"/>
			<MiningField name="x435"/>
			<MiningField name="x436"/>
			<MiningField name="x437"/>
			<MiningField name="x438"/>
			<MiningField name="x439"/>
			<MiningField name="x440"/>
			<MiningField name="x441"/>
			<MiningField name="x442"/>
			<MiningField name="x443"/>
			<MiningField name="x444"/>
			<MiningField name="x445"/>
			<MiningField name="x446"/>
			<MiningField name="x447"/>
			<MiningField name="x448"/>
			<MiningField name="x449"/>
			<MiningField name="x450"/>
			<MiningField name="x451"/>
			<MiningField name="x452"/>
			<MiningField name="x453"/>
			<MiningField name="x454"/>
			<MiningField name="x455"/>
			<MiningField name="x456"/>
			<MiningField name="x457"/>
			<MiningField name="x458"/>
			<MiningField name="x459"/>
			<MiningField name="x460"/>
			<MiningField name="x461"/>
			<MiningField name="x462"/>
			<MiningField name="x463"/>
			<MiningField name="x464"/>
			<MiningField name="x465"/>
			<MiningField name="x466"/>
			<MiningField name="x467"/>
			<MiningField name="x468"/>
			<MiningField name="x469"/>
			<MiningField name="x470"/>
			<MiningField name="x471"/>
			<MiningField name="x472"/>
			<MiningField name="x473"/>
			<MiningField name="x474"/>
			<MiningField name="x475"/>
			<MiningField name="x476"/>
			<MiningField name="x477"/>
			<MiningField name="x478"/>
			<MiningField name="x479"/>
			<MiningField name="x480"/>
			<MiningField name="x481"/>
			<MiningField name="x482"/>
			<MiningField name="x483"/>
			<MiningField name="x484"/>
			<MiningField name="x485"/>
			<MiningField name="x486"/>
			<MiningField name="x487"/>
			<MiningField name="x488"/>
			<MiningField name="x489"/>
			<MiningField name="x490"/>
			<MiningField name="x491"/>
			<MiningField name="x492"/>
			<MiningField name="x493"/>
			<MiningField name="x494"/>
			<MiningField name="x495"/>
			<MiningField name="x496"/>
			<MiningField name="x497"/>
			<MiningField name="x498"/>
			<MiningField name="x499"/>
			<MiningField name="x500"/>
			<MiningField name="x501"/>
			<MiningField name="x502"/>
			<MiningField name="x503"/>
			<MiningField name="x504"/>
			<MiningField name="x505"/>
			<MiningField name="x506"/>
			<MiningField name="x507"/>
			<MiningField name="x508"/>
			<MiningField name="x509"/>
			<MiningField name="x510"/>
			<MiningField name="x511"/>
			<MiningField name="x512"/>
		</MiningSchema>
		<LinearKernelType/>
		<VectorDictionary>
			<VectorFields>
				<FieldRef field="x1"/>
				<FieldRef field="x2"/>
				<FieldRef field="x3"/>
				<FieldRef field="x4"/>
				<FieldRef field="x5"/>
				<FieldRef field="x6"/>
				<FieldRef field="x7"/>
				<FieldRef field="x8"/>
				<FieldRef field="x9"/>
				<FieldRef field="x10"/>
				<FieldRef field="x11"/>
				<FieldRef field="x12"/>
				<FieldRef field="x13"/>
				<FieldRef field="x14"/>
				<FieldRef field="x15"/>
				<FieldRef field="x16"/>
				<FieldRef field="x17"/>
				<FieldRef field="x18"/>
				<FieldRef field="x19"/>
				<FieldRef field="x20"/>
				<FieldRef field="x21"/>
				<FieldRef field="x22"/>
				<FieldRef field="x23"/>
				<FieldRef field="x24"/>
				<FieldRef field="x25"/>
				<FieldRef field="x26"/>
				<FieldRef field="x27"/>
				<FieldRef field="x28"/>
				<FieldRef field="x29"/>
				<FieldRef field="x30"/>
				<FieldRef field="x31"/>
				<FieldRef field="x32"/>
				<FieldRef field="x33"/>
				<FieldRef field="x34"/>
				<FieldRef field="x35"/>
				<FieldRef field="x36"/>
				<FieldRef field="x37"/>
				<FieldRef field="x38"/>
				<FieldRef field="x39"/>
				<FieldRef field="x40"/>
				<FieldRef field="x41"/>
				<FieldRef field="x42"/>
				<FieldRef field="x43"/>
				<FieldRef field="x44"/>
				<FieldRef field="x45"/>
				<FieldRef field="x46"/>
				<FieldRef field="x47"/>
				<FieldRef field="x48"/>
				<FieldRef field="x49"/>
				<FieldRef field="x50"/>
				<FieldRef field="x51"/>
				<FieldRef field="x52"/>
				<FieldRef field="x53"/>
				<FieldRef field="x54"/>
				<FieldRef field="x55"/>
				<FieldRef field="x56"/>
				<FieldRef field="x57"/>
				<FieldRef field="x58"/>
				<FieldRef field="x59"/>
				<FieldRef field="x60"/>
				<FieldRef field="x61"/>
				<FieldRef field="x62"/>
				<FieldRef field="x63"/>
				<FieldRef field="x64"/>
				<FieldRef field="x65"/>
				<FieldRef field="x66"/>
				<FieldRef field="x67"/>
				<FieldRef field="x68"/>
				<FieldRef field="x69"/>
				<FieldRef field="x70"/>
				<FieldRef field="x71"/>
				<FieldRef field="x72"/>
				<FieldRef field="x73"/>
				<FieldRef field="x74"/>
				<FieldRef field="x75"/>
				<FieldRef field="x76"/>
				<FieldRef field="x77"/>
				<FieldRef field="x78"/>
				<FieldRef field="x79"/>
				<FieldRef field="x80"/>
				<FieldRef field="x81"/>
				<FieldRef field="x82"/>
				<FieldRef field="x83"/>
				<FieldRef field="x84"/>
				<FieldRef field="x85"/>
				<FieldRef field="x86"/>
				<FieldRef field="x87"/>
				<FieldRef field="x88"/>
				<FieldRef field="x89"/>
				<FieldRef field="x90"/>
				<FieldRef field="x91"/>
				<FieldRef field="x92"/>
				<FieldRef field="x93"/>
				<FieldRef field="x94"/>
				<FieldRef field="x95"/>
				<FieldRef field="x96"/>
				<FieldRef field="x97"/>
				<FieldRef field="x98"/>
				<FieldRef field="x99"/>
				<FieldRef field="x100"/>
				<FieldRef field="x101"/>
				<FieldRef field="x102"/>
				<FieldRef field="x103"/>
				<FieldRef field="x104"/>
				<FieldRef field="x105"/>
				<FieldRef field="x106"/>
				<FieldRef field="x107"/>
				<FieldRef field="x108"/>
				<FieldRef field="x109"/>
				<FieldRef field="x110"/>
				<FieldRef field="x111"/>
				<FieldRef field="x112"/>
				<FieldRef field="x113"/>
				<FieldRef field="x114"/>
				<FieldRef field="x115"/>
				<FieldRef field="x116"/>
				<FieldRef field="x117"/>
				<FieldRef field="x118"/>
				<FieldRef field="x119"/>
				<FieldRef field="x120"/>
				<FieldRef field="x121"/>
				<FieldRef field="x122"/>
				<FieldRef field="x123"/>
				<FieldRef field="x124"/>
				<FieldRef field="x125"/>
				<FieldRef field="x126"/>
				<FieldRef field="x127"/>
				<FieldRef field="x128"/>
				<FieldRef field="x129"/>
				<FieldRef field="x130"/>
				<FieldRef field="x131"/>
				<FieldRef field="x132"/>
				<FieldRef field="x133"/>
				<FieldRef field="x134"/>
				<FieldRef field="x135"/>
				<FieldRef field="x136"/>
				<FieldRef field="x137"/>
				<FieldRef field="x138"/>
				<FieldRef field="x139"/>
				<FieldRef field="x140"/>
				<FieldRef field="x141"/>
				<FieldRef field="x142"/>
				<FieldRef field="x143"/>
				<FieldRef field="x144"/>
				<FieldRef field="x145"/>
				<FieldRef field="x146"/>
				<FieldRef field="x147"/>
				<FieldRef field="x148"/>
				<FieldRef field="x149"/>
				<FieldRef field="x150"/>
				<FieldRef field="x151"/>
				<FieldRef field="x152"/>
				<FieldRef field="x153"/>
				<FieldRef field="x154"/>
				<FieldRef field="x155"/>
				<FieldRef field="x156"/>
				<FieldRef field="x157"/>
				<FieldRef field="x158"/>
				<FieldRef field="x159"/>
				<FieldRef field="x160"/>
				<FieldRef field="x161"/>
				<FieldRef field="x162"/>
				<FieldRef field="x163"/>
				<FieldRef field="x164"/>
				<FieldRef field="x165"/>
				<FieldRef field="x166"/>
				<FieldRef field="x167"/>
				<FieldRef field="x168"/>
				<FieldRef field="x169"/>
				<FieldRef field="x170"/>
				<FieldRef field="x171"/>
				<FieldRef field="x172"/>
				<FieldRef field="x173"/>
				<FieldRef field="x174"/>
				<FieldRef field="x175"/>
				<FieldRef field="x176"/>
				<FieldRef field="x177"/>
				<FieldRef field="x178"/>
				<FieldRef field="x179"/>
				<FieldRef field="x180"/>
				<FieldRef field="x181"/>
				<FieldRef field="x182"/>
				<FieldRef field="x183"/>
				<FieldRef field="x184"/>
				<FieldRef field="x185"/>
				<FieldRef field="x186"/>
				<FieldRef field="x187"/>
				<FieldRef field="x188"/>
				<FieldRef field="x189"/>
				<FieldRef field="x190"/>
				<FieldRef field="x191"/>
				<FieldRef field="x192"/>
				<FieldRef field="x193"/>
				<FieldRef field="x194"/>
				<FieldRef field="x195"/>
				<FieldRef field="x196"/>
				<FieldRef field="x197"/>
				<FieldRef field="x198"/>
				<FieldRef field="x199"/>
				<FieldRef field="x200"/>
				<FieldRef field="x201"/>
				<FieldRef field="x202"/>
				<FieldRef field="x203"/>
				<FieldRef field="x204"/>
				<FieldRef field="x205"/>
				<FieldRef field="x206"/>
				<FieldRef field="x207"/>
				<FieldRef field="x208"/>
				<FieldRef field="x209"/>
				<FieldRef field="x210"/>
				<FieldRef field="x211"/>
				<FieldRef field="x212"/>
				<FieldRef field="x213"/>
				<FieldRef field="x214"/>
				<FieldRef field="x215"/>
				<FieldRef field="x216"/>
				<FieldRef field="x217"/>
				<FieldRef field="x218"/>
				<FieldRef field="x219"/>
				<FieldRef field="x220"/>
				<FieldRef field="x221"/>
				<FieldRef field="x222"/>
				<FieldRef field="x223"/>
				<FieldRef field="x224"/>
				<FieldRef field="x225"/>
				<FieldRef field="x226"/>
				<FieldRef field="x227"/>
				<FieldRef field="x228"/>
				<FieldRef field="x229"/>
				<FieldRef field="x230"/>
				<FieldRef field="x231"/>
				<FieldRef field="x232"/>
				<FieldRef field="x233"/>
				<FieldRef field="x234"/>
				<FieldRef field="x235"/>
				<FieldRef field="x236"/>
				<FieldRef field="x237"/>
				<FieldRef field="x238"/>
				<FieldRef field="x239"/>
				<FieldRef field="x240"/>
				<FieldRef field="x241"/>
				<FieldRef field="x242"/>
				<FieldRef field="x243"/>
				<FieldRef field="x244"/>
				<FieldRef field="x245"/>
				<FieldRef field="x246"/>
				<FieldRef field="x247"/>
				<FieldRef field="x248"/>
				<FieldRef field="x249"/>
				<FieldRef field="x250"/>
				<FieldRef field="x251"/>
				<FieldRef field="x252"/>
				<FieldRef field="x253"/>
				<FieldRef field="x254"/>
				<FieldRef field="x255"/>
				<FieldRef field="x256"/>
				<FieldRef field="x257"/>
				<FieldRef field="x258"/>
				<FieldRef field="x259"/>
				<FieldRef field="x260"/>
				<FieldRef field="x261"/>
				<FieldRef field="x262"/>
				<FieldRef field="x263"/>
				<FieldRef field="x264"/>
				<FieldRef field="x265"/>
				<FieldRef field="x266"/>
				<FieldRef field="x267"/>
				<FieldRef field="x268"/>
				<FieldRef field="x269"/>
				<FieldRef field="x270"/>
				<FieldRef field="x271"/>
				<FieldRef field="x272"/>
				<FieldRef field="x273"/>
				<FieldRef field="x274"/>
				<FieldRef field="x275"/>
				<FieldRef field="x276"/>
				<FieldRef field="x277"/>
				<FieldRef field="x278"/>
				<FieldRef field="x279"/>
				<FieldRef field="x280"/>
				<FieldRef field="x281"/>
				<FieldRef field="x282"/>
				<FieldRef field="x283"/>
				<FieldRef field="x284"/>
				<FieldRef field="x285"/>
				<FieldRef field="x286"/>
				<FieldRef field="x287"/>
				<FieldRef field="x288"/>
				<FieldRef field="x289"/>
				<FieldRef field="x290"/>
				<FieldRef field="x291"/>
				<FieldRef field="x292"/>
				<FieldRef field="x293"/>
				<FieldRef field="x294"/>
				<FieldRef field="x295"/>
				<FieldRef field="x296"/>
				<FieldRef field="x297"/>
				<FieldRef field="x298"/>
				<FieldRef field="x299"/>
				<FieldRef field="x300"/>
				<FieldRef field="x301"/>
				<FieldRef field="x302"/>
				<FieldRef field="x303"/>
				<FieldRef field="x304"/>
				<FieldRef field="x305"/>
				<FieldRef field="x306"/>
				<FieldRef field="x307"/>
				<FieldRef field="x308"/>
				<FieldRef field="x309"/>
				<FieldRef field="x310"/>
				<FieldRef field="x311"/>
				<FieldRef field="x312"/>
				<FieldRef field="x313"/>
				<FieldRef field="x314"/>
				<FieldRef field="x315"/>
				<FieldRef field="x316"/>
				<FieldRef field="x317"/>
				<FieldRef field="x318"/>
				<FieldRef field="x319"/>
				<FieldRef field="x320"/>
				<FieldRef field="x321"/>
				<FieldRef field="x322"/>
				<FieldRef field="x323"/>
				<FieldRef field="x324"/>
				<FieldRef field="x325"/>
				<FieldRef field="x326"/>
				<FieldRef field="x327"/>
				<FieldRef field="x328"/>
				<FieldRef field="x329"/>
				<FieldRef field="x330"/>
				<FieldRef field="x331"/>
				<FieldRef field="x332"/>
				<FieldRef field="x333"/>
				<FieldRef field="x334"/>
				<FieldRef field="x335"/>
				<FieldRef field="x336"/>
				<FieldRef field="x337"/>
				<FieldRef field="x338"/>
				<FieldRef field="x339"/>
				<FieldRef field="x340"/>
				<FieldRef field="x341"/>
				<FieldRef field="x342"/>
				<FieldRef field="x343"/>
				<FieldRef field="x344"/>
				<FieldRef field="x345"/>
				<FieldRef field="x346"/>
				<FieldRef field="x347"/>
				<FieldRef field="x348"/>
				<FieldRef field="x349"/>
				<FieldRef field="x350"/>
				<FieldRef field="x351"/>
				<FieldRef field="x352"/>
				<FieldRef field="x353"/>
				<FieldRef field="x354"/>
				<FieldRef field="x355"/>
				<FieldRef field="x356"/>
				<FieldRef field="x357"/>
				<FieldRef field="x358"/>
				<FieldRef field="x359"/>
				<FieldRef field="x360"/>
				<FieldRef field="x361"/>
				<FieldRef field="x362"/>
				<FieldRef field="x363"/>
				<FieldRef field="x364"/>
				<FieldRef field="x365"/>
				<FieldRef field="x366"/>
				<FieldRef field="x367"/>
				<FieldRef field="x368"/>
				<FieldRef field="x369"/>
				<FieldRef field="x370"/>
				<FieldRef field="x371"/>
				<FieldRef field="x372"/>
				<FieldRef field="x373"/>
				<FieldRef field="x374"/>
				<FieldRef field="x375"/>
				<FieldRef field="x376"/>
				<FieldRef field="x377"/>
				<FieldRef field="x378"/>
				<FieldRef field="x379"/>
				<FieldRef field="x380"/>
				<FieldRef field="x381"/>
				<FieldRef field="x382"/>
				<FieldRef field="x383"/>
				<FieldRef field="x384"/>
				<FieldRef field="x385"/>
				<FieldRef field="x386"/>
				<FieldRef field="x387"/>
				<FieldRef field="x388"/>
				<FieldRef field="x389"/>
				<FieldRef field="x390"/>
				<FieldRef field="x391"/>
				<FieldRef field="x392"/>
				<FieldRef field="x393"/>
				<FieldRef field="x394"/>
				<FieldRef field="x395"/>
				<FieldRef field="x396"/>
				<FieldRef field="x397"/>
				<FieldRef field="x398"/>
				<FieldRef field="x399"/>
				<FieldRef field="x400"/>
				<FieldRef field="x401"/>
				<FieldRef field="x402"/>
				<FieldRef field="x403"/>
				<FieldRef field="x404"/>
				<FieldRef field="x405"/>
				<FieldRef field="x406"/>
				<FieldRef field="x407"/>
				<FieldRef field="x408"/>
				<FieldRef field="x409"/>
				<FieldRef field="x410"/>
				<FieldRef field="x411"/>
				<FieldRef field="x412"/>
				<FieldRef field="x413"/>
				<FieldRef field="x414"/>
				<FieldRef field="x415"/>
				<FieldRef field="x416"/>
				<FieldRef field="x417"/>
				<FieldRef field="x418"/>
				<FieldRef field="x419"/>
				<FieldRef field="x420"/>
				<FieldRef field="x421"/>
				<FieldRef field="x422"/>
				<FieldRef field="x423"/>
				<FieldRef field="x424"/>
				<FieldRef field="x425"/>
				<FieldRef field="x426"/>
				<FieldRef field="x427"/>
				<FieldRef field="x428"/>
				<FieldRef field="x429"/>
				<FieldRef field="x430"/>
				<FieldRef field="x431"/>
				<FieldRef field="x432"/>
				<FieldRef field="x433"/>
				<FieldRef field="x434"/>
				<FieldRef field="x435"/>
				<FieldRef field="x436"/>
				<FieldRef field="x437"/>
				<FieldRef field="x438"/>
				<FieldRef field="x439"/>
				<FieldRef field="x440"/>
				<FieldRef field="x441"/>
				<FieldRef field="x442"/>
				<FieldRef field="x443"/>
				<FieldRef field="x444"/>
				<FieldRef field="x445"/>
				<FieldRef field="x446"/>
				<FieldRef field="x447"/>
				<FieldRef field="x448"/>
				<FieldRef field="x449"/>
				<FieldRef field="x450"/>
				<FieldRef field="x451"/>
				<FieldRef field="x452"/>
				<FieldRef field="x453"/>
				<FieldRef field="x454"/>
				<FieldRef field="x455"/>
				<FieldRef field="x456"/>
				<FieldRef field="x457"/>
				<FieldRef field="x458"/>
				<FieldRef field="x459"/>
				<FieldRef field="x460"/>
				<FieldRef field="x461"/>
				<FieldRef field="x462"/>
				<FieldRef field="x463"/>
				<FieldRef field="x464"/>
				<FieldRef field="x465"/>
				<FieldRef field="x466"/>
				<FieldRef field="x467"/>
				<FieldRef field="x468"/>
				<FieldRef field="x469"/>
				<FieldRef field="x470"/>
				<FieldRef field="x471"/>
				<FieldRef field="x472"/>
				<FieldRef field="x473"/>
				<FieldRef field="x474"/>
				<FieldRef field="x475"/>
				<FieldRef field="x476"/>
				<FieldRef field="x477"/>
				<FieldRef field="x478"/>
				<FieldRef field="x479"/>
				<FieldRef field="x480"/>
				<FieldRef field="x481"/>
				<FieldRef field="x482"/>
				<FieldRef field="x483"/>
				<FieldRef field="x484"/>
				<FieldRef field="x485"/>
				<FieldRef field="x486"/>
				<FieldRef field="x487"/>
				<FieldRef field="x488"/>
				<FieldRef field="x489"/>
				<FieldRef field="x490"/>
				<FieldRef field="x491"/>
				<FieldRef field="x492"/>
				<FieldRef field="x493"/>
				<FieldRef field="x494"/>
				<FieldRef field="x495"/>
				<FieldRef field="x496"/>
				<FieldRef field="x497"/>
				<FieldRef field="x498"/>
				<FieldRef field="x499"/>
				<FieldRef field="x500"/>
				<FieldRef field="x501"/>
				<FieldRef field="x502"/>
				<FieldRef field="x503"/>
				<FieldRef field="x504"/>
				<FieldRef field="x505"/>
				<FieldRef field="x506"/>
				<FieldRef field="x507"/>
				<FieldRef field="x508"/>
				<FieldRef field="x509"/>
				<FieldRef field="x510"/>
				<FieldRef field="x511"/>
				<FieldRef field="x512"/>
			</VectorFields>
			<VectorInstance id="3">
				<Array type="real">-0.02237739972770214 -0.00847539585083723 -0.07012680917978287 0.038312193006277084 0.03631875291466713 -0.06322965770959854 0.018488295376300812 0.04281888157129288 0.04048313573002815 0.027301520109176636 0.044420767575502396 0.04521796479821205 -0.048331089317798615 -0.02197759971022606 -0.03637982904911041 0.017629584297537804 0.07966013997793198 0.08355168998241425 -0.032136935740709305 0.04437345638871193 0.005332671105861664 0.03132547065615654 0.06535805761814117 -0.061815839260816574 -0.05732189118862152 -0.05655974894762039 0.04165598750114441 -0.03420288860797882 0.013805939815938473 0.04014987125992775 0.02175338752567768 0.04326244816184044 0.0051282914355397224 0.04739454761147499 0.015424322336912155 -0.028198594227433205 -0.064388208091259 -0.08554641157388687 -0.03333191201090813 0.0805210992693901 0.0068522789515554905 -0.07014625519514084 -0.030014334246516228 0.029127903282642365 -0.006161394529044628 0.016748184338212013 -7.33325257897377E-4 0.07732586562633514 -0.07123993337154388 0.05408869683742523 -0.007822374813258648 -0.036481600254774094 0.10985264182090759 0.03989201784133911 -0.046660203486680984 -0.04089873656630516 -0.07364355772733688 0.07819432765245438 0.003275799099355936 -0.02447648160159588 -0.02348359115421772 0.052631571888923645 0.0051175630651414394 0.077212855219841 -0.005145225673913956 -0.03703254833817482 -0.0682634487748146 0.0012265093391761184 -0.00230627553537488 -0.03402472659945488 -0.005262758582830429 0.003767404705286026 -0.028999848291277885 6.297000800259411E-4 0.003572705667465925 -0.014124711975455284 -0.026311587542295456 -0.043362777680158615 0.003779943799600005 -0.03800002858042717 0.03747972846031189 0.02225256897509098 -0.06372599303722382 -0.03232337534427643 0.01726856268942356 0.0024942299351096153 0.044671397656202316 0.014007749035954475 0.01571868546307087 -0.04386448115110397 0.01486157812178135 8.367415284737945E-4 0.01627339981496334 -0.0832526907324791 0.05983136594295502 0.04211097210645676 -0.015569205395877361 0.0735834389925003 -0.08897306025028229 0.022486574947834015 0.07163325697183609 0.07218538969755173 -0.01109614409506321 0.043220650404691696 0.0372406542301178 -6.450472283177078E-4 0.04747950658202171 0.022299164906144142 0.030963098630309105 -0.020955439656972885 0.0924290120601654 0.0018335857894271612 -0.022982357069849968 -0.09930051863193512 5.582676967605948E-4 -0.006136015057563782 -0.023585718125104904 0.0571049302816391 -0.028425244614481926 0.05314365774393082 0.01890871860086918 0.01523615512996912 -0.022251209244132042 -0.03161650896072388 -0.07251982390880585 -0.03019668161869049 0.045892782509326935 -0.03415621072053909 -0.03006102703511715 -0.056758757680654526 -0.041594672948122025 -0.04813571274280548 0.006235957145690918 -0.08298339694738388 0.006501034367829561 0.017516711726784706 -0.05697052180767059 -0.02879044972360134 0.03961368650197983 0.09257005155086517 0.010431814007461071 0.07616216689348221 -0.07924336194992065 0.06096064671874046 0.012517130933701992 0.01584010012447834 -0.010387188754975796 0.07496792823076248 -0.0022345376200973988 0.009538311511278152 0.051290176808834076 0.05169285833835602 -0.038449812680482864 0.010179002769291401 0.057026032358407974 -0.0040358202531933784 -0.08828730881214142 0.011225910857319832 -0.012221471406519413 -0.03724489361047745 0.031448639929294586 0.0658925250172615 0.01031597051769495 0.09013613313436508 0.02285372093319893 0.014502439647912979 -0.04574519768357277 0.053920213133096695 -0.07154998928308487 -0.011525222100317478 -0.052977245301008224 -0.06366729736328125 -0.001124490750953555 0.016224127262830734 0.014713764190673828 0.11291727423667908 -0.12334694713354111 -0.006623494438827038 -0.00848737545311451 -0.018280860036611557 -0.06434222310781479 -0.023169519379734993 4.202673735562712E-4 0.042818039655685425 0.057999491691589355 0.024243295192718506 0.03408079594373703 0.0066960472613573074 -0.02575555443763733 0.016268184408545494 0.07068604230880737 -0.03760526329278946 0.07495836913585663 -0.05015894025564194 0.10715311765670776 -0.07205428183078766 -0.06978324800729752 -0.0040605319663882256 0.02058284915983677 -0.027368705719709396 0.06520169228315353 -0.06028706207871437 0.03172039985656738 -0.05501418188214302 0.07289989292621613 -0.008994033560156822 0.06961965560913086 -0.033051811158657074 0.011450142599642277 0.008453004993498325 -0.024114388972520828 0.04159613698720932 -0.024663051590323448 -0.024719130247831345 -0.055084049701690674 0.013384342193603516 0.04351276531815529 0.051117103546857834 0.02288399264216423 -0.008126042783260345 -0.016663935035467148 0.02940615825355053 0.028123008087277412 0.005932294763624668 0.1030653640627861 0.01234422530978918 0.02230234257876873 0.029849359765648842 -0.06383522599935532 0.04148745536804199 0.0023206688929349184 -0.02266564406454563 0.02931261621415615 -0.022182120010256767 -0.040105439722537994 0.031227050349116325 -0.018573077395558357 -0.00689933355897665 -0.014547991566359997 0.018910517916083336 -0.029717838391661644 -0.03858518227934837 0.017986727878451347 0.004334695171564817 0.10036303102970123 0.045523252338171005 -0.03768961504101753 -0.03373682498931885 0.05753196403384209 -0.013476560823619366 -0.04434271156787872 0.02852604351937771 0.03996170312166214 0.014402573928236961 -0.024778852239251137 -0.04552987962961197 0.02059795893728733 -0.0017772915307432413 0.0023991884663701057 0.06756127625703812 -0.01742531917989254 -0.03716311603784561 0.03362985700368881 -0.007057630456984043 -0.04445158317685127 -0.06818739324808121 0.028451578691601753 -0.01174573227763176 -0.010440812446177006 -0.08673036843538284 0.005557454656809568 0.004431084729731083 0.028171801939606667 0.020512519404292107 -0.009573719464242458 0.023207947611808777 -0.012545592151582241 0.009224953129887581 -0.020387645810842514 -0.020564774051308632 0.0032968339510262012 0.03981432691216469 0.04944095388054848 -0.023666614666581154 -0.019122101366519928 -0.0035799997858703136 0.0718836709856987 -6.63673272356391E-5 -0.06797681003808975 -0.02533571608364582 -0.045524291694164276 0.002437667455524206 0.04147464781999588 -0.051957909017801285 -0.03441451117396355 -0.046096015721559525 0.019128648564219475 -0.039533764123916626 0.03348371759057045 0.012255394831299782 0.08084995299577713 0.03677521273493767 -0.07052893936634064 0.04794986546039581 0.03737567365169525 0.009705417789518833 -0.020115967839956284 -0.05690514296293259 -0.028780262917280197 0.02767367474734783 -0.01843329519033432 0.012298982590436935 0.002747751073911786 -0.01378335990011692 0.055398911237716675 0.0013032719725742936 0.0016259346157312393 0.02904265560209751 0.12089323997497559 -0.1022515594959259 0.005747078452259302 -0.014592769555747509 -0.01928836479783058 0.029987210407853127 0.019517743960022926 -0.0016484347870573401 0.05451960116624832 0.07409077137708664 0.03680146858096123 0.04424392804503441 -5.6168457376770675E-5 0.08006926625967026 -0.043188195675611496 0.06289650499820709 0.01303347572684288 0.06144215166568756 0.03577151522040367 -0.02250681072473526 -0.019972218200564384 -0.05014391615986824 0.05050770193338394 -0.041201841086149216 0.045081380754709244 -0.0013142783427610993 0.040923602879047394 0.02453301101922989 0.00953496340662241 0.04746149107813835 0.014253395609557629 -0.004768747370690107 0.02796940505504608 -0.0276752021163702 -0.027978213503956795 -0.006994892377406359 0.006242861971259117 0.0326959565281868 0.058426354080438614 0.00828604493290186 0.022426899522542953 -0.014291387982666492 -0.005907804239541292 -0.03297732397913933 -0.041898325085639954 0.01746637374162674 0.055430565029382706 0.0235130712389946 -0.027309920638799667 0.02357172593474388 -0.0040564402006566525 -0.05500014126300812 -0.07667049765586853 0.0070016938261687756 -0.012849240563809872 0.031097110360860825 0.02214738354086876 0.09242279827594757 -0.04273633286356926 0.05705326795578003 -0.040553443133831024 0.005189000628888607 -0.03144251927733421 0.01728224754333496 -0.026552090421319008 8.59102641697973E-4 0.04415587708353996 -0.009924788028001785 0.0166721623390913 0.06150834634900093 -0.04640938341617584 0.019209373742341995 0.0062622674740850925 0.056732796132564545 -0.06229314208030701 -0.03326382115483284 0.004289173986762762 -0.06465816497802734 -0.040508076548576355 0.026668839156627655 0.06366171687841415 -0.03820948302745819 0.036427807062864304 -0.04720514640212059 0.05748800188302994 0.017365088686347008 0.01074069831520319 -0.0029955327045172453 -0.0366482175886631 -0.015875909477472305 0.03425881639122963 -0.09180894494056702 0.05966169387102127 -0.016862332820892334 -0.04622461274266243 -0.02791832759976387 -0.10008011013269424 -0.026265092194080353 0.04536425694823265 0.0457778200507164 -0.016875064000487328 -0.05589796602725983 0.08647722750902176 -0.004216707311570644 0.03218107298016548 0.07253864407539368 -0.03853461518883705 -0.02718437649309635 0.0670928806066513 -0.010531294159591198 -0.02932627871632576 -0.06639182567596436 -0.08720037341117859 0.011125440709292889 0.03604621812701225 -0.038032494485378265 0.020364081487059593 -0.0634465366601944 -0.05731428414583206 -0.07478118687868118 -0.04415642097592354 -0.019798021763563156 -0.08373884111642838 -0.03535756841301918 0.024838954210281372 0.10029640048742294 -0.04495283216238022 -0.0015063504688441753 0.002568434691056609 0.01528414711356163 0.005282065365463495 -0.021438779309391975 0.017751280218362808 -0.024068433791399002 0.010637849569320679 0.036101505160331726 -0.028946423903107643 0.03309563919901848 -0.07959065586328506 0.033390533179044724 0.02890794537961483 0.0724012702703476 0.04442961886525154 0.04933852329850197 0.004732126835733652 -0.00819334015250206 0.022282350808382034 0.0781649798154831 0.04119683802127838 -0.04613765329122543 0.04854683205485344 0.04069804772734642 0.035323161631822586 -0.013740397989749908 0.031229503452777863 -0.020388126373291016 -0.07096618413925171 0.10526090860366821 -0.01353616826236248 0.047039903700351715 0.06921292096376419 -0.043684665113687515 0.06242974475026131 -0.026642275974154472 -0.025146381929516792 0.03386363759636879 -0.0045943656004965305 -0.03818955644965172 -0.03582921624183655 0.05562853813171387 0.06558354943990707 -0.1241571381688118 0.019117064774036407 -0.029286326840519905 -0.04122616723179817 -0.027855025604367256 0.06360654532909393 -0.012304076924920082 0.005017814226448536 0.01355712115764618 0.08549589663743973 -0.025956692174077034 -0.08244098722934723 0.005332925822585821 0.012581199407577515 0.009281983599066734 0.0105257174000144 0.05011305212974548 0.0023076741490513086 -0.008031204342842102 -0.05407300963997841 -0.08534581959247589 0.02359686605632305 0.004159111995249987</Array>
			</VectorInstance>
			<VectorInstance id="6">
				<Array type="real">0.04076661914587021 -0.03155738115310669 -0.038184527307748795 -0.0222033504396677 0.017468862235546112 -0.026606721803545952 0.026580683887004852 -0.0029769325628876686 -0.03883112967014313 0.050261300057172775 0.03967256471514702 0.04415290057659149 -0.0725899413228035 0.0038048685528337955 -0.013318361714482307 -0.015669621527194977 0.03741072863340378 0.0810541883111 -0.049059946089982986 0.06475085765123367 0.027380947023630142 0.0318404883146286 0.07123378664255142 -0.06052691861987114 -0.06383960694074631 -0.03189849480986595 0.01546764001250267 -0.07044044882059097 -0.015119869261980057 -0.028816666454076767 0.05616934970021248 0.031606633216142654 0.02154788002371788 0.09645012766122818 9.00842307601124E-4 -0.058782681822776794 -0.012869134545326233 -0.04904038459062576 0.021279944106936455 0.018117668107151985 0.009011768735945225 -0.07993611693382263 -0.03245258703827858 0.05428122356534004 -0.0603499710559845 -0.022023899480700493 -0.029855739325284958 0.026121385395526886 -0.08877577632665634 0.04024451598525047 -0.043123871088027954 -0.023846670985221863 0.09308795630931854 0.06578626483678818 -0.03607572615146637 -0.06058342009782791 -0.05475792661309242 0.04136056452989578 -0.020593935623764992 -0.020783359184861183 -0.04020348936319351 0.09805133193731308 -0.05007804185152054 0.08768760412931442 0.02475322224199772 -0.07712350785732269 -0.022978797554969788 -0.032929860055446625 0.04877721145749092 -0.015431621111929417 -0.037511877715587616 -0.027453072369098663 -0.0033051923383027315 0.02675926499068737 -0.04595524072647095 0.014167966321110725 -0.033220626413822174 -0.08542266488075256 0.011111064814031124 -0.04149395227432251 0.017657412216067314 0.018475286662578583 -0.07045064121484756 0.0037508909590542316 0.03465690836310387 0.038659341633319855 0.01210871897637844 -0.001513789757154882 -0.06214744597673416 -0.05929877609014511 0.001398372696712613 -0.019218184053897858 -0.012748288922011852 -0.03701285272836685 0.05110460892319679 0.021530795842409134 -0.03140256181359291 0.046891648322343826 -0.056034788489341736 -7.73101404774934E-4 0.050838325172662735 0.13619542121887207 2.3575439990963787E-4 0.04342231899499893 0.07171663641929626 -0.04332299903035164 -9.403994772583246E-4 -0.009315618313848972 -0.029516402631998062 -0.08509921282529831 0.07908617705106735 0.015033630654215813 -0.04898602142930031 -0.10619919747114182 -0.022958027198910713 0.019008494913578033 0.004108492285013199 0.016218630596995354 -0.012708780355751514 0.025589866563677788 0.007605547551065683 0.029642265290021896 -0.030118348076939583 0.024200674146413803 -0.08294302970170975 0.020998449996113777 0.05481342226266861 -0.06521137058734894 0.006645334418863058 -0.053902044892311096 -0.057873863726854324 0.041774049401283264 -0.01982499659061432 -0.05710160359740257 0.006677346304059029 -0.04920559003949165 -0.05815577507019043 -0.06859762966632843 0.011914005503058434 0.05873608589172363 -0.025799935683608055 0.05876296013593674 -0.05156181752681732 0.0486409068107605 -0.05725095048546791 -0.011649481020867825 -0.04188784956932068 0.018686942756175995 0.013195096515119076 0.011844427324831486 0.045003652572631836 0.022288968786597252 -0.03908707946538925 -0.026311859488487244 0.08697161823511124 0.039000026881694794 -0.08699136227369308 0.05589524284005165 -0.026078617200255394 -0.03712774068117142 0.011205640621483326 0.059874676167964935 0.030667999759316444 0.0629846528172493 0.018201880156993866 0.07185087352991104 -0.08670038729906082 0.06616455316543579 -0.050455622375011444 0.012536990456283092 -0.05042319372296333 -0.060036711394786835 -0.059699222445487976 0.008604785427451134 -0.011932896450161934 0.0673888623714447 -0.13408826291561127 0.037412237375974655 0.006189706269651651 0.03706676885485649 -0.016695063561201096 -0.029804276302456856 0.0442177951335907 0.012160130776464939 0.06440149247646332 -0.017402956262230873 0.04035670682787895 0.02752166986465454 0.008954151533544064 -0.005401275586336851 0.0643053650856018 -0.03173036128282547 0.019359851256012917 -0.058159831911325455 0.0657011866569519 -0.027257094159722328 -0.0726083442568779 0.032746948301792145 0.03795042634010315 0.02628031186759472 0.08724614977836609 -0.028080953285098076 0.016550734639167786 -0.0586959645152092 0.04638533294200897 0.049366991966962814 0.005379286129027605 0.016202563419938087 0.016432370990514755 0.01901729218661785 -0.027167536318302155 0.037253718823194504 -0.01092686876654625 0.0019926081877201796 -0.089727483689785 -0.033157020807266235 0.08713272958993912 0.02572229690849781 0.0023438185453414917 -3.1904480420053005E-4 -0.047309428453445435 0.0393548458814621 0.09255868196487427 0.02756187506020069 0.10617708414793015 -0.001073545077815652 0.03608083724975586 0.014443210326135159 -0.03855227679014206 -0.002692079171538353 0.016275350004434586 0.024766337126493454 0.0010756977135315537 -0.010011766105890274 -0.007944132201373577 -0.057081133127212524 2.7860995032824576E-4 -0.015077312476933002 0.046689026057720184 -0.0051926677115261555 0.003482912899926305 -0.06224052980542183 -0.015645332634449005 0.06530385464429855 0.03298792243003845 0.017357049509882927 0.027416817843914032 -0.01299766730517149 -0.028762131929397583 -8.830350125208497E-4 -0.013159934431314468 -0.010359573177993298 0.09645796567201614 0.0020808072295039892 0.00447859475389123 -0.08143874257802963 0.016670778393745422 0.03302576020359993 -0.015482026152312756 0.03056897222995758 0.0368398055434227 -0.012303941883146763 0.021790683269500732 0.021373648196458817 -0.05017586797475815 -0.02834159880876541 0.05533771589398384 -0.04494106024503708 0.03648298233747482 -0.06133359298110008 0.022328877821564674 -0.0052101872861385345 0.038763679563999176 -0.014903568662703037 -0.010489678010344505 0.08704210072755814 -0.020370934158563614 -0.010798386298120022 0.014124291948974133 -0.034213412553071976 -0.02978450059890747 0.041833825409412384 0.001126206829212606 0.00783569272607565 -0.028299005702137947 -0.004406232386827469 0.04197867959737778 -0.04955480992794037 0.04025524482131004 0.03104401007294655 -0.05834473669528961 -2.3374002194032073E-4 0.0658496841788292 -0.011762639507651329 0.002910061040893197 -0.02879936993122101 -0.030063943937420845 -0.06101015955209732 -0.01869412139058113 7.562284008599818E-4 0.04898853227496147 0.014261034317314625 -0.05025387927889824 0.06411570310592651 0.055729448795318604 -0.0251198448240757 -0.06773117929697037 -0.05611425265669823 -0.041876766830682755 -0.026492217555642128 -0.005345047451555729 0.0074324109591543674 0.013301286846399307 0.0019345625769346952 0.04841170087456703 -0.005914689972996712 -0.0351828970015049 0.034984562546014786 0.09646514058113098 -0.012842360883951187 -0.005008883308619261 0.025803569704294205 -0.024231035262346268 0.04429277405142784 0.007421199232339859 0.009316917508840561 0.025130806490778923 0.0375390499830246 -0.01380716823041439 -0.0015083274338394403 -0.02517477236688137 0.020510045811533928 -0.10299404710531235 0.06699264049530029 0.027114825323224068 0.018482767045497894 0.07102414220571518 -0.0666937604546547 -0.05674994736909866 -0.024040864780545235 0.0340358205139637 -0.06836432963609695 0.06457175314426422 -0.04642396420240402 -0.015294141136109829 0.014989468269050121 0.03244640678167343 -0.021354226395487785 0.01592290587723255 0.021257830783724785 -0.02474057860672474 0.006652491167187691 0.017914647236466408 -0.02688988856971264 0.07021122425794601 0.05175364762544632 0.01597292348742485 -0.018134018406271935 -0.0321073941886425 0.01245428528636694 0.009441031143069267 -0.05810213088989258 -0.004205877892673016 6.956513389013708E-4 0.0536227747797966 0.021392716094851494 -0.02680504322052002 0.0565626434981823 0.011311158537864685 -0.05638793483376503 -0.030897853896021843 -0.01574660651385784 0.031953368335962296 0.02616081014275551 0.00835889857262373 0.060575924813747406 -0.07441174238920212 0.05996206775307655 0.011781930923461914 0.036456696689128876 0.006511573679745197 0.002494256477802992 -0.02269134297966957 0.013313893228769302 0.058495745062828064 -0.027263544499874115 0.0787430927157402 0.07779332250356674 0.014780222438275814 0.059575214982032776 -0.02749888226389885 0.07314559072256088 -0.02693241834640503 0.06535504013299942 -0.0203107837587595 0.0027065963950008154 -0.10455695539712906 0.04807962477207184 0.018384002149105072 -0.07676151394844055 0.015826933085918427 -0.051659513264894485 0.08350726962089539 -0.028240639716386795 0.003379515837877989 -0.002373868366703391 -0.026427343487739563 -0.008693555369973183 -0.0060769119299948215 -0.07776449620723724 0.0484582744538784 -0.01810918189585209 -0.03894095867872238 -0.001192626659758389 -0.11577431112527847 -0.03417743369936943 0.03924570605158806 -0.01806166209280491 0.021013839170336723 -0.11199141293764114 0.029307305812835693 -0.019413087517023087 -0.054330889135599136 0.05605756491422653 -0.004492173902690411 -0.019935477524995804 0.05157305672764778 -0.008948077447712421 0.035712674260139465 -0.03805305436253548 -0.038088198751211166 0.03227304294705391 0.047793641686439514 -0.028042402118444443 0.049592722207307816 -0.06209304928779602 -0.041727785021066666 -0.05437968298792839 -0.036427684128284454 -0.03579459711909294 -0.06510290503501892 -0.0014718597522005439 -0.005054872948676348 0.06115010753273964 -0.04226934164762497 0.024520376697182655 0.03305364400148392 0.026913829147815704 0.015901437029242516 -0.04025593027472496 -0.01708720065653324 0.02372838743031025 0.03751266375184059 -0.00819642748683691 -0.042967624962329865 0.017810162156820297 -0.06318400055170059 0.06850098818540573 0.038493022322654724 0.05605259910225868 0.07449933886528015 0.0847746953368187 0.05066392198204994 -0.01024025958031416 -0.013807029463350773 0.04233169183135033 0.014276035130023956 -0.01745438762009144 0.051352739334106445 0.05603703856468201 0.06365188956260681 0.005238499026745558 0.003042960539460182 -0.02305692248046398 -0.07362620532512665 0.0030379032250493765 0.023416608572006226 0.023094605654478073 -0.035411734133958817 -0.05066843330860138 0.03440110385417938 -0.03738528862595558 0.020311620086431503 0.021382611244916916 0.02183922752737999 -0.02162873186171055 0.00228010187856853 0.012152809649705887 0.0838388055562973 -0.12290464341640472 -0.01238216832280159 -0.08969568461179733 -0.013151606544852257 0.033882882446050644 0.036051418632268906 -0.053504060953855515 0.018519364297389984 -0.0026133579667657614 0.0517178475856781 0.010792684741318226 -0.06425043940544128 0.0018013137159869075 -0.02659638226032257 0.05556304380297661 -7.55103537812829E-4 0.02802453376352787 0.02733997255563736 0.05361064150929451 -0.07016712427139282 -0.059069883078336716 0.019384486600756645 -0.012097840197384357</Array>
			</VectorInstance>
			<VectorInstance id="7">
				<Array type="real">-0.04988893121480942 0.021247252821922302 -0.05630333349108696 0.018055390566587448 0.03269943222403526 -0.08862123638391495 -0.0028519623447209597 0.0889788344502449 0.06288769096136093 0.005644131917506456 0.01553457509726286 0.04958377033472061 -0.042057573795318604 0.018149206414818764 -0.03500434011220932 0.026660969480872154 0.06054835394024849 0.06498994678258896 -0.005279304925352335 0.013730393722653389 9.452656959183514E-4 0.04389351233839989 0.018209077417850494 -0.04986104369163513 -0.020291699096560478 -0.08792948722839355 0.03350202739238739 -0.015893150120973587 0.04067840427160263 0.03551332280039787 0.011858525685966015 0.00957961194217205 0.07237228006124496 0.03281893581151962 0.01825782097876072 -0.01842108741402626 -0.07029575109481812 -0.05164867639541626 0.015951691195368767 0.05966704338788986 0.001063674339093268 -0.06878334283828735 0.010725613683462143 0.027309037744998932 -0.014402643777430058 0.0031719012185931206 -0.04859672859311104 0.07622433453798294 -0.09041205793619156 0.06742548942565918 0.0032168368343263865 -0.010256157256662846 0.10979370772838593 0.017379578202962875 -0.04908130317926407 -0.042490385472774506 -0.08279677480459213 0.08085064589977264 -0.02460082434117794 -0.06269007921218872 -0.02784881740808487 0.0505167692899704 0.010908110067248344 0.07061614841222763 -0.04603602737188339 -0.04449937865138054 -0.06425757706165314 0.04333191737532616 0.01621990278363228 -0.02660367265343666 0.025904223322868347 -0.05052581802010536 -0.03795614093542099 -0.00320827541872859 -1.5377117961179465E-4 0.0066082663834095 0.021014997735619545 -0.01552395336329937 -0.017514236271381378 -0.03404267877340317 0.043115489184856415 0.05777592211961746 -0.060147643089294434 -0.047995276749134064 0.020940270274877548 -0.010274619795382023 0.07082492858171463 -0.004912897944450378 -0.0022459106985479593 -0.04749779775738716 0.00334380310960114 -0.004797269124537706 0.026310140267014503 -0.08185075968503952 0.03534658998250961 0.05122345685958862 -0.029184697195887566 0.03167478367686272 -0.096532441675663 0.015153690241277218 0.05286544933915138 0.09478829801082611 0.0020893607288599014 0.008234092965722084 0.013213793747127056 0.014734952710568905 0.0681535080075264 0.06381054222583771 0.07510402798652649 -0.026579344645142555 0.0809515118598938 -0.009183211252093315 -0.02167220041155815 -0.07938975840806961 0.026185370981693268 0.03263063356280327 0.003881423734128475 0.09272117167711258 -0.01075077150017023 0.026151051744818687 0.002056998433545232 0.031363822519779205 -0.007432124577462673 -0.02953566610813141 -0.07943157106637955 0.0044881184585392475 0.03492536023259163 -0.02122672088444233 -0.04965847730636597 -0.02443959005177021 -0.04633296653628349 -0.02560563199222088 0.0123780881986022 -0.09739331901073456 0.02744993008673191 0.013697040267288685 -0.0220186710357666 -0.026110807433724403 0.03778906166553497 0.026080382987856865 -0.010059569962322712 0.04776223376393318 -0.07092525064945221 0.02988392487168312 0.01934654265642166 0.04102730005979538 0.0032216000836342573 0.07539863884449005 -0.01667758822441101 -0.045774515718221664 0.04479468986392021 0.013138818554580212 -0.03966011479496956 -0.011488405987620354 0.06062871590256691 0.012312128208577633 -0.07470264285802841 0.015226627700030804 0.023124268278479576 -0.007983545772731304 0.011269902810454369 0.06663868576288223 0.0465652234852314 0.07651112973690033 0.0578390508890152 0.01070160511881113 -0.04872934892773628 0.08527640998363495 -0.09780643880367279 0.02799755521118641 -0.03408900648355484 -0.06629668921232224 -0.012064945884048939 0.009530339390039444 0.0069212717935442924 0.06272663176059723 -0.09291169047355652 -0.038308124989271164 -0.027095064520835876 -0.002932647941634059 -0.04396573826670647 -0.028149619698524475 -0.006277004722505808 0.017211779952049255 0.058159876614809036 -0.004483491647988558 -0.00468798354268074 -0.009873887524008751 -0.02068611979484558 0.018770618364214897 0.07415585964918137 -0.028012439608573914 0.052254851907491684 -0.04175567626953125 0.11888954043388367 -0.062381044030189514 -0.04670776426792145 -0.002043464221060276 -0.0028561106882989407 -0.004936989396810532 0.06533584743738174 -0.06899341940879822 0.07206714898347855 -0.050855521112680435 0.0487125888466835 -0.010279851965606213 0.05992506444454193 -0.037302978336811066 -0.016147881746292114 0.015926824882626534 0.009179951623082161 0.04599671810865402 -0.028667772188782692 -0.014285002835094929 -0.02590281143784523 -0.010279406793415546 0.057232584804296494 0.035499218851327896 0.039821404963731766 -0.06758889555931091 -0.009797634556889534 0.04524150490760803 0.030212143436074257 0.004300940781831741 0.07193341106176376 -0.0064701843075454235 0.04724263772368431 0.012350588105618954 -0.07174712419509888 0.010138087905943394 -0.01080137025564909 -0.04173839092254639 0.06139936298131943 0.011155514046549797 -0.04843009263277054 0.06342444568872452 0.009777185507118702 -0.04216454178094864 -0.02051440067589283 0.03635943681001663 -0.049774955958127975 -0.05016227066516876 0.026740390807390213 -0.0024645826779305935 0.09997276216745377 0.05895661562681198 -0.014210608787834644 -0.04715201258659363 0.02663324400782585 -0.01814858987927437 -0.06314118206501007 0.007208032067865133 0.017741842195391655 0.04075738787651062 -0.022264158353209496 -0.051128748804330826 0.053582146763801575 -0.03156778961420059 -0.021415065973997116 0.04766974225640297 -0.03739311918616295 -0.02888428419828415 0.03235318884253502 -0.04344327002763748 -0.06071397289633751 -0.04319312050938606 0.030873874202370644 -0.03158345818519592 -0.020787980407476425 -0.025282129645347595 -0.02273036539554596 0.010298292152583599 0.007302161306142807 0.019310161471366882 -0.0070864297449588776 2.8477896194090135E-5 1.1655288108158857E-4 0.0015177546301856637 0.007496854290366173 -0.034192074090242386 -0.012926075607538223 0.01081057172268629 0.07758626341819763 -0.035627949982881546 0.017107924446463585 0.010099640116095543 0.10526683181524277 0.010385359637439251 -0.06454091519117355 -0.0645880177617073 -0.03668244183063507 0.010401513427495956 0.042426325380802155 -0.06955946981906891 -0.04438672959804535 -0.04357508197426796 0.028694305568933487 -0.02282254956662655 0.055843621492385864 0.06776072829961777 0.055600617080926895 0.016854658722877502 -0.08270270377397537 0.04733417555689812 0.029782043769955635 0.014395616948604584 -0.03934089094400406 -0.06273064017295837 -0.024852748960256577 0.010371578857302666 -0.0337723083794117 0.04338617995381355 0.010474171489477158 0.00492946058511734 0.034562189131975174 -0.004626456648111343 0.04821343719959259 -7.529226131737232E-4 0.10466843098402023 -0.09956265240907669 0.012969783507287502 0.005457032937556505 -0.03687893599271774 -0.010779975913465023 7.355219713645056E-5 0.031156210228800774 0.049244627356529236 0.0640597939491272 0.04426196217536926 0.008344270288944244 0.0011715441942214966 0.07027693092823029 -0.048236966133117676 0.08509040623903275 -0.0024977645371109247 0.05874247848987579 4.012924327980727E-4 -0.023170923814177513 -0.02327374927699566 -0.06545183062553406 0.04302256181836128 -0.010609091259539127 0.04123525694012642 0.007490172516554594 0.052711814641952515 -0.0053559266962111 0.0051731145940721035 0.03427886962890625 0.01627921499311924 -0.02329220250248909 0.0014164738822728395 -0.037314604967832565 -0.04731455817818642 0.03371596708893776 0.01932683028280735 0.016144365072250366 0.04455455392599106 0.0020185525063425303 0.018970249220728874 0.002828112570568919 0.017107566818594933 -0.01188582181930542 -0.02935369871556759 0.06504350900650024 0.03433484956622124 0.018684763461351395 -0.03650587797164917 0.037254542112350464 0.034085165709257126 -0.05405035987496376 -0.044751398265361786 0.017448551952838898 0.005096876062452793 0.009102392010390759 0.010990244336426258 0.07885900884866714 -0.07705841958522797 0.026657065376639366 -0.012316170148551464 -0.007659140508621931 -0.003067831275984645 0.045993342995643616 -0.0028588678687810898 0.01064804382622242 0.04503955319523811 -0.025103408843278885 0.005709132179617882 0.0641939714550972 -0.03909962624311447 -0.018367473036050797 0.013384257443249226 0.04257110506296158 -0.02184208482503891 -0.06529057770967484 -0.011376122944056988 -0.07911517471075058 -0.026442894712090492 0.02172868885099888 0.08323279023170471 0.008819524198770523 0.07017512619495392 -0.053094107657670975 0.04778854548931122 -0.02584756724536419 -0.0023718613665550947 -0.007144440431147814 -0.007409257814288139 -0.0061365277506411076 0.05417026951909065 -0.10597789287567139 0.038386326283216476 -0.0041488418355584145 -0.053299903869628906 -0.04418542981147766 -0.09282026439905167 -0.02271072380244732 0.023074474185705185 0.04226166009902954 0.0038540803361684084 -0.03710733726620674 0.08514587581157684 -0.015169848687946796 0.042181458324193954 0.04462045058608055 -0.04846692085266113 -0.06276203691959381 0.02773074246942997 0.016687531024217606 -0.038350582122802734 -0.05967380106449127 -0.06253919750452042 -0.012411284260451794 -0.002876939717680216 -0.014358093962073326 0.03751639649271965 -0.08839555084705353 -0.04661077260971069 -0.12006155401468277 -0.03572053089737892 -0.031377650797367096 -0.022015998139977455 -0.0752076730132103 0.04304266721010208 0.08911720663309097 -0.06495730578899384 0.011462941765785217 -0.01647454872727394 0.024072319269180298 0.0366218201816082 0.020683469250798225 -0.00801428034901619 -0.0117463618516922 -0.05046746879816055 0.01766032725572586 -0.03029133379459381 0.023549320176243782 -0.08694431185722351 -0.009010346606373787 -0.011959049850702286 0.09951860457658768 0.04602000489830971 -0.0015603752108290792 -0.01596314087510109 -0.028057044371962547 0.04352748021483421 0.07694212347269058 0.0507909432053566 -0.027190731838345528 -0.001454977667890489 0.06627856940031052 0.014726744033396244 -0.0037861629389226437 0.019765496253967285 -0.04273676127195358 -0.06535928696393967 0.10827305167913437 -0.04495016857981682 0.057341109961271286 0.07001521438360214 -0.05282849445939064 0.030148323625326157 -0.0642877072095871 -0.04209320247173309 0.019561421126127243 -0.03569499030709267 -0.030987167730927467 -0.013786445371806622 0.04600372537970543 0.04573395103216171 -0.06821903586387634 0.043349310755729675 0.009238450787961483 -0.015165148302912712 -0.047015126794576645 0.05212273821234703 -0.017303843051195145 0.014355684630572796 -0.0039624725468456745 0.041418254375457764 -0.04392150789499283 -0.07215358316898346 0.04598778113722801 -0.003642655909061432 0.011586640030145645 0.06683361530303955 0.044502075761556625 -0.0043989368714392185 -0.03217121958732605 -0.07378688454627991 -0.0539022833108902 0.028467370197176933 -0.020139925181865692</Array>
			</VectorInstance>
			<VectorInstance id="9">
