svm_type c_svc
kernel_type linear
nr_class 8
total_sv 158
rho 0.0315611410302524 0.024232749045747924 -0.052879369952936586 -0.18760087124382185 0.10862288426111211 0.10485816372457014 0.28871589356569927 -0.11449826181603003 -0.211570345695759 -0.1190810691423558 -0.11529845616537981 0.25306683379203027 0.327680638606525 -0.09245391998334238 -0.24613174580561484 -0.07508228545056891 0.13443573620968452 0.027522186536957517 -0.009060179365095171 0.00995738745905566 0.07500775633771606 0.28926818207969957 0.0694402956969713 0.2875535008063891 0.5397457641051122 0.14289093436024056 0.21365168903907625 0.07922367933317975
label 0 1 2 3 4 5 6 7
probA -3.5925063804974355 -3.226232082149683 -3.316842842745079 -3.237190110067381 -3.3680094904809943 -3.395632042768643 -3.4493924957378614 -3.4228480416229665 -3.277097556999143 -3.3955459748052275 -3.358564728630385 -3.4730996610947735 -3.5396316516725395 -3.3433362060264136 -3.339954012210549 -3.3211004915393656 -3.2383135393866813 -3.290210462793896 -3.364608963035124 -3.389395787963609 -3.375709592430253 -3.3666812866717866 -3.3744177125370363 -3.374180806994608 -3.481748510700715 -3.4338143362315843 -3.5521272736944725 -3.417871922930607
probB -0.10950255810783427 0.1463595222181645 0.14472188668076616 0.030040354393811853 0.1614535808664903 0.28359489808808197 0.15974005773842828 0.2246541007943894 0.11321394438298908 0.021171787514486198 0.3944064515237491 0.4784209180471342 0.08706620772097574 -0.00530407550124628 -0.0216994693494049 0.02522777276297505 0.04687876758566985 0.08960004441639009 -0.03261352564425823 0.05015344992112794 0.03786361946603677 -0.047362176957501036 0.024480664767439684 0.12431157751914919 0.06728877524121922 0.15842339096874378 -0.18956508773961153 0.07381104716968809
nr_sv 15 26 19 18 18 18 20 24
SV
0.0 0.0 0.0 0.0 0.17496958708702087 0.0 0.0 0:0.0076910750940442085 1:0.01833225227892399 2:-0.02893381379544735 3:0.035280950367450714 4:0.017241740599274635 5:-0.04479769989848137 6:0.028719501569867134 7:0.02613159641623497 8:0.051531676203012466 9:0.0204937607049942 10:0.06849440932273865 11:0.05873430147767067 12:-0.02093188837170601 13:0.032946448773145676 14:-0.05129082128405571 15:-0.011316470801830292 16:0.06863810122013092 17:0.0802147313952446 18:-0.0020516226068139076 19:0.03867855668067932 20:0.013309835456311703 21:-0.0096746776252985 22:0.08319222182035446 23:-0.05726666748523712 24:-0.040468692779541016 25:-0.06908005475997925 26:0.030044157058000565 27:-0.05638592690229416 28:0.023136138916015625 29:0.019612107425928116 30:0.039165396243333817 31:0.008959371596574783 32:-0.0016779110301285982 33:0.02678450010716915 34:0.02569786086678505 35:0.002261004177853465 36:-0.033142682164907455 37:-0.059124067425727844 38:0.013606229797005653 39:0.07347715646028519 40:-0.02320179156959057 41:-0.03775080665946007 42:-0.03651159629225731 43:0.03929885849356651 44:-0.03633636236190796 45:0.002613737480714917 46:-0.041474055498838425 47:0.0712633728981018 48:-0.044137753546237946 49:0.022850027307868004 50:-0.03690987452864647 51:-0.03160860762000084 52:0.06841373443603516 53:0.0797322690486908 54:-0.07387957721948624 55:-0.058397650718688965 56:-0.03387676551938057 57:0.0680772140622139 58:-0.03711581602692604 59:-0.04608767479658127 60:-0.008044889196753502 61:0.0674261599779129 62:-0.007716617546975613 63:0.07713542878627777 64:0.03066287375986576 65:-0.04900689050555229 66:-0.04864572361111641 67:-0.029474826529622078 68:0.04669385030865669 69:-0.010371726006269455 70:4.969451038050465E-5 71:0.014723993837833405 72:-0.024864437058568 73:-0.013457379303872585 74:-0.003465773304924369 75:-0.02430599555373192 76:-0.03521352261304855 77:-0.03710046038031578 78:-0.023828962817788124 79:-0.004079444333910942 80:0.012612375430762768 81:0.0037181631196290255 82:-0.07019343227148056 83:-0.013723114505410194 84:0.04917527362704277 85:0.039788756519556046 86:0.057928796857595444 87:0.0269760861992836 88:-0.00648905336856842 89:-0.007485015317797661 90:0.02176642417907715 91:-0.015374206006526947 92:-0.027801338583230972 93:-0.07342687249183655 94:0.06968820840120316 95:0.01460226345807314 96:-0.006014168728142977 97:0.05211416631937027 98:-0.0984082818031311 99:0.03551866486668587 100:0.07154789566993713 101:0.0591256320476532 102:-0.024422837421298027 103:0.02076454646885395 104:0.04802201688289642 105:0.003640757640823722 106:0.030222252011299133 107:0.04720925912261009 108:0.0403498075902462 109:-0.024776797741651535 110:0.10537958890199661 111:0.018712172284722328 112:-0.03663733974099159 113:-0.1075231209397316 114:-0.029921015724539757 115:-0.028170617297291756 116:-0.017659837380051613 117:0.029095683246850967 118:-0.02129073068499565 119:0.04773086681962013 120:-0.006163951940834522 121:0.017902808263897896 122:-0.03571352735161781 123:-0.014237151481211185 124:-0.09168729186058044 125:-0.04363591596484184 126:0.011733326129615307 127:-0.020604953169822693 128:-0.05482838675379753 129:-0.021036535501480103 130:-0.05906083434820175 131:-0.009729057550430298 132:0.011053663678467274 133:-0.06209036335349083 134:0.028191855177283287 135:0.04153590276837349 136:-0.04996517673134804 137:-0.023786555975675583 138:0.026267098262906075 139:0.0734497606754303 140:-0.00342938513495028 141:0.0866827666759491 142:-0.03625451400876045 143:0.08253553509712219 144:-0.023455889895558357 145:0.024500219151377678 146:0.0027131102979183197 147:0.09675876796245575 148:0.012870746664702892 149:-0.007805764675140381 150:0.07327012717723846 151:0.027450429275631905 152:-0.02817787416279316 153:0.022210421040654182 154:0.06282540410757065 155:0.05348988249897957 156:-0.07143356651067734 157:0.07044103741645813 158:0.003946379758417606 159:-0.04910852760076523 160:0.040181636810302734 161:0.08625856786966324 162:-0.005460359156131744 163:0.10604201257228851 164:0.04311242699623108 165:0.03455723077058792 166:-0.0525067113339901 167:0.03324159234762192 168:-0.04709463566541672 169:0.021149609237909317 170:-0.046612754464149475 171:-0.09964372217655182 172:-0.027716772630810738 173:-0.004917676094919443 174:0.01497675571590662 175:0.05372349172830582 176:-0.12977997958660126 177:-0.039983585476875305 178:-0.008164520375430584 179:-0.007062388584017754 180:-0.06865285336971283 181:-0.046228207647800446 182:-0.016490614041686058 183:0.01651282049715519 184:0.037674471735954285 185:0.016672110185027122 186:0.0464283749461174 187:0.005451024044305086 188:-0.05876973271369934 189:-0.02271251380443573 190:0.026906797662377357 191:-0.026408232748508453 192:0.03412903472781181 193:-0.07341089844703674 194:0.08148682117462158 195:-0.08655872195959091 196:-0.08833854645490646 197:-0.023438110947608948 198:0.08391477167606354 199:0.039345260709524155 200:0.06365789473056793 201:-0.02377556823194027 202:-0.009404772892594337 203:-0.03356068581342697 204:0.09456615895032883 205:0.03432231768965721 206:0.0062548574060201645 207:-0.06741407513618469 208:0.024833906441926956 209:-8.712481358088553E-4 210:-0.07588374614715576 211:-2.0821185898967087E-4 212:-0.010814603418111801 213:-0.06084727123379707 214:-0.07247879356145859 215:-0.018741412088274956 216:0.07390221953392029 217:0.059382472187280655 218:0.0791703537106514 219:0.01983104832470417 220:-0.008339615538716316 221:-0.006336430553346872 222:0.06088707223534584 223:-0.008742145262658596 224:0.09510965645313263 225:0.004425775725394487 226:0.011539545841515064 227:0.010003906674683094 228:-0.08737155050039291 229:-0.01834127865731716 230:0.031944312155246735 231:0.02928081341087818 232:0.0323377288877964 233:-0.008893970400094986 234:0.009853364899754524 235:0.012049400247633457 236:0.028030453249812126 237:-0.012431551702320576 238:-0.023426920175552368 239:0.03670754283666611 240:-0.015475314110517502 241:-0.05135206878185272 242:0.04182087257504463 243:0.05225149914622307 244:0.0709884762763977 245:0.029368311166763306 246:-0.03807617723941803 247:-0.03393480181694031 248:0.0020861432421952486 249:-7.016083691269159E-4 250:-0.00962927658110857 251:-0.025281868875026703 252:0.06053071469068527 253:0.06846287101507187 254:-0.031153548508882523 255:-0.05276915803551674 256:0.01568923518061638 257:0.01365507859736681 258:0.0338861420750618 259:0.05687869340181351 260:-0.01676509901881218 261:-0.012986520305275917 262:0.05197165161371231 263:-0.019359517842531204 264:-0.042377572506666183 265:-0.03147409111261368 266:0.03124282881617546 267:-0.03483761101961136 268:-0.02960151806473732 269:-0.04610166698694229 270:0.02900880202651024 271:-0.010786078870296478 272:0.016040850430727005 273:0.04605470597743988 274:-0.01339428685605526 275:0.03271685540676117 276:-0.038585446774959564 277:-0.011070696637034416 278:-0.023148734122514725 279:-0.06673934310674667 280:-0.008154175244271755 281:0.03138917684555054 282:0.04076492041349411 283:0.015808911994099617 284:-0.04600502923130989 285:-0.048261091113090515 286:0.05863310396671295 287:0.0024361659307032824 288:-0.024352144449949265 289:-0.011855742894113064 290:-0.028322577476501465 291:-0.042515844106674194 292:0.01877858303487301 293:-0.043825142085552216 294:-0.03596097230911255 295:-0.06424692273139954 296:-0.009274300187826157 297:-0.006175213027745485 298:-0.008313281461596489 299:0.004643406253308058 300:0.060225147753953934 301:0.05219414457678795 302:-0.07955184578895569 303:0.055148206651210785 304:0.04653420299291611 305:-0.03501591086387634 306:-0.05304780974984169 307:-0.02032066509127617 308:-0.010540023446083069 309:0.005007300991564989 310:0.004210876300930977 311:-0.00965436827391386 312:0.004959256388247013 313:0.00178825156763196 314:0.0755101665854454 315:-0.0065580811351537704 316:0.05062377452850342 317:0.0015011506620794535 318:0.05791154503822327 319:-0.08480789512395859 320:-0.014895680360496044 321:0.0033696568571031094 322:-0.010739889927208424 323:0.040348153561353683 324:-0.020338110625743866 325:0.053451042622327805 326:0.0640602633357048 327:0.07311796396970749 328:0.06210971996188164 329:0.011312047950923443 330:0.010113799013197422 331:0.03728587552905083 332:-0.07741964608430862 333:0.06749164313077927 334:0.03358258679509163 335:0.05161997303366661 336:0.03376201167702675 337:-0.013279937207698822 338:-0.001028823317028582 339:-0.04787985607981682 340:0.06414840370416641 341:-0.04882248863577843 342:0.03035455383360386 343:-0.01410465594381094 344:0.021476494148373604 345:0.020655395463109016 346:0.0022180997766554356 347:8.270089747384191E-4 348:0.010944891721010208 349:-0.02005084976553917 350:0.00899968110024929 351:-0.008950790390372276 352:0.009629148989915848 353:0.012889569625258446 354:0.021030358970165253 355:0.024413136765360832 356:0.060326192528009415 357:0.04981072247028351 358:0.015488944947719574 359:0.002639594255015254 360:-0.0065584504045546055 361:-0.011429986916482449 362:-0.043307624757289886 363:0.030713984742760658 364:0.06085876375436783 365:0.03054208867251873 366:0.014003096148371696 367:0.03041689284145832 368:0.006381636951118708 369:-0.007576261647045612 370:-0.09318453073501587 371:-0.007840709760785103 372:0.03418498486280441 373:0.06475649774074554 374:0.036003801971673965 375:0.05186741054058075 376:-0.020882176235318184 377:0.04362337663769722 378:-0.02783602848649025 379:0.023325955495238304 380:0.03276679664850235 381:0.02328772097826004 382:-0.048467621207237244 383:0.022043801844120026 384:0.05452877655625343 385:0.01431367453187704 386:-0.012248670682311058 387:0.0971868485212326 388:-0.029074177145957947 389:0.05755388364195824 390:0.017552100121974945 391:0.05789758637547493 392:-0.07479705661535263 393:0.005180342122912407 394:-0.026469174772500992 395:-0.048073843121528625 396:-0.05074503272771835 397:-0.0022603769320994616 398:0.015986941754817963 399:-0.041807107627391815 400:0.04506925493478775 401:-0.06018007546663284 402:0.07072064280509949 403:-0.0026701639872044325 404:0.018685510382056236 405:0.005475685000419617 406:-0.03366939350962639 407:0.001249939203262329 408:0.024556128308176994 409:-0.10184911638498306 410:0.06129516288638115 411:-0.01296030730009079 412:-0.07686081528663635 413:0.010134602896869183 414:-0.10358289629220963 415:-0.0650855228304863 416:0.01947535201907158 417:0.021905560046434402 418:-0.01202442031353712 419:-0.0450175441801548 420:0.07373323291540146 421:0.01653262972831726 422:-0.011441540904343128 423:0.051918696612119675 424:-8.922138949856162E-4 425:0.0281975194811821 426:0.04708908125758171 427:-0.008848458528518677 428:-0.005502725951373577 429:-0.029490096494555473 430:-0.03803081810474396 431:0.041115183383226395 432:0.03319507837295532 433:0.001862941775470972 434:-0.009406976401805878 435:-0.05237529054284096 436:-0.08478341996669769 437:-0.07102037966251373 438:-0.04913635924458504 439:-0.0428580641746521 440:-0.02626485377550125 441:-0.02552143856883049 442:0.0427425391972065 443:0.09024124592542648 444:-0.04507819190621376 445:-0.006558613386005163 446:-0.028575444594025612 447:0.028326313942670822 448:-0.0033798341173678637 449:0.004201094154268503 450:0.01976291835308075 451:-0.012011400423943996 452:-0.0010736872209236026 453:0.020090853795409203 454:-0.01561274565756321 455:0.02064155787229538 456:-0.0767882913351059 457:0.0802229642868042 458:0.0655863955616951 459:0.058740243315696716 460:0.05457960069179535 461:0.0625891238451004 462:0.02182956412434578 463:-0.013703231699764729 464:-0.032342713326215744 465:0.06710933148860931 466:0.03957510367035866 467:0.011201382614672184 468:0.038946203887462616 469:0.031010951846837997 470:0.03801574185490608 471:-0.03557686507701874 472:0.06385095417499542 473:-0.08509726077318192 474:-0.039139196276664734 475:0.058027222752571106 476:-0.033347222954034805 477:0.017634596675634384 478:0.02671736851334572 479:-0.07237488031387329 480:0.06268355995416641 481:0.014287763275206089 482:0.014797978103160858 483:0.0228583961725235 484:-0.030085967853665352 485:0.018004516139626503 486:-0.009078903123736382 487:0.08320266753435135 488:0.0690537840127945 489:-0.11716426908969879 490:0.04343373328447342 491:-0.0445244163274765 492:-0.056596964597702026 493:0.017025528475642204 494:0.07820287346839905 495:-0.005164703819900751 496:-0.04025009274482727 497:0.023102249950170517 498:0.060747843235731125 499:-0.0278946403414011 500:-0.05959584563970566 501:0.01704534888267517 502:0.0246717631816864 503:0.03857727348804474 504:0.014778674580156803 505:0.031677741557359695 506:0.024914350360631943 507:0.022898441180586815 508:-0.06447189301252365 509:-0.10028698295354843 510:0.014062119647860527 511:0.027596117928624153 
0.0 0.0 0.0 0.0 0.0 0.19526586858556608 0.0 0:0.0012793445494025946 1:0.024236002936959267 2:-0.030859513208270073 3:0.012523945420980453 4:0.03470169007778168 5:-0.042613718658685684 6:0.01805293932557106 7:0.016449976712465286 8:0.022334720939397812 9:-0.0011611339868977666 10:0.04586658999323845 11:0.025391913950443268 12:-0.06597626209259033 13:-0.010425695218145847 14:-0.03219781443476677 15:0.015626488253474236 16:0.06631868332624435 17:0.06180083006620407 18:-0.020673492923378944 19:0.01841060444712639 20:0.02076350525021553 21:0.015086180530488491 22:0.0778210386633873 23:-0.04287270829081535 24:-0.04794091731309891 25:-0.04852674528956413 26:0.04333164542913437 27:-0.05679779127240181 28:0.0034688280429691076 29:0.034469373524188995 30:0.023817384615540504 31:0.04365021362900734 32:0.013632513582706451 33:0.06323664635419846 34:0.03522481769323349 35:-0.0337817445397377 36:-0.033662885427474976 37:-0.0852903500199318 38:-0.014112783595919609 39:0.05519116669893265 40:0.012762181460857391 41:-0.07425481081008911 42:-0.029646461829543114 43:0.04776337742805481 44:-0.020424820482730865 45:-0.009085495956242085 46:-0.03341151773929596 47:0.07601359486579895 48:-0.07830999046564102 49:0.06438376009464264 50:-0.03279867768287659 51:-0.03118915855884552 52:0.08095425367355347 53:0.03347191959619522 54:-0.030575908720493317 55:-0.031434934586286545 56:-0.048827316612005234 57:0.05434601381421089 58:0.01830032281577587 59:-0.012501421384513378 60:-0.016344839707016945 61:0.07231282442808151 62:0.012875236570835114 63:0.0825842097401619 64:0.018873820081353188 65:-0.04218383505940437 66:-0.07313212752342224 67:-0.0026423982344567776 68:0.011113974265754223 69:-0.03493325039744377 70:-0.022746793925762177 71:0.017431793734431267 72:-0.023513296619057655 73:0.024361668154597282 74:0.002682624151930213 75:-0.00218482525087893 76:-0.042647529393434525 77:-0.05719737708568573 78:0.0037576318718492985 79:-0.024846667423844337 80:0.04506099596619606 81:-0.005343614146113396 82:-0.09274394065141678 83:-0.008050649426877499 84:0.04475995525717735 85:-0.0035526673309504986 86:0.032957326620817184 87:0.022016610950231552 88:0.014502869918942451 89:-0.05291429162025452 90:0.024047112092375755 91:-0.012629656121134758 92:0.01756848394870758 93:-0.0860876515507698 94:0.06398066133260727 95:0.018044907599687576 96:-0.041602782905101776 97:0.08089535683393478 98:-0.07154691219329834 99:0.0065155779011547565 100:0.0992601066827774 101:0.07878446578979492 102:-0.04100784286856651 103:0.06349397450685501 104:0.04294443130493164 105:1.9232206977903843E-4 106:0.046048399060964584 107:0.013423086144030094 108:0.017055189236998558 109:-0.051481615751981735 110:0.09378272294998169 111:0.017759501934051514 112:-0.023515108972787857 113:-0.10758870840072632 114:-0.02327744849026203 115:-0.018071593716740608 116:-0.031141988933086395 117:0.0385788269340992 118:-0.0127146290615201 119:0.04920298606157303 120:0.006332754157483578 121:0.03301994130015373 122:-0.022936221212148666 123:-0.02371549978852272 124:-0.07626164704561234 125:-0.008937965147197247 126:0.0759078711271286 127:-0.04913046583533287 128:-0.008073859848082066 129:-0.035841066390275955 130:-0.06203682720661163 131:-0.023111596703529358 132:0.012514656409621239 133:-0.0812821090221405 134:0.002955459523946047 135:0.005334967747330666 136:-0.06124647334218025 137:-0.041905272752046585 138:0.016383061185479164 139:0.09598994255065918 140:0.011330789886415005 141:0.07428485155105591 142:-0.0817960873246193 143:0.03966560587286949 144:-0.011963951401412487 145:-0.011052741669118404 146:-0.013373530469834805 147:0.074559286236763 148:0.003770544659346342 149:0.007356701418757439 150:0.06745953857898712 151:0.04228347912430763 152:-0.03833356127142906 153:-0.014635837636888027 154:0.05152756720781326 155:0.03419697657227516 156:-0.11643365025520325 157:0.030938779935240746 158:0.002587772672995925 159:-0.043896131217479706 160:0.03733229637145996 161:0.05282464995980263 162:0.009203538298606873 163:0.10141701251268387 164:0.009104064665734768 165:0.023795749992132187 166:-0.04118138551712036 167:0.07846682518720627 168:-0.07906338572502136 169:-0.007416203618049622 170:-0.037430938333272934 171:-0.06838321685791016 172:-0.017235318198800087 173:-0.004801307339221239 174:0.01957307755947113 175:0.10314763337373734 176:-0.13718768954277039 177:-0.003008745377883315 178:-0.004017144441604614 179:-0.004363812506198883 180:-0.04774315655231476 181:-0.03445929288864136 182:0.006197299342602491 183:0.032852012664079666 184:0.04165735840797424 185:0.005283176898956299 186:0.03241699934005737 187:0.041318561881780624 188:-0.027084581553936005 189:0.02330092340707779 190:0.07450859248638153 191:-0.030496088787913322 192:0.07492317259311676 193:-0.08033942431211472 194:0.09123530238866806 195:-0.0872519239783287 196:-0.0686599463224411 197:0.0033306654077023268 198:0.014638017863035202 199:-0.01397973857820034 200:0.07099227607250214 201:-0.05177934840321541 202:0.04719463363289833 203:-0.04708941653370857 204:0.08597695082426071 205:0.020005138590931892 206:0.036941319704055786 207:-0.03797655552625656 208:0.00802847370505333 209:0.013014830648899078 210:-0.0199155043810606 211:0.02599167823791504 212:-0.0032417718321084976 213:-0.02246343530714512 214:-0.07009176909923553 215:-0.011456039734184742 216:0.06548944115638733 217:0.028311824426054955 218:0.033268190920352936 219:0.00876323226839304 220:-0.04950766637921333 221:0.016671299934387207 222:0.026851000264286995 223:0.012673461809754372 224:0.11004919558763504 225:0.022727010771632195 226:0.032466061413288116 227:0.021014705300331116 228:-0.0877533107995987 229:0.024856843054294586 230:0.020570367574691772 231:-6.001022993586957E-4 232:-0.011328859254717827 233:-0.018442705273628235 234:-0.0052708787843585014 235:-0.003661596216261387 236:0.008756918832659721 237:0.00574540626257658 238:-0.005873457062989473 239:0.017541715875267982 240:-0.014754689298570156 241:-0.039756886661052704 242:0.01813729666173458 243:0.021639566868543625 244:0.08335184305906296 245:0.043174490332603455 246:-0.013836742378771305 247:-0.019900469109416008 248:0.02928299829363823 249:-0.01812429167330265 250:-0.037641048431396484 251:-5.036621587350965E-4 252:0.04368330165743828 253:0.019603652879595757 254:-0.02856586128473282 255:-0.06331674754619598 256:-0.0032188508193939924 257:0.035154733806848526 258:0.015269456431269646 259:0.07335813343524933 260:-0.006340781692415476 261:-0.03506062179803848 262:0.06566043943166733 263:0.0023870060686022043 264:-0.042735666036605835 265:-0.051903337240219116 266:0.03289467841386795 267:-0.009840883314609528 268:0.00270755123347044 269:-0.0937248021364212 270:0.03900911659002304 271:0.008217510767281055 272:0.04443049430847168 273:0.029813852161169052 274:-0.01666341908276081 275:0.030343083664774895 276:-0.01522015780210495 277:0.015302412211894989 278:-0.010990377515554428 279:-0.0541655495762825 280:-0.014726968482136726 281:0.03632152080535889 282:0.05306936055421829 283:-0.030996140092611313 284:-0.030091118067502975 285:-0.029802996665239334 286:0.05598646402359009 287:-0.031176531687378883 288:-0.022085929289460182 289:-0.00633282633498311 290:-0.058000363409519196 291:-0.009939421899616718 292:0.028320180252194405 293:-0.04369093105196953 294:-0.011645760387182236 295:-0.0492854118347168 296:-0.007554180454462767 297:-0.058787476271390915 298:0.02239144966006279 299:0.0018735439516603947 300:0.06841999292373657 301:0.023919805884361267 302:-0.06066972762346268 303:0.05493021756410599 304:0.051489416509866714 305:0.021932518109679222 306:-0.027495814487338066 307:-0.04939777031540871 308:-0.011792773380875587 309:0.028751108795404434 310:-0.02626883052289486 311:0.00605252617970109 312:0.024858690798282623 313:-0.001590595580637455 314:0.0649212971329689 315:-0.00929952785372734 316:-0.021770456805825233 317:0.04290955141186714 318:0.08892170339822769 319:-0.08953041583299637 320:-8.510128245688975E-4 321:-0.01101865153759718 322:-0.047000981867313385 323:0.02586396597325802 324:0.01017878856509924 325:0.017575275152921677 326:0.06716914474964142 327:0.08296197652816772 328:0.024904830381274223 329:0.03291940689086914 330:-1.6688178584445268E-4 331:0.050097014755010605 332:-0.08846130222082138 333:0.08061368763446808 334:0.004847773350775242 335:0.04351542517542839 336:0.03212064504623413 337:-0.03139941394329071 338:-0.020929981023073196 339:-0.04417744651436806 340:0.04248974099755287 341:-0.04925403371453285 342:0.06115501746535301 343:-0.010540856048464775 344:-8.748184773139656E-4 345:0.030257752165198326 346:0.03125876933336258 347:0.025450510904192924 348:-0.004810632672160864 349:6.113989365985617E-5 350:-0.010507531464099884 351:-0.02636307291686535 352:0.007512805517762899 353:-0.008442126214504242 354:-0.0037592570297420025 355:0.0442836694419384 356:0.06984582543373108 357:0.0010847995290532708 358:0.014700181782245636 359:-0.032541655004024506 360:-0.031377390027046204 361:-0.04150362312793732 362:-0.03068474866449833 363:0.001948871067725122 364:0.04612606391310692 365:0.03676334396004677 366:-0.037287354469299316 367:0.007822133600711823 368:-0.01724853180348873 369:-0.02265162579715252 370:-0.07235141098499298 371:0.008311432786285877 372:-0.016307367011904716 373:0.03604331612586975 374:0.03673046454787254 375:0.09350153803825378 376:-0.02346290647983551 377:0.02910667285323143 378:-0.02752358838915825 379:0.05202334001660347 380:-0.02326756902039051 381:-0.00510293897241354 382:-0.033985793590545654 383:0.017505139112472534 384:0.06932681053876877 385:9.97245151665993E-5 386:0.054437845945358276 387:0.09209731966257095 388:-0.024089917540550232 389:0.031214626505970955 390:-0.00413388991728425 391:0.07394438236951828 392:-0.04774756729602814 393:5.944421864114702E-4 394:0.007991671562194824 395:-0.05943981185555458 396:-0.0420880988240242 397:0.04824738949537277 398:0.01837528683245182 399:-0.05921211093664169 400:0.03633689880371094 401:-0.06023931875824928 402:0.06806296110153198 403:0.0013316648546606302 404:-0.0010001561604440212 405:-0.007963508367538452 406:-0.05098002031445503 407:-0.030509278178215027 408:0.035660598427057266 409:-0.0639420747756958 410:0.058053430169820786 411:-0.005724460817873478 412:-0.07508005946874619 413:-0.005341368727385998 414:-0.0931657999753952 415:-0.06098472699522972 416:0.03392018750309944 417:0.038414858281612396 418:-0.004704262129962444 419:-0.056221041828393936 420:0.04794027656316757 421:-0.013920717872679234 422:0.01073531899601221 423:0.05073503404855728 424:-0.016217920929193497 425:-0.014875203371047974 426:0.0708494707942009 427:-0.0022724668961018324 428:-0.005727300886064768 429:-0.054334837943315506 430:-0.07233744859695435 431:0.022239679470658302 432:0.023592278361320496 433:-0.03640235587954521 434:0.02827370911836624 435:-0.05806950852274895 436:-0.047643691301345825 437:-0.062789686024189 438:-0.0352848544716835 439:-0.03174927458167076 440:-0.07509953528642654 441:-0.029285652562975883 442:0.030138468369841576 443:0.07116562873125076 444:-0.02940564602613449 445:0.014154195785522461 446:0.006191545631736517 447:0.039331622421741486 448:0.0021112458780407906 449:-0.021169675514101982 450:0.010401370003819466 451:-0.02834661863744259 452:0.03375781327486038 453:0.00761409243568778 454:-0.05348094552755356 455:0.02355765923857689 456:-0.0784020945429802 457:0.060753121972084045 458:0.04277060180902481 459:0.07970637828111649 460:0.049589209258556366 461:0.0707826316356659 462:0.0023794560693204403 463:-0.00832489412277937 464:0.011822136119008064 465:0.044294606894254684 466:0.03344601392745972 467:-0.04104781895875931 468:0.06985852867364883 469:0.0349242128431797 470:0.041599590331315994 471:-0.01645723171532154 472:0.033125508576631546 473:-0.053144242614507675 474:-0.07986041903495789 475:0.06843385100364685 476:3.6351149901747704E-4 477:0.05837635695934296 478:0.023442519828677177 479:-0.06059223785996437 480:0.054087888449430466 481:-0.013014557771384716 482:0.008007291704416275 483:0.05803752690553665 484:-0.01636945828795433 485:-0.017289962619543076 486:-0.02637133188545704 487:0.055967558175325394 488:0.06691492348909378 489:-0.13427448272705078 490:0.013249392621219158 491:-0.047072283923625946 492:-0.04078662395477295 493:-0.032908711582422256 494:0.06908833980560303 495:-0.005034922156482935 496:-0.011979535222053528 497:0.005296997260302305 498:0.08966168761253357 499:-0.030404098331928253 500:-0.08807966858148575 501:0.011940356343984604 502:0.006353781558573246 503:0.025796135887503624 504:-0.006331640761345625 505:0.046605292707681656 506:0.01748327910900116 507:0.007017114665359259 508:-0.06948436796665192 509:-0.07682482898235321 510:0.027500202879309654 511:-0.02040378376841545 
0.0 0.0 0.23127088121978545 0.0 0.0 0.05005353365959623 0.0 0:0.006377603858709335 1:-0.015815671533346176 2:-0.04909311980009079 3:0.032352957874536514 4:0.02611706405878067 5:-0.03797122836112976 6:0.05336447432637215 7:0.007067762780934572 8:0.006254916079342365 9:0.02816283330321312 10:0.05360044538974762 11:0.05637739226222038 12:-0.037921663373708725 13:0.03680703416466713 14:-0.05266526713967323 15:-0.0021491823717951775 16:0.0584305115044117 17:0.07321948558092117 18:-0.003142780624330044 19:0.03823935613036156 20:-0.0012501910096034408 21:-0.031780119985342026 22:0.07985708862543106 23:-0.0464414544403553 24:-0.03756795823574066 25:-0.085833340883255 26:0.03520818054676056 27:-0.07758041471242905 28:0.011164167895913124 29:0.02698664925992489 30:0.03226304426789284 31:-0.010411576367914677 32:-0.042151257395744324 33:0.06185617670416832 34:-0.004025598987936974 35:-0.0312904454767704 36:-0.03270866721868515 37:-0.06359340995550156 38:-0.022387629374861717 39:0.06797745823860168 40:-0.029839500784873962 41:-0.04237885773181915 42:-0.0611005537211895 43:0.06560550630092621 44:-0.011294951662421227 45:0.005292401183396578 46:-0.029676977545022964 47:0.06466593593358994 48:-0.023099543526768684 49:0.05208135023713112 50:-0.03993118181824684 51:-0.02941269241273403 52:0.08923739194869995 53:0.07934276014566422 54:-0.07952923327684402 55:-0.0719757154583931 56:-0.055014029145240784 57:0.0651521161198616 58:-0.0288885235786438 59:-0.02888711914420128 60:0.0021933685056865215 61:0.04606631398200989 62:0.030176348984241486 63:0.07936820387840271 64:0.05887971073389053 65:-0.050944969058036804 66:-0.05321317911148071 67:-0.026422247290611267 68:0.03170745447278023 69:-0.008521047420799732 70:-0.04578658565878868 71:0.02662680856883526 72:-0.00680076377466321 73:0.00590110057964921 74:-0.006205238867551088 75:-9.659768547862768E-4 76:-0.017834870144724846 77:-0.08243251591920853 78:0.016285058110952377 79:0.00212314585223794 80:-8.536454988643527E-4 81:0.004734035115689039 82:-0.05632147192955017 83:8.042186964303255E-4 84:0.036353081464767456 85:0.04124787077307701 86:0.055989012122154236 87:0.010602558963000774 88:0.015595733188092709 89:-0.03361278772354126 90:0.04838477075099945 91:-0.0087989317253232 92:-0.03683052957057953 93:-0.06897316128015518 94:0.05117591843008995 95:0.00266677956096828 96:0.008351297117769718 97:0.05359547957777977 98:-0.07780490070581436 99:0.041099485009908676 100:0.09026681631803513 101:0.03876299783587456 102:-0.016852088272571564 103:0.017100613564252853 104:0.01435160730034113 105:0.007147389929741621 106:-0.005129224620759487 107:0.047701552510261536 108:0.013775560073554516 109:-0.06235068663954735 110:0.10367283970117569 111:0.02359653450548649 112:-0.03939181938767433 113:-0.09079458564519882 114:-0.028274167329072952 115:-0.028286060318350792 116:-0.0340554378926754 117:0.01577293500304222 118:-0.02275403030216694 119:0.04900643974542618 120:0.014515240676701069 121:0.04246121644973755 122:-0.01812813989818096 123:-0.013662051409482956 124:-0.06630188226699829 125:-0.03340141102671623 126:-0.002538334345445037 127:-0.0037871638778597116 128:-0.02310212515294552 129:-0.014125385321676731 130:-0.07547082006931305 131:-0.04158356413245201 132:0.018724488094449043 133:-0.022417422384023666 134:0.01383501198142767 135:-5.759864579886198E-4 136:-0.06418420374393463 137:-0.017542077228426933 138:0.016866978257894516 139:0.09003173559904099 140:-0.01173156313598156 141:0.12581604719161987 142:-0.028846990317106247 143:0.08326634764671326 144:-0.01333820540457964 145:0.05266376957297325 146:0.0016157999634742737 147:0.09798695892095566 148:0.024113884195685387 149:0.017221415415406227 150:0.040715400129556656 151:0.04634085297584534 152:-0.03529601916670799 153:0.013005848042666912 154:0.04425304755568504 155:0.02817167341709137 156:-0.07714781910181046 157:0.0663226917386055 158:-0.00466854777187109 159:-0.03917703032493591 160:0.029222991317510605 161:0.05902966111898422 162:0.004612532909959555 163:0.1117645800113678 164:0.02417251653969288 165:0.06615371257066727 166:-0.06285012513399124 167:0.04291888326406479 168:-0.04580844193696976 169:0.0027441405691206455 170:-0.0027837897650897503 171:-0.0921209305524826 172:0.001744181732647121 173:0.016685057431459427 174:-0.002600791398435831 175:0.07234415411949158 176:-0.12741875648498535 177:-0.011007167398929596 178:-0.02075686678290367 179:0.011740608140826225 180:-0.05135844275355339 181:-0.04383869469165802 182:0.0010206899605691433 183:0.007135739084333181 184:0.029540646821260452 185:-0.00758662773296237 186:0.04526740685105324 187:-0.00840021762996912 188:-0.06307463347911835 189:-0.06006484851241112 190:0.02135208062827587 191:-0.04480987787246704 192:0.04684026911854744 193:-0.07920791953802109 194:0.04868202283978462 195:-0.07835596799850464 196:-0.07353144139051437 197:-0.011680341325700283 198:0.05981315299868584 199:0.04480621591210365 200:0.057715605944395065 201:-0.025288939476013184 202:-0.01981951668858528 203:-0.03853202238678932 204:0.10825760662555695 205:0.021540507674217224 206:0.032632336020469666 207:-0.05896642059087753 208:0.0345107764005661 209:-0.00823910254985094 210:-0.07062047719955444 211:0.003713390324264765 212:-0.007067767437547445 213:-0.0321674682199955 214:-0.06462821364402771 215:0.008766585029661655 216:0.07074818015098572 217:0.060434117913246155 218:0.08259885013103485 219:0.03391589969396591 220:-0.025246070697903633 221:0.003790060291066766 222:0.06647448986768723 223:-0.017784850671887398 224:0.12697146832942963 225:0.02829691395163536 226:0.017753301188349724 227:0.005593471694737673 228:-0.07949095964431763 229:-0.00536901643499732 230:0.02993294596672058 231:0.04954948648810387 232:0.024351174011826515 233:-0.012163485400378704 234:0.007939135655760765 235:0.013527743518352509 236:0.029759293422102928 237:-0.007093658205121756 238:-0.0196094810962677 239:0.01973685994744301 240:4.88457502797246E-4 241:-0.06438605487346649 242:0.0034180302172899246 243:0.055204711854457855 244:0.08125241100788116 245:0.020424751564860344 246:-0.0172236580401659 247:-0.033197853714227676 248:0.022849373519420624 249:-0.009628280997276306 250:-0.007496336009353399 251:-0.006612174212932587 252:0.04883671551942825 253:0.06151648238301277 254:-0.023355484008789062 255:-0.0766778215765953 256:-0.00273716333322227 257:0.018182920292019844 258:0.007242828607559204 259:0.05042935535311699 260:0.0029126687441021204 261:0.0019486014498397708 262:0.03463675081729889 263:-0.015086944214999676 264:-0.047866325825452805 265:-0.027235684916377068 266:0.027341384440660477 267:-0.07333637773990631 268:-0.026192620396614075 269:-0.07110435515642166 270:0.03405435383319855 271:0.0034358834382146597 272:0.0024624979123473167 273:0.044946447014808655 274:-0.04208739101886749 275:0.022980540990829468 276:-0.028794724494218826 277:-0.018792985007166862 278:0.00466076098382473 279:-0.06189710646867752 280:0.010998031124472618 281:0.011615881696343422 282:0.02453647181391716 283:0.028255563229322433 284:-0.043342914432287216 285:-0.03839201480150223 286:0.03345426172018051 287:-0.006347463466227055 288:-0.017234856262803078 289:-0.0032740049064159393 290:-0.06448503583669662 291:-0.021511610597372055 292:0.04918863624334335 293:-0.03378148376941681 294:-0.004974121693521738 295:-0.05378904193639755 296:-0.04926670715212822 297:-0.004158349242061377 298:-0.005232538096606731 299:0.015296418219804764 300:0.09702206403017044 301:0.057121094316244125 302:-0.041354887187480927 303:0.07555510103702545 304:0.06861292570829391 305:-0.01646178774535656 306:-0.042078983038663864 307:-0.023679180070757866 308:-0.03603240102529526 309:0.039919011294841766 310:-9.712266037240624E-4 311:0.006424938328564167 312:0.01952582225203514 313:-0.0016992377350106835 314:0.08780941367149353 315:-0.014567463658750057 316:0.021786408498883247 317:0.009199194610118866 318:0.04684918001294136 319:-0.06531529873609543 320:0.013861281797289848 321:0.01757204905152321 322:-0.0055348812602460384 323:0.015977580100297928 324:0.006588751915842295 325:0.027548007667064667 326:0.06317010521888733 327:0.040732309222221375 328:0.029591206461191177 329:0.010088540613651276 330:0.023300066590309143 331:0.03941439464688301 332:-0.08713196963071823 333:0.07711087167263031 334:0.01859411597251892 335:0.04223477840423584 336:0.024012219160795212 337:0.0036846566945314407 338:-0.00790600199252367 339:-0.040061648935079575 340:0.06410858035087585 341:-0.02602090872824192 342:0.06690438091754913 343:-0.017784539610147476 344:0.007572395261377096 345:0.03314291313290596 346:-0.027370546013116837 347:-0.007468067109584808 348:0.019595205783843994 349:-0.021517997607588768 350:-0.018711088225245476 351:-0.055907562375068665 352:0.015335437841713428 353:-0.010530870407819748 354:0.007790022064000368 355:0.05092970281839371 356:0.0707237645983696 357:0.034899625927209854 358:0.0030449971091002226 359:-0.004304774571210146 360:-0.016215745359659195 361:-0.027714045718312263 362:-0.03799894452095032 363:0.06404983997344971 364:0.05958019569516182 365:-0.003356756642460823 366:0.0054923174902796745 367:0.029423974454402924 368:0.0017664749175310135 369:-0.0104030417278409 370:-0.05041098594665527 371:0.0420810766518116 372:0.039601899683475494 373:0.06404383480548859 374:-0.0038218519184738398 375:0.038021814078092575 376:-0.046051349490880966 377:0.025354495272040367 378:-0.03194434195756912 379:0.0015537758590653539 380:0.02395584061741829 381:0.027553481981158257 382:-0.04587743803858757 383:-0.0019441259792074561 384:0.039831530302762985 385:0.03616126626729965 386:0.001712627476081252 387:0.09517143666744232 388:-0.028052691370248795 389:0.06514724344015121 390:0.02005969174206257 391:0.0643133670091629 392:-0.054896943271160126 393:0.010960821062326431 394:-0.027593344449996948 395:-0.04484901577234268 396:-0.053075678646564484 397:-0.003921868279576302 398:0.02098500169813633 399:-0.05881381034851074 400:0.052376165986061096 401:-0.028663868084549904 402:0.06797469407320023 403:-0.0017302506603300571 404:0.00321639864705503 405:-0.01987985521554947 406:-0.021971948444843292 407:-0.012597852386534214 408:-0.012935702688992023 409:-0.06669367849826813 410:0.03304672613739967 411:-3.9717135950922966E-4 412:-0.10432615876197815 413:0.020594799891114235 414:-0.06893880665302277 415:-0.08936207741498947 416:0.009511806070804596 417:0.020888544619083405 418:-0.007615568116307259 419:-0.0404580757021904 420:0.0388699471950531 421:0.009322979487478733 422:-0.0013039435725659132 423:0.06348966807126999 424:0.027922840788960457 425:0.03705117478966713 426:0.07083768397569656 427:0.022280192002654076 428:-0.004157967399805784 429:-0.04783262312412262 430:-0.03175016865134239 431:0.033249568194150925 432:0.038146208971738815 433:-0.02017045021057129 434:-0.007405920419842005 435:-0.07511485368013382 436:-0.06360971182584763 437:-0.06358461827039719 438:-0.03551024943590164 439:-0.03409547358751297 440:-0.05993186682462692 441:-0.05909902602434158 442:0.031740471720695496 443:0.11462748795747757 444:-0.0615193136036396 445:0.017352165654301643 446:-0.0042481557466089725 447:0.018670883029699326 448:0.013601530343294144 449:-0.024001294746994972 450:0.03349236398935318 451:0.0026399455964565277 452:2.7554784901440144E-4 453:0.015883736312389374 454:-0.01204696949571371 455:0.025665415450930595 456:-0.08495813608169556 457:0.0627485066652298 458:0.058702677488327026 459:0.04606577381491661 460:0.06735255569219589 461:0.07268454134464264 462:0.02433099038898945 463:-0.0010818865848705173 464:-0.044807326048612595 465:0.04153050482273102 466:0.06879286468029022 467:0.01907079853117466 468:0.0478849858045578 469:0.006681511644273996 470:0.04414854198694229 471:-0.023081637918949127 472:0.06430894881486893 473:-0.060748353600502014 474:-0.043241385370492935 475:0.06385350972414017 476:-0.03220180794596672 477:0.00963586661964655 478:0.030487755313515663 479:-0.08188701421022415 480:0.025770068168640137 481:0.025761717930436134 482:0.0366416871547699 483:0.02272818423807621 484:-0.01657233014702797 485:0.018051424995064735 486:-0.041533876210451126 487:0.04248245432972908 488:0.07056976109743118 489:-0.10838783532381058 490:0.014941181056201458 491:-0.03139356151223183 492:-0.06255664676427841 493:0.0033871999476104975 494:0.08227387815713882 495:-0.013629374094307423 496:-0.030859578400850296 497:0.03589905425906181 498:0.08446213603019714 499:0.01567869260907173 500:-0.047889236360788345 501:0.0257254671305418 502:0.011109983548521996 503:0.029788751155138016 504:0.0162512119859457 505:0.05905858799815178 506:0.014035379514098167 507:0.03507427126169205 508:-0.08141078054904938 509:-0.09284170717000961 510:0.017486169934272766 511:-0.0012366517912596464 
1.0 1.0 0.0 0.9491775158013948 1.0 0.0 1.0 0:-0.02237739972770214 1:-0.00847539585083723 2:-0.07012680917978287 3:0.038312193006277084 4:0.03631875291466713 5:-0.06322965770959854 6:0.018488295376300812 7:0.04281888157129288 8:0.04048313573002815 9:0.027301520109176636 10:0.044420767575502396 11:0.04521796479821205 12:-0.048331089317798615 13:-0.02197759971022606 14:-0.03637982904911041 15:0.017629584297537804 16:0.07966013997793198 17:0.08355168998241425 18:-0.032136935740709305 19:0.04437345638871193 20:0.005332671105861664 21:0.03132547065615654 22:0.06535805761814117 23:-0.061815839260816574 24:-0.05732189118862152 25:-0.05655974894762039 26:0.04165598750114441 27:-0.03420288860797882 28:0.013805939815938473 29:0.04014987125992775 30:0.02175338752567768 31:0.04326244816184044 32:0.0051282914355397224 33:0.04739454761147499 34:0.015424322336912155 35:-0.028198594227433205 36:-0.064388208091259 37:-0.08554641157388687 38:-0.03333191201090813 39:0.0805210992693901 40:0.0068522789515554905 41:-0.07014625519514084 42:-0.030014334246516228 43:0.029127903282642365 44:-0.006161394529044628 45:0.016748184338212013 46:-7.33325257897377E-4 47:0.07732586562633514 48:-0.07123993337154388 49:0.05408869683742523 50:-0.007822374813258648 51:-0.036481600254774094 52:0.10985264182090759 53:0.03989201784133911 54:-0.046660203486680984 55:-0.04089873656630516 56:-0.07364355772733688 57:0.07819432765245438 58:0.003275799099355936 59:-0.02447648160159588 60:-0.02348359115421772 61:0.052631571888923645 62:0.0051175630651414394 63:0.077212855219841 64:-0.005145225673913956 65:-0.03703254833817482 66:-0.0682634487748146 67:0.0012265093391761184 68:-0.00230627553537488 69:-0.03402472659945488 70:-0.005262758582830429 71:0.003767404705286026 72:-0.028999848291277885 73:6.297000800259411E-4 74:0.003572705667465925 75:-0.014124711975455284 76:-0.026311587542295456 77:-0.043362777680158615 78:0.003779943799600005 79:-0.03800002858042717 80:0.03747972846031189 81:0.02225256897509098 82:-0.06372599303722382 83:-0.03232337534427643 84:0.01726856268942356 85:0.0024942299351096153 86:0.044671397656202316 87:0.014007749035954475 88:0.01571868546307087 89:-0.04386448115110397 90:0.01486157812178135 91:8.367415284737945E-4 92:0.01627339981496334 93:-0.0832526907324791 94:0.05983136594295502 95:0.04211097210645676 96:-0.015569205395877361 97:0.0735834389925003 98:-0.08897306025028229 99:0.022486574947834015 100:0.07163325697183609 101:0.07218538969755173 102:-0.01109614409506321 103:0.043220650404691696 104:0.0372406542301178 105:-6.450472283177078E-4 106:0.04747950658202171 107:0.022299164906144142 108:0.030963098630309105 109:-0.020955439656972885 110:0.0924290120601654 111:0.0018335857894271612 112:-0.022982357069849968 113:-0.09930051863193512 114:5.582676967605948E-4 115:-0.006136015057563782 116:-0.023585718125104904 117:0.0571049302816391 118:-0.028425244614481926 119:0.05314365774393082 120:0.01890871860086918 121:0.01523615512996912 122:-0.022251209244132042 123:-0.03161650896072388 124:-0.07251982390880585 125:-0.03019668161869049 126:0.045892782509326935 127:-0.03415621072053909 128:-0.03006102703511715 129:-0.056758757680654526 130:-0.041594672948122025 131:-0.04813571274280548 132:0.006235957145690918 133:-0.08298339694738388 134:0.006501034367829561 135:0.017516711726784706 136:-0.05697052180767059 137:-0.02879044972360134 138:0.03961368650197983 139:0.09257005155086517 140:0.010431814007461071 141:0.07616216689348221 142:-0.07924336194992065 143:0.06096064671874046 144:0.012517130933701992 145:0.01584010012447834 146:-0.010387188754975796 147:0.07496792823076248 148:-0.0022345376200973988 149:0.009538311511278152 150:0.051290176808834076 151:0.05169285833835602 152:-0.038449812680482864 153:0.010179002769291401 154:0.057026032358407974 155:-0.0040358202531933784 156:-0.08828730881214142 157:0.011225910857319832 158:-0.012221471406519413 159:-0.03724489361047745 160:0.031448639929294586 161:0.0658925250172615 162:0.01031597051769495 163:0.09013613313436508 164:0.02285372093319893 165:0.014502439647912979 166:-0.04574519768357277 167:0.053920213133096695 168:-0.07154998928308487 169:-0.011525222100317478 170:-0.052977245301008224 171:-0.06366729736328125 172:-0.001124490750953555 173:0.016224127262830734 174:0.014713764190673828 175:0.11291727423667908 176:-0.12334694713354111 177:-0.006623494438827038 178:-0.00848737545311451 179:-0.018280860036611557 180:-0.06434222310781479 181:-0.023169519379734993 182:4.202673735562712E-4 183:0.042818039655685425 184:0.057999491691589355 185:0.024243295192718506 186:0.03408079594373703 187:0.0066960472613573074 188:-0.02575555443763733 189:0.016268184408545494 190:0.07068604230880737 191:-0.03760526329278946 192:0.07495836913585663 193:-0.05015894025564194 194:0.10715311765670776 195:-0.07205428183078766 196:-0.06978324800729752 197:-0.0040605319663882256 198:0.02058284915983677 199:-0.027368705719709396 200:0.06520169228315353 201:-0.06028706207871437 202:0.03172039985656738 203:-0.05501418188214302 204:0.07289989292621613 205:-0.008994033560156822 206:0.06961965560913086 207:-0.033051811158657074 208:0.011450142599642277 209:0.008453004993498325 210:-0.024114388972520828 211:0.04159613698720932 212:-0.024663051590323448 213:-0.024719130247831345 214:-0.055084049701690674 215:0.013384342193603516 216:0.04351276531815529 217:0.051117103546857834 218:0.02288399264216423 219:-0.008126042783260345 220:-0.016663935035467148 221:0.02940615825355053 222:0.028123008087277412 223:0.005932294763624668 224:0.1030653640627861 225:0.01234422530978918 226:0.02230234257876873 227:0.029849359765648842 228:-0.06383522599935532 229:0.04148745536804199 230:0.0023206688929349184 231:-0.02266564406454563 232:0.02931261621415615 233:-0.022182120010256767 234:-0.040105439722537994 235:0.031227050349116325 236:-0.018573077395558357 237:-0.00689933355897665 238:-0.014547991566359997 239:0.018910517916083336 240:-0.029717838391661644 241:-0.03858518227934837 242:0.017986727878451347 243:0.004334695171564817 244:0.10036303102970123 245:0.045523252338171005 246:-0.03768961504101753 247:-0.03373682498931885 248:0.05753196403384209 249:-0.013476560823619366 250:-0.04434271156787872 251:0.02852604351937771 252:0.03996170312166214 253:0.014402573928236961 254:-0.024778852239251137 255:-0.04552987962961197 256:0.02059795893728733 257:-0.0017772915307432413 258:0.0023991884663701057 259:0.06756127625703812 260:-0.01742531917989254 261:-0.03716311603784561 262:0.03362985700368881 263:-0.007057630456984043 264:-0.04445158317685127 265:-0.06818739324808121 266:0.028451578691601753 267:-0.01174573227763176 268:-0.010440812446177006 269:-0.08673036843538284 270:0.005557454656809568 271:0.004431084729731083 272:0.028171801939606667 273:0.020512519404292107 274:-0.009573719464242458 275:0.023207947611808777 276:-0.012545592151582241 277:0.009224953129887581 278:-0.020387645810842514 279:-0.020564774051308632 280:0.0032968339510262012 281:0.03981432691216469 282:0.04944095388054848 283:-0.023666614666581154 284:-0.019122101366519928 285:-0.0035799997858703136 286:0.0718836709856987 287:-6.63673272356391E-5 288:-0.06797681003808975 289:-0.02533571608364582 290:-0.045524291694164276 291:0.002437667455524206 292:0.04147464781999588 293:-0.051957909017801285 294:-0.03441451117396355 295:-0.046096015721559525 296:0.019128648564219475 297:-0.039533764123916626 298:0.03348371759057045 299:0.012255394831299782 300:0.08084995299577713 301:0.03677521273493767 302:-0.07052893936634064 303:0.04794986546039581 304:0.03737567365169525 305:0.009705417789518833 306:-0.020115967839956284 307:-0.05690514296293259 308:-0.028780262917280197 309:0.02767367474734783 310:-0.01843329519033432 311:0.012298982590436935 312:0.002747751073911786 313:-0.01378335990011692 314:0.055398911237716675 315:0.0013032719725742936 316:0.0016259346157312393 317:0.02904265560209751 318:0.12089323997497559 319:-0.1022515594959259 320:0.005747078452259302 321:-0.014592769555747509 322:-0.01928836479783058 323:0.029987210407853127 324:0.019517743960022926 325:-0.0016484347870573401 326:0.05451960116624832 327:0.07409077137708664 328:0.03680146858096123 329:0.04424392804503441 330:-5.6168457376770675E-5 331:0.08006926625967026 332:-0.043188195675611496 333:0.06289650499820709 334:0.01303347572684288 335:0.06144215166568756 336:0.03577151522040367 337:-0.02250681072473526 338:-0.019972218200564384 339:-0.05014391615986824 340:0.05050770193338394 341:-0.041201841086149216 342:0.045081380754709244 343:-0.0013142783427610993 344:0.040923602879047394 345:0.02453301101922989 346:0.00953496340662241 347:0.04746149107813835 348:0.014253395609557629 349:-0.004768747370690107 350:0.02796940505504608 351:-0.0276752021163702 352:-0.027978213503956795 353:-0.006994892377406359 354:0.006242861971259117 355:0.0326959565281868 356:0.058426354080438614 357:0.00828604493290186 358:0.022426899522542953 359:-0.014291387982666492 360:-0.005907804239541292 361:-0.03297732397913933 362:-0.041898325085639954 363:0.01746637374162674 364:0.055430565029382706 365:0.0235130712389946 366:-0.027309920638799667 367:0.02357172593474388 368:-0.0040564402006566525 369:-0.05500014126300812 370:-0.07667049765586853 371:0.0070016938261687756 372:-0.012849240563809872 373:0.031097110360860825 374:0.02214738354086876 375:0.09242279827594757 376:-0.04273633286356926 377:0.05705326795578003 378:-0.040553443133831024 379:0.005189000628888607 380:-0.03144251927733421 381:0.01728224754333496 382:-0.026552090421319008 383:8.59102641697973E-4 384:0.04415587708353996 385:-0.009924788028001785 386:0.0166721623390913 387:0.06150834634900093 388:-0.04640938341617584 389:0.019209373742341995 390:0.0062622674740850925 391:0.056732796132564545 392:-0.06229314208030701 393:-0.03326382115483284 394:0.004289173986762762 395:-0.06465816497802734 396:-0.040508076548576355 397:0.026668839156627655 398:0.06366171687841415 399:-0.03820948302745819 400:0.036427807062864304 401:-0.04720514640212059 402:0.05748800188302994 403:0.017365088686347008 404:0.01074069831520319 405:-0.0029955327045172453 406:-0.0366482175886631 407:-0.015875909477472305 408:0.03425881639122963 409:-0.09180894494056702 410:0.05966169387102127 411:-0.016862332820892334 412:-0.04622461274266243 413:-0.02791832759976387 414:-0.10008011013269424 415:-0.026265092194080353 416:0.04536425694823265 417:0.0457778200507164 418:-0.016875064000487328 419:-0.05589796602725983 420:0.08647722750902176 421:-0.004216707311570644 422:0.03218107298016548 423:0.07253864407539368 424:-0.03853461518883705 425:-0.02718437649309635 426:0.0670928806066513 427:-0.010531294159591198 428:-0.02932627871632576 429:-0.06639182567596436 430:-0.08720037341117859 431:0.011125440709292889 432:0.03604621812701225 433:-0.038032494485378265 434:0.020364081487059593 435:-0.0634465366601944 436:-0.05731428414583206 437:-0.07478118687868118 438:-0.04415642097592354 439:-0.019798021763563156 440:-0.08373884111642838 441:-0.03535756841301918 442:0.024838954210281372 443:0.10029640048742294 444:-0.04495283216238022 445:-0.0015063504688441753 446:0.002568434691056609 447:0.01528414711356163 448:0.005282065365463495 449:-0.021438779309391975 450:0.017751280218362808 451:-0.024068433791399002 452:0.010637849569320679 453:0.036101505160331726 454:-0.028946423903107643 455:0.03309563919901848 456:-0.07959065586328506 457:0.033390533179044724 458:0.02890794537961483 459:0.0724012702703476 460:0.04442961886525154 461:0.04933852329850197 462:0.004732126835733652 463:-0.00819334015250206 464:0.022282350808382034 465:0.0781649798154831 466:0.04119683802127838 467:-0.04613765329122543 468:0.04854683205485344 469:0.04069804772734642 470:0.035323161631822586 471:-0.013740397989749908 472:0.031229503452777863 473:-0.020388126373291016 474:-0.07096618413925171 475:0.10526090860366821 476:-0.01353616826236248 477:0.047039903700351715 478:0.06921292096376419 479:-0.043684665113687515 480:0.06242974475026131 481:-0.026642275974154472 482:-0.025146381929516792 483:0.03386363759636879 484:-0.0045943656004965305 485:-0.03818955644965172 486:-0.03582921624183655 487:0.05562853813171387 488:0.06558354943990707 489:-0.1241571381688118 490:0.019117064774036407 491:-0.029286326840519905 492:-0.04122616723179817 493:-0.027855025604367256 494:0.06360654532909393 495:-0.012304076924920082 496:0.005017814226448536 497:0.01355712115764618 498:0.08549589663743973 499:-0.025956692174077034 500:-0.08244098722934723 501:0.005332925822585821 502:0.012581199407577515 503:0.009281983599066734 504:0.0105257174000144 505:0.05011305212974548 506:0.0023076741490513086 507:-0.008031204342842102 508:-0.05407300963997841 509:-0.08534581959247589 510:0.02359686605632305 511:0.004159111995249987 
1.0 0.9464314453629359 0.23451787435023236 1.0 0.0 0.699106487797393 0.0 0:0.0032523376867175102 1:-0.008172249421477318 2:-0.05506199598312378 3:0.012569922022521496 4:8.451106259599328E-4 5:-0.07212798297405243 6:-4.8284983495250344E-4 7:0.09147173911333084 8:0.05426303297281265 9:0.009427394717931747 10:0.029069950804114342 11:0.0023581318091601133 12:3.085086354985833E-4 13:-0.0035595924127846956 14:-0.009539425373077393 15:0.0058317650109529495 16:0.06416308879852295 17:0.06019345670938492 18:0.03610115498304367 19:0.02463129162788391 20:0.006374478340148926 21:0.03602508455514908 22:0.028623634949326515 23:-0.05784133821725845 24:-0.010940952226519585 25:-0.0525074377655983 26:0.011955751106142998 27:-0.016442785039544106 28:0.03693454712629318 29:0.039544716477394104 30:0.03288363665342331 31:0.03511311486363411 32:0.034024279564619064 33:0.024843577295541763 34:0.017050910741090775 35:-0.0662899762392044 36:-0.07549773901700974 37:-0.02413751743733883 38:0.010617097839713097 39:0.016756413504481316 40:-0.009137110784649849 41:-0.06002413481473923 42:-0.0031145098619163036 43:0.05217437818646431 44:0.005122235976159573 45:-0.014320777729153633 46:-0.03500097617506981 47:0.052884791046381 48:-0.10093581676483154 49:0.03906076028943062 50:0.02692377008497715 51:-0.022971663624048233 52:0.09687131643295288 53:0.015167136676609516 54:-0.0541013740003109 55:-0.03562186658382416 56:-0.08522328734397888 57:0.0748530849814415 58:-0.059758592396974564 59:0.0019243606366217136 60:-0.025203833356499672 61:0.02129771001636982 62:-0.020785016939044 63:0.06465180218219757 64:-0.061830420047044754 65:-0.06594578921794891 66:-0.043859805911779404 67:0.037035174667835236 68:7.190961041487753E-4 69:-0.040878113359212875 70:0.03023555688560009 71:-0.03206881135702133 72:-0.06244799494743347 73:-0.019423242658376694 74:0.007463457528501749 75:-0.013049653731286526 76:0.04635504633188248 77:-0.0050561437383294106 78:0.014401848427951336 79:-0.05121589079499245 80:0.030278850346803665 81:0.06195259466767311 82:-0.06196233630180359 83:-0.07523765414953232 84:-0.01399895828217268 85:0.0034117870964109898 86:0.053946614265441895 87:0.006351735442876816 88:0.017700014635920525 89:-0.02235390432178974 90:-0.012299214489758015 91:-0.038278523832559586 92:0.012443145737051964 93:-0.03752056881785393 94:0.026369715109467506 95:0.042657069861888885 96:-0.007871266454458237 97:0.013479777611792088 98:-0.10557311773300171 99:0.01478922925889492 100:0.01552732102572918 101:0.0724172592163086 102:0.026106858626008034 103:0.006569365039467812 104:0.0413832850754261 105:0.02055521309375763 106:0.025439413264393806 107:0.06562945246696472 108:0.06311905384063721 109:-0.008568628691136837 110:0.07654866576194763 111:-0.010221210308372974 112:-0.00801276508718729 113:-0.081003837287426 114:0.043604589998722076 115:0.07284602522850037 116:0.013296118006110191 117:0.08506044000387192 118:-0.015855584293603897 119:0.06153588369488716 120:0.036885231733322144 121:0.04905035346746445 122:0.003546680323779583 123:-0.022258179262280464 124:-0.06184762343764305 125:0.02441224828362465 126:0.015251079574227333 127:-0.023530995473265648 128:-0.011551148258149624 129:-0.019991492852568626 130:-0.01449083536863327 131:-0.009455264545977116 132:0.015502765774726868 133:-0.06444784253835678 134:0.04777458682656288 135:0.01756533607840538 136:-0.023321911692619324 137:-0.039301883429288864 138:0.05885925889015198 139:0.007962984964251518 140:-0.03353261202573776 141:0.024333199486136436 142:-0.059818167239427567 143:-0.00467335619032383 144:-0.0037003627512604 145:0.04570218175649643 146:0.03520038723945618 147:0.06904531270265579 148:-0.0135323042050004 149:-0.048803575336933136 150:0.020171599462628365 151:0.014209315180778503 152:-0.012065865099430084 153:-0.02463623881340027 154:0.05181173235177994 155:-0.01711858995258808 156:-0.06997538357973099 157:0.009705102071166039 158:0.051993273198604584 159:-0.01064987014979124 160:-0.014673185534775257 161:0.04175718128681183 162:0.03219839185476303 163:0.03193783760070801 164:0.0818028673529625 165:0.004725134931504726 166:-0.040501561015844345 167:0.07413598150014877 168:-0.07828514277935028 169:0.04705943912267685 170:-0.007381112314760685 171:-0.03808852657675743 172:0.004039116203784943 173:0.0135836536064744 174:-0.0024593856651335955 175:0.0496511310338974 176:-0.09634479135274887 177:-0.002751908963546157 178:-0.008484277874231339 179:0.006004618015140295 180:-0.020626120269298553 181:0.02366701327264309 182:0.009268403984606266 183:0.0018072676612064242 184:0.07756240665912628 185:2.3153790971264243E-4 186:0.018482746556401253 187:-0.02401217631995678 188:-0.011601418256759644 189:0.007361216936260462 190:0.07663291692733765 191:-0.04443982243537903 192:0.06210443750023842 193:-0.028216905891895294 194:0.11215528100728989 195:-0.034243740141391754 196:-0.043944891542196274 197:-0.0025874122511595488 198:0.006064870860427618 199:-0.03895306587219238 200:0.1266007423400879 201:-0.07832031697034836 202:0.09638695418834686 203:-0.03266970440745354 204:0.004583625588566065 205:-0.0020596508402377367 206:0.06625831127166748 207:-0.019678054377436638 208:-0.009336838498711586 209:-0.0019163521938025951 210:-0.0066487896256148815 211:0.030287938192486763 212:-0.03722548112273216 213:-0.002547523705288768 214:0.005355273373425007 215:-0.0077021922916173935 216:0.09712634235620499 217:0.015695901587605476 218:0.048026517033576965 219:-0.06139503791928291 220:0.016305334866046906 221:0.04602663218975067 222:0.023750605061650276 223:0.005626631900668144 224:0.03837807476520538 225:-0.014822653494775295 226:0.05326087400317192 227:0.039042454212903976 228:-0.051387906074523926 229:-0.010604212060570717 230:-0.01787303015589714 231:-0.030467702075839043 232:0.06166737526655197 233:0.024399541318416595 234:-0.058905888348817825 235:0.11032092571258545 236:-0.03896040469408035 237:-0.060642827302217484 238:0.01245902106165886 239:0.014355035498738289 240:-0.08123276382684708 241:-0.03179560974240303 242:0.010969501920044422 243:-0.005216541234403849 244:0.11969026923179626 245:0.060190360993146896 246:-0.014271445572376251 247:-0.05455697327852249 248:0.030384816229343414 249:0.014040411449968815 250:-0.05612969025969505 251:0.030807368457317352 252:0.037439167499542236 253:0.005772798787802458 254:-0.05528216436505318 255:-0.05726500228047371 256:0.05559429153800011 257:-0.06836596131324768 258:-0.04823477938771248 259:-0.0070941271260380745 260:-0.046171147376298904 261:-0.059384796768426895 262:0.019588882103562355 263:-0.014822850003838539 264:-0.051382001489400864 265:-0.040031030774116516 266:0.03179963305592537 267:-0.03495271876454353 268:-0.028993211686611176 269:-0.0139449592679739 270:-0.02809051051735878 271:0.05410101264715195 272:0.025044389069080353 273:0.021653486415743828 274:-0.038815610110759735 275:-0.0031261148396879435 276:-9.303544065915048E-4 277:-0.016680102795362473 278:-0.01609225384891033 279:-0.03874653950333595 280:-0.037239644676446915 281:0.0269218347966671 282:0.078767791390419 283:-0.037121258676052094 284:0.0475061796605587 285:0.030456051230430603 286:0.11485878378152847 287:-0.007178316358476877 288:-0.1026902049779892 289:-0.07401136308908463 290:-0.006918128579854965 291:0.021846560761332512 292:0.028416045010089874 293:-0.0190403051674366 294:-0.03573421761393547 295:-0.0035438279155641794 296:0.02709747850894928 297:-0.02655342034995556 298:0.05203700810670853 299:0.050309885293245316 300:0.04772665724158287 301:0.013749800622463226 302:-0.08270380645990372 303:0.03303813934326172 304:0.007863467559218407 305:0.026597676798701286 306:-0.0647350549697876 307:-0.021384406834840775 308:-0.013827607966959476 309:0.043830811977386475 310:-0.054129358381032944 311:0.03555706515908241 312:0.023918936029076576 313:0.011593196541070938 314:0.027691306546330452 315:-0.018751641735434532 316:0.055178385227918625 317:-0.024710610508918762 318:0.10868759453296661 319:-0.11745314300060272 320:-0.004528994672000408 321:0.0014596653636544943 322:-0.0499703586101532 323:-0.026021495461463928 324:-0.0058075920678675175 325:0.02534809522330761 326:0.017792079597711563 327:0.06340286880731583 328:0.03219468519091606 329:-0.006560441106557846 330:-0.011252346448600292 331:0.10365758836269379 332:-0.032600123435258865 333:0.07708591967821121 334:0.030069859698414803 335:0.046942755579948425 336:0.0039031964261084795 337:7.350512169068679E-5 338:-0.028766652569174767 339:-0.05398271232843399 340:0.05027253180742264 341:-0.016463804990053177 342:0.021800357848405838 343:0.0282160434871912 344:0.04602446407079697 345:-0.017671676352620125 346:0.02597377821803093 347:0.01812746375799179 348:-0.0018481211736798286 349:-0.027764325961470604 350:0.025424527004361153 351:-0.0317617803812027 352:-0.05614790320396423 353:0.033719442784786224 354:0.03235733136534691 355:0.03529414162039757 356:0.06406286358833313 357:-0.03323448449373245 358:-6.053941324353218E-4 359:-0.005590925924479961 360:0.040573131293058395 361:-0.014875588938593864 362:-0.030428778380155563 363:0.05803576484322548 364:-0.0035310531966388226 365:0.006359067279845476 366:-0.038237109780311584 367:0.002430578460916877 368:0.048499006778001785 369:-0.04784790799021721 370:-0.047653429210186005 371:0.04478638991713524 372:-0.012152153998613358 373:-4.3264502892270684E-4 374:0.003260251833125949 375:0.05853370949625969 376:-0.05508982390165329 377:0.03352874889969826 378:0.02923782728612423 379:-0.03807016462087631 380:-0.00706449942663312 381:0.03976733982563019 382:0.017865054309368134 383:0.017762571573257446 384:0.044297270476818085 385:-0.044394537806510925 386:-0.0017847470007836819 387:0.05144461989402771 388:-0.06313256174325943 389:-0.05730481818318367 390:0.023963885381817818 391:0.019831638783216476 392:-0.016535591334104538 393:-0.04941459745168686 394:0.0048288204707205296 395:-0.08748941868543625 396:-0.037308793514966965 397:0.05249899625778198 398:0.08654414862394333 399:-0.0051811798475682735 400:0.04380000755190849 401:-0.030591603368520737 402:0.07779335230588913 403:0.0054076784290373325 404:-0.010318227112293243 405:-0.037992674857378006 406:0.007273154798895121 407:0.008514153771102428 408:0.056410014629364014 409:-0.11189309507608414 410:0.08757631480693817 411:0.014803331345319748 412:-0.07913757860660553 413:-0.08152762800455093 414:-0.0782766342163086 415:-0.006075727287679911 416:0.004017651546746492 417:0.02524995431303978 418:0.05134834349155426 419:-0.04047796502709389 420:0.09765075892210007 421:-0.025769438594579697 422:0.038873739540576935 423:0.06229200214147568 424:-0.05950818583369255 425:-0.06409391015768051 426:0.005575485061854124 427:-0.007373280357569456 428:-0.0599668063223362 429:-0.06086324155330658 430:-0.04803077131509781 431:-0.02295953966677189 432:0.0016359274741262197 433:-0.009838328696787357 434:0.04998742416501045 435:-0.044271379709243774 436:-0.010603148490190506 437:-0.11787931621074677 438:-0.04278725013136864 439:-0.0014426870038732886 440:-0.030642399564385414 441:-0.06819681823253632 442:0.05622217431664467 443:0.07154282182455063 444:-0.01920248754322529 445:-0.03733913600444794 446:-0.01661137491464615 447:0.015149319544434547 448:0.07416783273220062 449:0.027730483561754227 450:-0.028582928702235222 451:-0.013453631661832333 452:-0.07522804290056229 453:0.022735698148608208 454:-0.005313594359904528 455:0.02561352215707302 456:-0.11024150252342224 457:-0.008172070607542992 458:-0.040043819695711136 459:0.08561906963586807 460:0.042089980095624924 461:-0.009135276079177856 462:-0.005942908581346273 463:0.008569302968680859 464:0.028422214090824127 465:0.054081834852695465 466:0.044958774000406265 467:-0.01980624720454216 468:-0.009745854884386063 469:0.06760435551404953 470:0.04359312728047371 471:-0.023702377453446388 472:-0.002387545071542263 473:-0.011382927186787128 474:-0.06498891860246658 475:0.08956677466630936 476:-0.05091921240091324 477:0.03829203546047211 478:0.048259224742650986 479:-0.040261391550302505 480:-0.009401817806065083 481:-0.07298879325389862 482:-0.019593242555856705 483:0.02786332182586193 484:-0.054375872015953064 485:-0.03900984302163124 486:-0.023247836157679558 487:0.05793068930506706 488:0.04289977252483368 489:-0.07083272188901901 490:0.032307472079992294 491:0.016933750361204147 492:-0.021827032789587975 493:-0.04957609623670578 494:0.04072088003158569 495:0.009413647465407848 496:0.03251637518405914 497:-0.018518490716814995 498:0.03502903878688812 499:-0.043610651046037674 500:-0.02636968344449997 501:8.044147398322821E-4 502:-0.003288474166765809 503:-0.020376354455947876 504:0.08108944445848465 505:0.02816690318286419 506:-0.028454488143324852 507:-0.038378600031137466 508:-0.07116523385047913 509:-0.03527078405022621 510:-0.0071138013154268265 511:-0.04049565643072128 
0.0 0.0 0.6762550545975863 0.0 0.0 0.0 0.0 0:0.058215148746967316 1:-0.026842694729566574 2:-0.030183926224708557 3:0.004726634360849857 4:0.03127945587038994 5:-0.013570289127528667 6:0.0252754595130682 7:0.011685934849083424 8:-0.028248146176338196 9:0.014934870414435863 10:0.044568322598934174 11:0.04825275391340256 12:-0.06428888440132141 13:0.018500663340091705 14:-0.032302360981702805 15:-0.033327020704746246 16:0.05793803557753563 17:0.07249589264392853 18:-0.028972234576940536 19:0.03508082032203674 20:0.004594692960381508 21:0.02950155921280384 22:0.08794909715652466 23:-0.07854514569044113 24:-0.06623560190200806 25:-0.04708210751414299 26:0.039603523910045624 27:-0.060026757419109344 28:0.01473981887102127 29:-4.3152205762453377E-4 30:0.04825590178370476 31:0.014505334198474884 32:0.01864069513976574 33:0.06896191835403442 34:0.001704490976408124 35:-0.046324167400598526 36:-0.05097367987036705 37:-0.042334362864494324 38:0.005065394099801779 39:0.02776300348341465 40:0.012271322309970856 41:-0.07176007330417633 42:-0.03319841995835304 43:0.04507772624492645 44:-0.030411606654524803 45:-0.01830141991376877 46:-0.055205024778842926 47:0.03492473065853119 48:-0.09239175170660019 49:0.020925655961036682 50:-0.04599050059914589 51:-0.03353262320160866 52:0.09869539737701416 53:0.07272851467132568 54:-0.07386887818574905 55:-0.05663108825683594 56:-0.04507299140095711 57:0.06690657138824463 58:-0.0022460634354501963 59:-0.02308930829167366 60:-0.01587085612118244 61:0.06078341230750084 62:-0.009055159986019135 63:0.09286780655384064 64:0.03373981639742851 65:-0.053123462945222855 66:-0.01860762946307659 67:-0.04602838307619095 68:0.029731687158346176 69:-0.00791710801422596 70:-0.035660434514284134 71:0.0013198353117331862 72:0.01052271667867899 73:0.012302715331315994 74:-0.03156508132815361 75:-0.009996229782700539 76:-0.030147645622491837 77:-0.08646267652511597 78:0.012105484493076801 79:-0.00688109640032053 80:0.027934113517403603 81:0.027333831414580345 82:-0.07747682929039001 83:0.0104709193110466 84:0.06352388113737106 85:0.03514919802546501 86:0.03611590713262558 87:0.002702039200812578 88:-0.03752004727721214 89:-0.0519820936024189 90:0.022685544565320015 91:-0.04241574928164482 92:-0.002350255846977234 93:-0.07248973101377487 94:0.055067796260118484 95:0.0034866463392972946 96:-0.01854759082198143 97:0.08483263105154037 98:-0.07331561297178268 99:-2.913702337536961E-4 100:0.08262934535741806 101:0.1014147624373436 102:-0.011526044458150864 103:0.0644741952419281 104:0.07057882845401764 105:-0.016684487462043762 106:0.03244757279753685 107:0.02704576775431633 108:-0.001354931970126927 109:-0.0773102343082428 110:0.0871354416012764 111:0.02779458276927471 112:-0.05469512939453125 113:-0.13366641104221344 114:-0.013044138438999653 115:-0.01708059199154377 116:-0.017653970047831535 117:0.008578871376812458 118:0.013395389541983604 119:0.03527267649769783 120:-0.0053994785994291306 121:0.040959373116493225 122:-0.06709954887628555 123:-0.00780532555654645 124:-0.09731991589069366 125:-0.01140761561691761 126:0.07047640532255173 127:-0.055227406322956085 128:-9.840641869232059E-4 129:-0.027266476303339005 130:-0.07411620020866394 131:0.012814569287002087 132:-0.006734480150043964 133:-0.032028600573539734 134:-0.018812550231814384 135:-0.028118636459112167 136:-0.0555185042321682 137:-0.040896788239479065 138:0.028199177235364914 139:0.08514002710580826 140:-0.0033268595580011606 141:0.0917147770524025 142:-0.049181919544935226 143:0.07035529613494873 144:-0.05044560879468918 145:-0.01192844845354557 146:-0.02960306778550148 147:0.03244701027870178 148:-3.7506065564230084E-4 149:0.014521153643727303 150:0.06431752443313599 151:0.036802925169467926 152:-0.06037183105945587 153:-0.013678804971277714 154:0.08837004005908966 155:0.03386611118912697 156:-0.10051827132701874 157:0.02803185023367405 158:-0.017790744081139565 159:-0.03091784007847309 160:0.02460344508290291 161:0.059480246156454086 162:0.04182621091604233 163:0.07422647625207901 164:0.008935843594372272 165:0.07048974931240082 166:-0.0639648362994194 167:0.0638599693775177 168:-0.06518229097127914 169:0.028783194720745087 170:-0.042429450899362564 171:-0.0757400318980217 172:-0.03912599757313728 173:-0.008494840003550053 174:0.007638776209205389 175:0.09576362371444702 176:-0.13626255095005035 177:0.002559302607551217 178:0.016471294686198235 179:0.027341241016983986 180:-0.01810397580265999 181:-0.04323318228125572 182:0.0015527904033660889 183:0.012035590596497059 184:0.07298485934734344 185:-0.004086483269929886 186:0.030285131186246872 187:0.02459614723920822 188:0.004531963728368282 189:5.858236181666143E-5 190:0.05868646502494812 191:-0.04678403586149216 192:0.014901638962328434 193:-0.08735054731369019 194:0.10169287770986557 195:-0.0459192730486393 196:-0.08126132190227509 197:0.013588354922831059 198:0.0416165329515934 199:0.013969813473522663 200:0.08888183534145355 201:-0.0290985107421875 202:0.0052865976467728615 203:-0.054846737533807755 204:0.05361504480242729 205:0.05116424709558487 206:0.010036262683570385 207:-0.01499756146222353 208:0.04198877140879631 209:0.017530154436826706 210:-0.039209213107824326 211:0.017886294052004814 212:-0.01386963576078415 213:-0.012424862943589687 214:-0.08770131319761276 215:-0.02232396975159645 216:0.06851133704185486 217:0.04527200385928154 218:0.01718270033597946 219:0.0266240406781435 220:-0.057019028812646866 221:0.023133432492613792 222:0.052567776292562485 223:0.02039649710059166 224:0.10207043588161469 225:0.00397883914411068 226:0.02973135933279991 227:0.015381666831672192 228:-0.060509078204631805 229:-0.02407498098909855 230:0.02564394846558571 231:0.02738470397889614 232:0.009400234557688236 233:-0.03043866716325283 234:-0.021671196445822716 235:-0.05373094975948334 236:0.018815577030181885 237:-0.015598407946527004 238:0.02456975355744362 239:0.0028588329441845417 240:0.01890711672604084 241:-0.07579834759235382 242:-0.005896483547985554 243:0.038745056837797165 244:0.0637829378247261 245:0.015464636497199535 246:0.0015710360603407025 247:-0.044492438435554504 248:-0.031347766518592834 249:-0.005644633434712887 250:0.0033239200711250305 251:0.005928603000938892 252:0.06392060965299606 253:0.015570116229355335 254:-1.7930293688550591E-4 255:-0.06354647129774094 256:0.012915664352476597 257:0.03683336824178696 258:-0.00381633173674345 259:0.04592740535736084 260:0.01845162734389305 261:0.0010519517818465829 262:0.036365777254104614 263:-5.390774458646774E-4 264:-0.040830064564943314 265:-0.016695672646164894 266:0.07319062948226929 267:-0.03541642054915428 268:0.016245238482952118 269:-0.07912059873342514 270:0.03501826897263527 271:0.02220342494547367 272:0.053633395582437515 273:-0.008807335048913956 274:-0.016813313588500023 275:0.06302424520254135 276:-0.004010665696114302 277:-0.018362432718276978 278:0.020054209977388382 279:-0.06174864619970322 280:0.00604135449975729 281:0.06284253299236298 282:0.014713678508996964 283:-0.013783612288534641 284:-0.03416319936513901 285:-0.01860329695045948 286:0.03953535854816437 287:-0.009594340808689594 288:0.03338043764233589 289:0.0066763912327587605 290:-0.059982720762491226 291:-0.037806689739227295 292:0.05921691283583641 293:-0.03153487667441368 294:0.010388671420514584 295:-0.04249660670757294 296:-0.03379027545452118 297:-0.026003045961260796 298:-0.0046627102419734 299:-0.013074630871415138 300:0.0875338762998581 301:0.015001247636973858 302:-0.05555900186300278 303:0.0480949729681015 304:0.029343586415052414 305:-0.015736643224954605 306:-0.054247722029685974 307:-0.06090715155005455 308:-0.03249530866742134 309:0.024440212175250053 310:-0.014231369830667973 311:-7.123370305635035E-4 312:0.028592346236109734 313:0.02004057541489601 314:0.053162287920713425 315:-0.015014447271823883 316:-0.023216944187879562 317:0.03577623888850212 318:0.07918380200862885 319:-0.02633407898247242 320:0.010783849284052849 321:0.01828337460756302 322:-0.021543851122260094 323:0.020068710669875145 324:0.010784853249788284 325:-0.012517469935119152 326:0.0319843590259552 327:0.04702529311180115 328:0.020126502960920334 329:-0.01729806512594223 330:0.0048120878636837006 331:0.0362154059112072 332:-0.07738307863473892 333:0.07751701027154922 334:0.03928220644593239 335:0.027885012328624725 336:0.04192783311009407 337:-0.057427629828453064 338:-0.04009616747498512 339:-0.0436842143535614 340:0.04953695461153984 341:-0.04662225767970085 342:0.06368295848369598 343:-0.03500385209918022 344:-0.03109925240278244 345:0.024882851168513298 346:0.003204236039891839 347:-0.03861388936638832 348:0.014502150006592274 349:-0.006609826814383268 350:-0.018411017954349518 351:-0.030940253287553787 352:0.018616078421473503 353:-0.02125266194343567 354:0.021528109908103943 355:0.04630035534501076 356:0.039698317646980286 357:0.01295186672359705 358:-0.021691665053367615 359:0.01822008192539215 360:-0.023390959948301315 361:-0.04458301514387131 362:-0.00867325346916914 363:0.04048967733979225 364:0.047399524599313736 365:0.00854622945189476 366:-0.006302526220679283 367:0.03214910253882408 368:0.011403322219848633 369:-0.042605653405189514 370:-0.047157641500234604 371:-0.017701180651783943 372:0.008446985855698586 373:0.0455426424741745 374:0.028396297246217728 375:0.06642346829175949 376:-0.05981391295790672 377:0.06659924238920212 378:-0.011796332895755768 379:0.03342883288860321 380:-1.3762226444669068E-4 381:-0.006641110870987177 382:-0.07332827895879745 383:0.011112991720438004 384:0.06152787059545517 385:-0.0050714579410851 386:0.06847521662712097 387:0.0930098220705986 388:0.017345355823636055 389:0.05451450124382973 390:0.002975134877488017 391:0.0743047371506691 392:-0.04967216029763222 393:0.04411068558692932 394:-0.024094276130199432 395:0.0018002003198489547 396:-0.0648995116353035 397:0.04251872003078461 398:0.02211371809244156 399:-0.06894628703594208 400:0.01268107071518898 401:-0.02572566643357277 402:0.07207309454679489 403:-0.01839754730463028 404:0.024305881932377815 405:0.009488672018051147 406:-0.06661073118448257 407:-0.04754115268588066 408:-7.26320780813694E-4 409:-0.08094711601734161 410:0.07260797172784805 411:-0.0025972912553697824 412:-0.061352696269750595 413:-0.005423398222774267 414:-0.0762186348438263 415:-0.06958945095539093 416:0.03346424549818039 417:0.026151422411203384 418:0.0013858157908543944 419:-0.08796834945678711 420:0.03438349813222885 421:-0.011661347001791 422:-0.010516009293496609 423:0.047129806131124496 424:-0.018356990069150925 425:-0.013208151794970036 426:0.04397481307387352 427:-0.012962207198143005 428:0.019794929772615433 429:-0.057860929518938065 430:-0.05033282935619354 431:0.0483076348900795 432:0.026227828115224838 433:-0.025004027411341667 434:0.018645722419023514 435:-0.06952852010726929 436:-0.06405723094940186 437:-0.05445484817028046 438:-0.01110911276191473 439:-0.021453682333230972 440:-0.0552588552236557 441:-0.013588911853730679 442:0.007376266177743673 443:0.07247516512870789 444:-0.05978722125291824 445:0.018764568492770195 446:1.63545468240045E-4 447:0.03150748834013939 448:-2.6978878304362297E-4 449:-0.042487360537052155 450:-0.003216363023966551 451:-0.006785556674003601 452:0.01627955585718155 453:-3.7616415647789836E-4 454:-0.031870901584625244 455:0.027010304853320122 456:-0.06941129267215729 457:0.056830618530511856 458:0.038099609315395355 459:0.060991980135440826 460:0.0602768175303936 461:0.07572587579488754 462:0.04996918514370918 463:-9.94403031654656E-4 464:-0.007815590128302574 465:0.034036148339509964 466:0.037381939589977264 467:-0.016104290261864662 468:0.05050737410783768 469:0.043508436530828476 470:0.0552188903093338 471:-0.02963334508240223 472:0.0466773621737957 473:-0.05647395923733711 474:-0.07661794126033783 475:0.026929838582873344 476:0.039281103760004044 477:0.01440198440104723 478:-0.011164250783622265 479:-0.0594843327999115 480:0.043174631893634796 481:-0.0016873616259545088 482:0.014698331244289875 483:0.009915689006447792 484:5.992111982777715E-4 485:-0.018199840560555458 486:-0.017816273495554924 487:0.045736461877822876 488:0.07529271394014359 489:-0.11803683638572693 490:-4.0815756074152887E-4 491:-0.06582461297512054 492:-0.030740980058908463 493:-0.0036397718358784914 494:0.035127267241477966 495:-0.033387038856744766 496:-2.0003817917313427E-4 497:-0.004575256258249283 498:0.07254232466220856 499:0.009319920092821121 500:-0.06383159011602402 501:0.027719201520085335 502:-0.02624988928437233 503:0.03570952266454697 504:-0.0017274041892960668 505:0.04348660260438919 506:0.05379423126578331 507:0.015393656678497791 508:-0.09724520146846771 509:-0.0783587098121643 510:0.019420307129621506 511:-0.010044156573712826 
1.0 0.0 0.5547433156534229 0.27488895069655017 0.0 0.07510671462329693 0.6218853279703467 0:0.04171734303236008 1:-0.03609001263976097 2:-0.013706210069358349 3:0.015952151268720627 4:0.01218741200864315 5:0.003922380972653627 6:0.009713815525174141 7:0.00537742767482996 8:-0.023182302713394165 9:0.020595604553818703 10:0.06726381182670593 11:0.05308729037642479 12:-0.048563193529844284 13:0.03125854581594467 14:-0.04062502831220627 15:-0.018831023946404457 16:0.049798522144556046 17:0.06558515131473541 18:-0.03475132957100868 19:0.037474244832992554 20:0.02051456645131111 21:0.015961145982146263 22:0.08869445323944092 23:-0.07313841581344604 24:-0.06475243717432022 25:-0.05433279275894165 26:0.024595243856310844 27:-0.04071991145610809 28:-0.0010734734823927283 29:-0.012903443537652493 30:0.05684182420372963 31:0.03128306567668915 32:0.009786972776055336 33:0.08713610470294952 34:-0.010830962099134922 35:-0.043652359396219254 36:-0.05537678301334381 37:-0.04703553766012192 38:-0.007111662998795509 39:0.027276890352368355 40:0.02642826922237873 41:-0.06882268190383911 42:-0.028317945078015327 43:0.05739506334066391 44:-0.015110048465430737 45:-0.0030291383154690266 46:-0.02486567012965679 47:0.02418927289545536 48:-0.07718166708946228 49:0.012659398838877678 50:-0.04771088436245918 51:-0.037840425968170166 52:0.1172262504696846 53:0.07214559614658356 54:-0.05342019349336624 55:-0.04004179686307907 56:-0.05091472715139389 57:0.061782822012901306 58:0.006671368144452572 59:-0.021332694217562675 60:-0.016893481835722923 61:0.05071103572845459 62:-0.014195671305060387 63:0.10753007233142853 64:0.04153876379132271 65:-0.028243929147720337 66:-0.03311968967318535 67:-0.04044675827026367 68:0.01519173476845026 69:-0.01139470748603344 70:-0.040469612926244736 71:0.004552764818072319 72:0.016871323809027672 73:0.03499317169189453 74:-0.025374997407197952 75:6.680061342194676E-4 76:-0.05043121799826622 77:-0.06687532365322113 78:0.006630996707826853 79:-0.027439672499895096 80:0.04382694885134697 81:0.027194617316126823 82:-0.0895710214972496 83:0.02125285193324089 84:0.06520362198352814 85:0.051635805517435074 86:0.039898477494716644 87:0.005496136844158173 88:-0.03143976628780365 89:-0.04405127465724945 90:0.017810054123401642 91:-0.015819594264030457 92:-0.0126188350841403 93:-0.05983227863907814 94:0.05630231276154518 95:0.019103510305285454 96:-0.01392628625035286 97:0.09132090210914612 98:-0.044294726103544235 99:-0.004091458395123482 100:0.09109202772378922 101:0.10954412817955017 102:-0.008643819019198418 103:0.05216416344046593 104:0.07717559486627579 105:-0.018956728279590607 106:0.02026117965579033 107:0.002951287431642413 108:-0.03466225787997246 109:-0.06905091553926468 110:0.0819721445441246 111:0.04447285458445549 112:-0.05068277567625046 113:-0.12398301064968109 114:-0.02276734821498394 115:-0.0049191806465387344 116:-0.0315072238445282 117:0.022619016468524933 118:1.8007714243140072E-4 119:0.03578256443142891 120:-0.004519581329077482 121:0.037445683032274246 122:-0.05877494812011719 123:-0.011068759486079216 124:-0.08240506798028946 125:-0.008467067964375019 126:0.0910380482673645 127:-0.04431132599711418 128:0.01836196519434452 129:-0.06252630054950714 130:-0.0635039284825325 131:0.017887674272060394 132:-0.010071096010506153 133:-0.019145764410495758 134:0.006774642039090395 135:-0.024508198723196983 136:-0.058798160403966904 137:-0.047224707901477814 138:0.007973872125148773 139:0.09357582777738571 140:-0.010011404752731323 141:0.08936970680952072 142:-0.041383933275938034 143:0.05214576795697212 144:-0.04951300844550133 145:-0.01945572905242443 146:-0.044619206339120865 147:0.06750471889972687 148:0.0065535688772797585 149:0.01677229441702366 150:0.07234864681959152 151:0.038787081837654114 152:-0.06446570158004761 153:-0.012474574148654938 154:0.07418501377105713 155:0.052903756499290466 156:-0.10876678675413132 157:0.021706650033593178 158:-0.025844650343060493 159:-0.04519888386130333 160:0.020173804834485054 161:0.0748673751950264 162:0.046532243490219116 163:0.07230706512928009 164:-0.001123204012401402 165:0.04616139084100723 166:-0.07225701212882996 167:0.049009885638952255 168:-0.04977971687912941 169:0.02885187231004238 170:-0.05402125418186188 171:-0.06646910309791565 172:-0.0332450307905674 173:-0.014509392902255058 174:0.0069902874529361725 175:0.10372953116893768 176:-0.1357424408197403 177:0.026138892397284508 178:0.010053494945168495 179:0.017151903361082077 180:-0.01635219156742096 181:-0.03072059527039528 182:0.009041368030011654 183:0.02815593034029007 184:0.05928175151348114 185:0.001027398742735386 186:0.043306510895490646 187:0.03765709698200226 188:0.003148743649944663 189:-0.01363502535969019 190:0.07299859821796417 191:-0.03452536463737488 192:0.02657373622059822 193:-0.07876548171043396 194:0.08985310792922974 195:-0.03928020969033241 196:-0.08567436039447784 197:0.005006533581763506 198:0.0351591594517231 199:0.007087303791195154 200:0.10008510202169418 201:-0.01904604397714138 202:0.015883170068264008 203:-0.05366836115717888 204:0.05162114277482033 205:0.05138150602579117 206:-0.004811862017959356 207:-0.0066157313995063305 208:0.059915006160736084 209:0.001093323458917439 210:-0.03826185315847397 211:0.038590241223573685 212:-0.005156064406037331 213:-0.002246076473966241 214:-0.08290578424930573 215:-0.01844954490661621 216:0.06320905685424805 217:0.044769901782274246 218:0.011522912420332432 219:0.013919252902269363 220:-0.0494733601808548 221:0.0394449457526207 222:0.05712565407156944 223:0.020528344437479973 224:0.11178417503833771 225:0.015575163997709751 226:0.030095046386122704 227:0.03070419281721115 228:-0.057389724999666214 229:-0.00732023362070322 230:0.01971937157213688 231:0.019006645306944847 232:9.237389895133674E-4 233:-0.02425878867506981 234:-0.020325032994151115 235:-0.04688794165849686 236:0.020505739375948906 237:-0.015102189034223557 238:0.0314030684530735 239:0.02633979171514511 240:0.005420862231403589 241:-0.027893180027604103 242:-0.011546628549695015 243:0.04512932896614075 244:0.039744772017002106 245:9.895964758470654E-4 246:-0.010645676404237747 247:-0.030818767845630646 248:-0.02508760429918766 249:0.0037317192181944847 250:-0.012070874683558941 251:0.003506156150251627 252:0.06473955512046814 253:0.01662284880876541 254:0.013108002953231335 255:-0.036294642835855484 256:-0.002948829671368003 257:0.03108033910393715 258:-4.4473548769019544E-4 259:0.06396833062171936 260:0.00604073703289032 261:-0.022134719416499138 262:0.03767352178692818 263:0.019344976171851158 264:-0.05520015209913254 265:-0.03328859806060791 266:0.07553885132074356 267:-0.03666215389966965 268:0.03882623091340065 269:-0.08118012547492981 270:0.027740629389882088 271:0.01706209033727646 272:0.056307267397642136 273:0.012438173405826092 274:-0.0023867227137088776 275:0.05760958045721054 276:-0.014869247563183308 277:-0.017807023599743843 278:0.0067441645078361034 279:-0.0531449168920517 280:-0.0065460107289254665 281:0.06067461147904396 282:0.014406679198145866 283:-0.018949581310153008 284:-0.014710254967212677 285:0.008519989438354969 286:0.03608887270092964 287:-0.024318819865584373 288:0.024705441668629646 289:0.00991090014576912 290:-0.024417392909526825 291:9.007243206724524E-4 292:0.06774584949016571 293:-0.016705093905329704 294:0.013018772006034851 295:-0.039048049598932266 296:-0.02293209172785282 297:-0.03205770254135132 298:-0.0015973660629242659 299:-0.02046690694987774 300:0.07916921377182007 301:0.039293307811021805 302:-0.044947549700737 303:0.0534304715692997 304:0.052533674985170364 305:-6.164475344121456E-4 306:-0.0559488981962204 307:-0.05600108951330185 308:-0.02111079730093479 309:0.0073355017229914665 310:-0.02909671701490879 311:-0.00394820049405098 312:0.03234044462442398 313:0.019263625144958496 314:0.061669666320085526 315:-0.024902841076254845 316:-0.023354634642601013 317:0.04999345913529396 318:0.10187099128961563 319:-0.00909463781863451 320:-0.011638731695711613 321:0.002440585056319833 322:-0.030003180727362633 323:0.0013781951274722815 324:0.03107277676463127 325:-0.015052312053740025 326:0.04252848029136658 327:0.046959660947322845 328:0.025496987625956535 329:0.0015336829237639904 330:-0.01117612887173891 331:0.031554367393255234 332:-0.08891414105892181 333:0.056913528591394424 334:0.04907818138599396 335:0.040335554629564285 336:0.05596934258937836 337:-0.054566532373428345 338:-0.04632733389735222 339:-0.04281170293688774 340:0.048173051327466965 341:-0.05954829230904579 342:0.08932507038116455 343:-0.040282342582941055 344:-0.0348237045109272 345:0.028218049556016922 346:0.01362448837608099 347:-0.02072337083518505 348:0.002148342551663518 349:0.025138556957244873 350:0.006314534693956375 351:-0.03661832958459854 352:0.017131920903921127 353:-0.00824572704732418 354:0.035659532994031906 355:0.03284749388694763 356:0.03621271625161171 357:-2.434600446576951E-6 358:-0.02833380363881588 359:0.006703580264002085 360:-0.021667635068297386 361:-0.0683269202709198 362:2.157312846975401E-4 363:0.021732304245233536 364:0.056974995881319046 365:0.004812601022422314 366:-0.02219417504966259 367:0.03472364321351051 368:-0.008085500448942184 369:-0.05469021946191788 370:-0.03587005287408829 371:-0.010883594863116741 372:0.005638414528220892 373:0.04533994942903519 374:0.03828105330467224 375:0.06854058057069778 376:-0.043528176844120026 377:0.052723802626132965 378:-0.010283062234520912 379:0.04771096259355545 380:-0.017867835238575935 381:-0.014612971805036068 382:-0.054780036211013794 383:0.004016744438558817 384:0.040272004902362823 385:-0.017957087606191635 386:0.07652831822633743 387:0.0859881266951561 388:0.019171342253684998 389:0.043523479253053665 390:-0.004132137633860111 391:0.07187808305025101 392:-0.031173905357718468 393:0.03927569463849068 394:-0.010620846413075924 395:0.004621634725481272 396:-0.07106227427721024 397:0.04500535875558853 398:0.02324862591922283 399:-0.07188441604375839 400:0.010653292760252953 401:-0.02884105034172535 402:0.09208149462938309 403:-0.03757449612021446 404:0.028637835755944252 405:0.016964683309197426 406:-0.045656219124794006 407:-0.012877204455435276 408:0.010010852478444576 409:-0.08241190761327744 410:0.07638735324144363 411:-0.005826857872307301 412:-0.04510447382926941 413:-0.007905188016593456 414:-0.08150238543748856 415:-0.06078637018799782 416:0.0250773336738348 417:0.01353425718843937 418:-0.006237407680600882 419:-0.0821002721786499 420:0.04033266007900238 421:-0.00855530146509409 422:-0.013402686454355717 423:0.054850876331329346 424:-0.027103476226329803 425:-0.020817985758185387 426:0.052387386560440063 427:-0.035444289445877075 428:0.03081577457487583 429:-0.08075439184904099 430:-0.04486757889389992 431:0.05074762925505638 432:0.0477726012468338 433:-0.016822535544633865 434:0.04290200024843216 435:-0.05514650419354439 436:-0.05079801008105278 437:-0.04948356747627258 438:-0.020360935479402542 439:-0.04466696456074715 440:-0.061942171305418015 441:-0.007714266423135996 442:0.018575455993413925 443:0.06980801373720169 444:-0.04147208854556084 445:0.021070018410682678 446:0.006572033278644085 447:0.03013242594897747 448:0.009057986550033092 449:-0.036843787878751755 450:-0.00996637437492609 451:-0.01882616989314556 452:0.048331014811992645 453:0.013699746690690517 454:-0.03838462382555008 455:0.03874092549085617 456:-0.05700262263417244 457:0.05849127471446991 458:0.04340893402695656 459:0.038619961589574814 460:0.05325420945882797 461:0.07367070019245148 462:0.05545129254460335 463:-0.011346420273184776 464:-0.006259186193346977 465:0.023933876305818558 466:0.014655078761279583 467:-0.02436635084450245 468:0.04168317839503288 469:0.05130947381258011 470:0.047494616359472275 471:-0.040121763944625854 472:0.02636162005364895 473:-0.049262817949056625 474:-0.07622267305850983 475:0.022445116192102432 476:0.039644476026296616 477:0.02666657604277134 478:0.006121570710092783 479:-0.05420722812414169 480:0.054553501307964325 481:-0.008528287522494793 482:-0.01795082539319992 483:0.016168637201189995 484:-0.010906298644840717 485:-0.04750348627567291 486:2.15573949390091E-4 487:0.0445767305791378 488:0.0817687138915062 489:-0.1311734914779663 490:-0.018281225115060806 491:-0.06816866248846054 492:-0.018114114180207253 493:0.012908662669360638 494:0.025545863434672356 495:-0.038311831653118134 496:0.003517245640978217 497:-0.008362592197954655 498:0.08855441957712173 499:0.01104105543345213 500:-0.07610499858856201 501:0.022846868261694908 502:-0.025268008932471275 503:0.027458863332867622 504:-0.030652526766061783 505:0.028836391866207123 506:0.05399985983967781 507:0.004570954013615847 508:-0.07427126169204712 509:-0.07366769015789032 510:0.014403484761714935 511:0.016038089990615845 
